[ 0.  0.  0.  0.  0.  0.  0.  0.  0.  0.][ 0.  0.  0.  0.  0.  0.  0.  0.  0.  0.][ 0.  0.  0.  0.  0.  0.  0.  0.  0.  0.][ 0.  0.  0.  0.  0.  0.  0.  0.  0.  0.][ 0.  0.  0.  0.  0.  0.  0.  0.  0.  0.][ 0.  0.  0.  0.  0.  0.  0.  0.  0.  0.][ 0.  0.  0.  0.  0.  0.  0.  0.  0.  0.][ 0.  0.  0.  0.  0.  0.  0.  0.  0.  0.][ 0.  0.  0.  0.  0.  0.  0.  0.  0.  0.][ 0.  0.  0.  0.  0.  0.  0.  0.  0.  0.][ 0.  0.  0.  0.  0.  0.  0.  0.  0.  0.][ 0.  0.  0.  0.  0.  0.  0.  0.  0.  0.][ -5.29284328e-06  -7.26312307e-06  -2.02035617e-04  -2.85055073e-05
  -2.08938537e-03  -3.91764573e-05   2.66516436e-03  -8.66301613e-06
  -5.26775834e-05  -2.32164842e-04][ -2.29957246e-05  -2.24558936e-05  -1.66671092e-04  -7.09060107e-05
  -4.70114516e-03  -8.99962107e-05   5.76552772e-03  -2.92666782e-05
  -1.29851228e-04  -5.32239713e-04][ -1.26929438e-05  -7.29129893e-06   3.06820537e-04  -9.44638704e-06
  -1.40338173e-04  -4.68857280e-06  -7.81895075e-05  -1.14593254e-05
  -1.61418293e-05  -2.65724993e-05][ -5.28872658e-07  -3.03804122e-07   1.27841890e-05  -3.93599460e-07
  -5.84742386e-06  -1.95357200e-07  -3.25789615e-06  -4.77471892e-07
  -6.72576223e-07  -1.10718747e-06][ 0.  0.  0.  0.  0.  0.  0.  0.  0.  0.][ 0.  0.  0.  0.  0.  0.  0.  0.  0.  0.][ 0.  0.  0.  0.  0.  0.  0.  0.  0.  0.][ 0.  0.  0.  0.  0.  0.  0.  0.  0.  0.][ 0.  0.  0.  0.  0.  0.  0.  0.  0.  0.][ 0.  0.  0.  0.  0.  0.  0.  0.  0.  0.][ 0.  0.  0.  0.  0.  0.  0.  0.  0.  0.][ 0.  0.  0.  0.  0.  0.  0.  0.  0.  0.][ 0.  0.  0.  0.  0.  0.  0.  0.  0.  0.][ 0.  0.  0.  0.  0.  0.  0.  0.  0.  0.][ 0.  0.  0.  0.  0.  0.  0.  0.  0.  0.][ 0.  0.  0.  0.  0.  0.  0.  0.  0.  0.][ 0.  0.  0.  0.  0.  0.  0.  0.  0.  0.][ 0.  0.  0.  0.  0.  0.  0.  0.  0.  0.][ 0.  0.  0.  0.  0.  0.  0.  0.  0.  0.][ 0.  0.  0.  0.  0.  0.  0.  0.  0.  0.][ -1.89294559e-07  -1.03407449e-07  -6.11749649e-06  -3.05208771e-08
  -2.18621189e-05  -2.59378804e-07   3.07392006e-05  -1.19331661e-07
  -5.40259662e-07  -1.51739222e-06][ -8.85326004e-07  -3.36550308e-07  -1.99812077e-05  -1.84228344e-07
  -1.27163175e-04  -8.72904443e-07   1.57550680e-04  -1.07157325e-06
  -1.70491501e-06  -5.35079995e-06][ -2.50396755e-05  -2.83302040e-06  -2.63392589e-04  -1.38271047e-05
  -8.74476748e-03  -2.04429544e-05   9.24562103e-03  -6.10837426e-05
  -1.07478011e-05  -1.03486662e-04][ -7.27533965e-05  -4.47984028e-05  -8.77834119e-04  -3.75038658e-05
  -2.03410244e-02  -4.69447991e-05   2.19592006e-02  -2.35504206e-04
  -4.42537060e-05  -2.58583643e-04][-0.00017398 -0.00164003 -0.00037999 -0.00014582 -0.02013919 -0.00010251
  0.02418428 -0.00093345 -0.00018711 -0.00048218][ -2.32746103e-04  -1.35214871e-03  -2.95389767e-03  -1.51603076e-04
  -8.76767074e-03  -7.26059984e-05   1.49986328e-02  -6.93491828e-04
  -3.09416503e-04  -4.65052163e-04][-0.00068572 -0.00093212 -0.00384894 -0.00013902 -0.01460548 -0.00010016
  0.02222395 -0.00053891 -0.00057841 -0.0007952 ][ 0.00445948 -0.00051807 -0.00507762 -0.00020501 -0.01812243 -0.00020634
  0.02534211 -0.00299778 -0.00074398 -0.00193038][ 0.0100224  -0.00024555 -0.0039526  -0.00018704 -0.02885286 -0.00034844
  0.03112933 -0.00439975 -0.00053877 -0.00262672][ 0.00405386 -0.00027156 -0.00511063 -0.00022698 -0.02658132 -0.00055125
  0.03333349 -0.00198754 -0.00061407 -0.00204402][-0.0005429   0.00631529 -0.00200717 -0.0014118  -0.02166779 -0.00077375
  0.02233501 -0.00034694 -0.00079498 -0.00110496][ 0.00349707  0.00947625  0.01069896 -0.00196226 -0.03039154 -0.00113182
  0.01572492 -0.00074339 -0.00127905 -0.00388914][ 0.01081917 -0.00223853  0.02908827 -0.00096133 -0.03160004 -0.00109908
  0.00757196 -0.00139678 -0.00189899 -0.00828464][ 0.00506276 -0.00140277  0.00037369 -0.00027865 -0.00978275 -0.00045706
  0.01196919 -0.00057981 -0.00094291 -0.00396169][ -3.45310907e-04  -1.92623286e-04  -4.15069210e-03  -8.72479716e-05
  -4.19463142e-03  -2.63652631e-04   1.06142628e-02  -9.41068698e-05
  -7.33445903e-04  -5.52551723e-04][-0.00033676 -0.00013589 -0.00417471 -0.00012547 -0.00672328 -0.0005837
  0.01350109 -0.0001537  -0.00059659 -0.00067098][-0.00035435 -0.00015081 -0.00310873 -0.0001652  -0.00612304 -0.00071334
  0.01195112 -0.00013307 -0.00050325 -0.00069934][ -1.28347487e-04  -1.51549348e-04  -1.82895879e-03  -8.66984188e-05
  -6.51282471e-03  -2.12468482e-04   9.68854472e-03  -4.04473528e-05
  -4.37747003e-04  -2.89503127e-04][ -2.48982115e-05  -2.91657242e-05  -2.74739994e-04  -2.07292098e-05
  -7.42253121e-03  -3.03324877e-05   8.07836102e-03  -2.86062502e-05
  -1.12432498e-04  -1.34925436e-04][ -6.51718089e-06  -4.73775920e-06  -7.86233337e-05  -4.46801826e-06
  -1.91165747e-03  -1.08492133e-05   2.12276739e-03  -2.22643382e-05
  -2.74675304e-05  -5.61825453e-05][ 0.  0.  0.  0.  0.  0.  0.  0.  0.  0.][ 0.  0.  0.  0.  0.  0.  0.  0.  0.  0.][ 0.  0.  0.  0.  0.  0.  0.  0.  0.  0.][ 0.  0.  0.  0.  0.  0.  0.  0.  0.  0.][ 0.  0.  0.  0.  0.  0.  0.  0.  0.  0.][ 0.  0.  0.  0.  0.  0.  0.  0.  0.  0.][ -3.48457446e-07  -2.31659219e-08  -8.51503312e-07  -5.73947158e-08
  -4.03374615e-06  -9.23862002e-07   8.13492163e-06  -6.18549425e-09
  -7.22267971e-07  -1.16833861e-06][  4.14765581e-04  -2.97578871e-08  -6.86097929e-06  -5.24833554e-08
  -2.82376118e-04  -8.93657636e-06  -2.48845899e-05  -4.79726852e-05
  -5.55352292e-06  -3.80988677e-05][  1.31160813e-04  -5.83863580e-06  -2.29177199e-04  -5.06752081e-06
  -3.96275932e-04  -1.46131189e-05   6.10033588e-04  -2.60720218e-05
  -2.64407892e-05  -3.77091827e-05][ -1.14383337e-05  -4.53628167e-06  -5.33199678e-05  -2.37185197e-05
  -3.27092614e-04  -5.97858953e-06   4.59946969e-04  -5.63124953e-06
  -1.30766969e-05  -1.51547158e-05][ -2.22774177e-03  -4.83090705e-05  -1.03188937e-03  -1.98032612e-04
  -9.49365233e-03  -7.50296929e-05   1.36245522e-02  -2.50716354e-04
  -1.23275001e-04  -1.75906013e-04][-0.00279398 -0.0011801  -0.00358087 -0.00097117 -0.03026195 -0.00080468
  0.04209451 -0.00106269 -0.0006389  -0.00080018][-0.0045832  -0.00847068  0.00051913 -0.00345205 -0.04304523 -0.00103421
  0.06567774 -0.00248498 -0.00162897 -0.00149755][-0.00836147 -0.01440889  0.01181167 -0.00699018 -0.03823552 -0.00407591
  0.07163268 -0.00433445 -0.00483488 -0.00220305][-0.00916718 -0.01411331  0.00588197 -0.00361437 -0.06924479 -0.01048286
  0.12139772 -0.00603892 -0.00943814 -0.00518012][-0.01202095 -0.01446572  0.01969801  0.00536904 -0.07640675 -0.02022126
  0.12654153 -0.00837684 -0.01270445 -0.00741261][-0.01433838  0.0020517   0.03550755  0.00634964 -0.11587346 -0.02313157
  0.14795886 -0.00947965 -0.01650189 -0.0125428 ][-0.02391541  0.02859997  0.0317049  -0.00054438 -0.12314987 -0.02856799
  0.16172331 -0.00842947 -0.0211875  -0.01623356][-0.0354229   0.02372156  0.03389092  0.00135529 -0.09918821 -0.03722331
  0.16263466 -0.00937151 -0.02410816 -0.01628834][-0.04058671  0.05751672  0.04351576 -0.00809632 -0.10273671 -0.02967572
  0.13619232 -0.01076912 -0.02696955 -0.01839067][-0.03254856  0.03588524  0.04624308 -0.00743961 -0.10299436 -0.00986546
  0.13021474 -0.00784552 -0.02957945 -0.02207012][-0.02833234  0.00409331 -0.00309513 -0.00574913 -0.06044449  0.00589511
  0.13184366 -0.00569381 -0.02201302 -0.01650416][-0.02389501 -0.00380599 -0.03587432 -0.0102398  -0.03849746  0.00508171
  0.13232842 -0.00378227 -0.00981779 -0.01149749][-0.01961353 -0.00017043 -0.04768611 -0.00783986 -0.02281645 -0.00216159
  0.12527274 -0.00253831 -0.01414244 -0.00830403][-0.01356041 -0.00571267 -0.02365808 -0.00420631 -0.01231436 -0.01663562
  0.08829055 -0.00145092 -0.00723156 -0.00352061][-0.00640606 -0.00470907 -0.01929546 -0.0036089  -0.00766266 -0.01463765
  0.06448707 -0.0009579  -0.0051346  -0.00207475][-0.00299738 -0.00253776 -0.01489312 -0.0022608  -0.00976536 -0.00643886
  0.04428246 -0.00055897 -0.00364566 -0.00118454][-0.00126056 -0.00157213 -0.00599184 -0.00103455 -0.00699314 -0.00314204
  0.02246167 -0.00013567 -0.00194802 -0.00038372][ -4.85694240e-04  -5.86835714e-04   6.28450342e-03  -2.46939623e-04
  -1.49155026e-03  -3.21641965e-03   9.39440562e-04  -5.57263838e-05
  -1.04101857e-03  -9.97595521e-05][ -2.28747260e-05  -6.69690750e-05   5.56572864e-03  -4.71245237e-06
  -2.98090018e-04  -5.92068860e-04  -4.22404491e-03  -1.60830509e-06
  -3.39779936e-04  -1.55803540e-05][ 0.  0.  0.  0.  0.  0.  0.  0.  0.  0.][ 0.  0.  0.  0.  0.  0.  0.  0.  0.  0.][ 0.  0.  0.  0.  0.  0.  0.  0.  0.  0.][ 0.  0.  0.  0.  0.  0.  0.  0.  0.  0.][ -7.95981230e-07  -1.02975965e-07   1.40082112e-06  -1.65193452e-06
  -9.17808682e-06  -2.06918084e-06   1.75025846e-05  -1.75039905e-08
  -2.48074828e-06  -2.60699403e-06][  1.16145399e-03  -1.89402855e-06  -4.80073526e-05  -2.63908978e-06
  -1.05582236e-03  -7.83154373e-05   4.66204468e-04  -1.41717669e-04
  -1.32813767e-04  -1.66448756e-04][ -8.36875774e-04  -2.46533908e-05  -6.50675202e-04  -6.73546899e-04
  -5.71853830e-04  -1.58112655e-04   3.43135823e-03  -3.22187960e-04
  -1.25085770e-04  -6.83667541e-05][-0.01341801 -0.00034707 -0.00053414  0.02227386 -0.00164231 -0.00931625
  0.00490574 -0.00045928 -0.0012452  -0.00021733][-0.01766307 -0.00142644  0.00032988  0.01803252 -0.01631697 -0.00590468
  0.02823934 -0.00110325 -0.00320793 -0.0009794 ][-0.02147476 -0.00783933  0.01666637  0.02361546 -0.03273427 -0.00965797
  0.04817613 -0.0060456  -0.00812665 -0.00257937][-0.01026063 -0.02458914  0.06168447  0.02175407 -0.06673388 -0.01373961
  0.0632954  -0.01365068 -0.01187027 -0.00588974][-0.02576814 -0.05093738  0.15490283  0.0083771  -0.09864916 -0.02233211
  0.08383451 -0.0193927  -0.01912202 -0.01091293][-0.02645889 -0.06979088  0.19158746  0.01835522 -0.13364393 -0.032794
  0.13296546 -0.03284655 -0.02847873 -0.01889515][-0.02213483 -0.07894329  0.23787009  0.07443957 -0.16700654 -0.06408445
  0.13774242 -0.04412525 -0.04512725 -0.02863048][-0.0369528  -0.03578693  0.25156289  0.13639361 -0.23181201 -0.05594842
  0.11895873 -0.03907342 -0.06673303 -0.04060862][-0.02753511 -0.01150485  0.27052318  0.13710492 -0.29343293 -0.06218501
  0.17196315 -0.04404048 -0.08372821 -0.05716466][-0.05183164 -0.01912222  0.19263488  0.18392038 -0.23747636 -0.02872001
  0.17737774 -0.04549934 -0.10131814 -0.06996529][-0.05061517  0.01031451  0.12611539  0.16592842 -0.20242988  0.01115529
  0.15144789 -0.04459614 -0.08707991 -0.08024041][-0.06127044  0.00826755  0.125763    0.14706163 -0.16170773  0.0070536
  0.13776681 -0.03811755 -0.09020702 -0.07460984][-0.07421289 -0.04144041  0.05289736  0.14055084 -0.11390435  0.02926315
  0.16429507 -0.03141561 -0.06854862 -0.05748454][-0.12054435 -0.05783342 -0.06271468  0.11145439 -0.0735562   0.07870574
  0.23033681 -0.0271159  -0.04483464 -0.03389775][-0.11873002 -0.04267057 -0.0992332   0.05566004 -0.02188932  0.09131532
  0.24697523 -0.01812701 -0.06217162 -0.03112885][-0.09432264 -0.0434531  -0.09372892  0.04300371  0.00644277  0.07268012
  0.17600949 -0.01207231 -0.03255585 -0.02200327][-0.0768371  -0.04584889 -0.06225034 -0.02021183  0.02545097  0.05404233
  0.1423222  -0.00658206  0.00111175 -0.01119703][-0.04564191 -0.02942085 -0.05885259 -0.03508324  0.01410505  0.03412143
  0.12742778 -0.00284895  0.00092845 -0.00473518][ -1.93340226e-02  -1.57389941e-02  -4.41494164e-02  -1.77124722e-02
   9.23775680e-04   7.40479162e-03   9.17584704e-02  -1.02309834e-03
  -4.96141050e-05  -2.07941988e-03][-0.00934906 -0.0107017  -0.01214685 -0.0053038  -0.00551182  0.00016684
  0.05230207 -0.00046487 -0.00833475 -0.00065605][ -3.03822969e-03  -2.74339668e-03   3.46626458e-03  -4.25487157e-04
  -4.30345764e-04   8.23889505e-03  -2.97591932e-03  -2.03073535e-05
  -1.99761297e-03  -7.38606878e-05][ -6.78762739e-04  -4.15878704e-03  -2.47940617e-04  -2.32292306e-05
  -1.10762139e-04   1.71606400e-03   4.47644575e-03  -1.64849912e-06
  -9.65441838e-04  -5.93764652e-06][ 0.  0.  0.  0.  0.  0.  0.  0.  0.  0.][ 0.  0.  0.  0.  0.  0.  0.  0.  0.  0.][ -3.37561237e-07  -4.76212870e-07  -1.10883613e-05   2.02755541e-05
  -9.65703041e-07  -4.97818488e-06  -5.56675914e-07  -1.95151987e-07
  -1.45449099e-06  -2.23211863e-07][ -2.14971605e-05  -6.23892893e-06  -1.59345134e-04   3.34995303e-04
  -8.31578482e-06  -2.54982714e-04  -1.66283651e-05  -3.90817093e-07
   1.34610995e-04  -2.20739294e-06][  3.65821923e-05  -1.32961682e-04  -1.36523084e-03   4.40826878e-03
  -3.26609900e-04  -1.96752939e-03  -1.69598947e-04  -2.21276470e-05
  -3.46704310e-04  -1.14088251e-04][-0.00351898 -0.00049504 -0.00621616  0.01651051  0.00064542 -0.00842816
  0.00548246 -0.00126377 -0.00211726 -0.00059901][-0.02349552 -0.00208384  0.01028814  0.07763681  0.00302992 -0.04132482
 -0.003273   -0.00797908 -0.00922246 -0.00357615][-0.02840708 -0.01043932  0.03609977  0.10390494 -0.01593818 -0.05158929
  0.00098173 -0.00912574 -0.01958223 -0.00590461][-0.02210568 -0.02985402  0.05474989  0.14712214 -0.02475928 -0.06974052
  0.0183397  -0.0223469  -0.03810556 -0.01329978][-0.02279133 -0.026746    0.11239107  0.20822568 -0.07558402 -0.13450603
  0.04482311 -0.03986316 -0.0391545  -0.02679482][-0.01684631 -0.04972592  0.23613401  0.19895188 -0.11326388 -0.13688059
  0.02367078 -0.06593329 -0.02610196 -0.05000471][-0.01164941 -0.05587803  0.23853668  0.2350773  -0.18779082 -0.10408688
  0.06503933 -0.09165765 -0.0187204  -0.06887014][ 0.02886259 -0.07652993  0.25002975  0.29206831 -0.21114924 -0.07467242
 -0.04421081 -0.09839323  0.0202144  -0.08621941][-0.0064114  -0.001566    0.26098599  0.3066588  -0.24259354 -0.09212849
 -0.07286984 -0.12200803  0.08916338 -0.11923087][ 0.00207037  0.09782438  0.18423878  0.32008675 -0.23515707 -0.13115563
 -0.02426964 -0.14821519  0.08812899 -0.15355174][-0.04151629  0.09554889  0.19126493  0.25155083 -0.22733389 -0.03108586
 -0.01953553 -0.16550644  0.15187825 -0.20526488][ 0.00985112  0.09391984  0.14554777  0.2130235  -0.22519949  0.07054402
 -0.03051681 -0.1691867   0.14537351 -0.25335677][-0.03054172  0.06664642  0.09849977  0.19534946 -0.15047714  0.08012598
  0.06658605 -0.16486321  0.1028339  -0.26415953][-0.00204847  0.00412107  0.07723131  0.13683743 -0.09378885  0.09434236
  0.10787918 -0.14218067  0.02642655 -0.20881992][-0.05562278 -0.00712342 -0.02489434  0.14249244 -0.06549281  0.13949768
  0.13378923 -0.11541426  0.0051336  -0.15236535][-0.10081383  0.05461776 -0.08038616  0.062638    0.01413602  0.05493987
  0.2167896  -0.08415371 -0.01608303 -0.12168451][-0.09758707  0.08434009 -0.09134    -0.03888199  0.06563093 -0.02392832
  0.24029871 -0.05839453  0.00266855 -0.08280637][-0.08384484  0.08020419 -0.1214531  -0.08896315  0.07199454  0.06015431
  0.22956922 -0.03362635 -0.0489991  -0.06503571][-0.06407348  0.05340949 -0.15162609 -0.09736228  0.09297301  0.08454235
  0.23020762 -0.0213611  -0.08939694 -0.03731258][-0.05143572  0.01028513 -0.10500442 -0.0908709   0.0622829   0.10677715
  0.1538539  -0.00956992 -0.06133234 -0.0149858 ][-0.03896356 -0.03924981 -0.04814712 -0.01965209  0.03091606  0.08643458
  0.04556763 -0.00411517 -0.0063421  -0.00644841][-0.01556966 -0.02228578 -0.00512975 -0.00251238  0.00219404  0.03365317
  0.00754554 -0.00103073  0.00497464 -0.00183908][-0.00198307 -0.00267995 -0.00131693 -0.00012835 -0.00266422  0.00396684
 -0.00022993 -0.00023569  0.0058798  -0.0006085 ][ -3.78649780e-05  -1.23515685e-03  -9.83492076e-04  -2.27397700e-05
  -5.92275302e-04  -6.06737535e-04   3.05392317e-03  -1.50522537e-05
   4.81821170e-04  -4.24255731e-05][ 0.  0.  0.  0.  0.  0.  0.  0.  0.  0.][ 0.  0.  0.  0.  0.  0.  0.  0.  0.  0.][ -5.54889146e-05   3.11567464e-04  -1.23676439e-04   9.70559336e-04
  -5.25184190e-05  -8.17162096e-04   7.54352882e-05  -9.84112652e-05
  -1.83884639e-04  -2.64203152e-05][-0.00022467  0.0019206  -0.0033099   0.02677173  0.00064523 -0.01321022
 -0.00624645 -0.00038163 -0.00489369 -0.00107099][-0.01232219  0.00123337 -0.00029364  0.06796905  0.00613324 -0.04484577
  0.00448273 -0.00204881 -0.01503293 -0.00527505][-0.0408186   0.01182306  0.02459041  0.1637854   0.02221427 -0.08995118
 -0.04210112  0.00517911 -0.03597967 -0.01874168][-0.03298806 -0.0076747   0.06520494  0.21945694  0.02137403 -0.1367509
 -0.02914574 -0.00187253 -0.05331442 -0.04428957][-0.03536317 -0.04840009  0.1378069   0.2476235   0.01243634 -0.13253208
 -0.02387081 -0.01635681 -0.06687895 -0.07446485][-0.02511322 -0.10084991  0.20284733  0.18909996 -0.01702393 -0.07760242
  0.0252007  -0.03460117 -0.06042577 -0.10153158][-0.03914008 -0.11468077  0.21820773  0.17301842 -0.02781049 -0.0154201
 -0.0078124  -0.05212949 -0.00863165 -0.12560117][ 0.0138807  -0.12056379  0.24248521  0.20235638 -0.0816247   0.01339789
 -0.00647571 -0.10446541 -0.06340941 -0.09558116][ 0.05712365 -0.11447565  0.25863862  0.15491893 -0.12775878  0.00266004
 -0.18427207 -0.16129115  0.09107014  0.02338628][ 0.0530256  -0.01875635  0.21496864  0.11103899 -0.16339381 -0.03721494
 -0.11088247 -0.22665187  0.16631521  0.01155099][ 0.13879992  0.08651055  0.19731306  0.0899115  -0.23058839 -0.06153259
 -0.15153287 -0.29157138  0.19156444  0.03112576][ 0.17694251  0.09197358  0.21003111  0.02795353 -0.11583084 -0.08114188
 -0.10637904 -0.30105193  0.20343102 -0.10592807][ 0.15705533  0.12530026  0.20586909  0.09587234 -0.06352731 -0.06657932
 -0.09974357 -0.31296507  0.13890731 -0.18018906][ 0.14584226 -0.00863746  0.22494603  0.1652426  -0.00331108  0.04620195
 -0.08568493 -0.31700379  0.14447343 -0.31206901][ 0.17819124 -0.05831535  0.21577024  0.00417585  0.01756907  0.10843578
 -0.00309738 -0.32713055  0.18027106 -0.31586996][ 0.1501621  -0.01725304  0.12574699  0.01492663  0.06690837  0.11460638
  0.09189378 -0.29172531  0.03659758 -0.29186348][ 0.0674052   0.03047509  0.01415727  0.02737521  0.08885569  0.01736427
  0.17088721 -0.2632927   0.08280942 -0.23603666][-0.01406519  0.11519512 -0.02784697 -0.07165036  0.09453178  0.09263716
  0.17416324 -0.20521617  0.04315135 -0.20089996][-0.00747789  0.17774205 -0.02937004 -0.14376351  0.08870416  0.08734984
  0.15910228 -0.12794551 -0.03401097 -0.17033041][-0.0292194   0.14482359 -0.09931468 -0.18756832  0.16281246  0.18118956
  0.14824783 -0.07735546 -0.09564211 -0.14797348][-0.07925179  0.07498503 -0.12808893 -0.16104071  0.19895536  0.23398733
  0.12986805 -0.04732688 -0.12406894 -0.09801853][-0.08309136  0.00791249 -0.08095613 -0.05481354  0.07881851  0.17846281
  0.07199358 -0.0194464  -0.05313271 -0.04574726][-0.03778666 -0.03376711 -0.02079307 -0.0114257   0.00444827  0.09351975
  0.00772695 -0.00584502  0.01797704 -0.01405446][-0.00716531 -0.00747611 -0.00470114 -0.00156777 -0.00467559  0.0181674
  0.00908035 -0.00212156  0.00228582 -0.00182609][ -2.49476792e-03  -1.52474022e-03  -1.44234742e-03  -7.61080209e-05
  -6.36082587e-05   1.94914647e-03   4.54978186e-03  -2.09845767e-05
  -8.51079321e-04  -2.52925963e-05][ 0.  0.  0.  0.  0.  0.  0.  0.  0.  0.][ -1.76086347e-06  -1.34979629e-06  -6.35131987e-06   1.09931060e-04
  -6.67918907e-07  -1.21898099e-05  -3.20293890e-07  -3.81368210e-06
  -8.84278874e-06  -7.46345868e-05][-0.00051577 -0.00214926 -0.0016759   0.00375637 -0.00101179  0.00027888
 -0.00019334  0.00449123 -0.00127253 -0.00170789][-0.00220652  0.00256634 -0.00776105  0.05782247  0.00052131 -0.02895958
 -0.01141482  0.00665316 -0.01270135 -0.00451996][-0.02138676  0.00088658  0.02050304  0.12565025  0.02783488 -0.07467902
 -0.01204004 -0.00897538 -0.02929575 -0.02849779][-0.02627937 -0.02909091  0.06685588  0.18585972  0.06792066 -0.10683422
 -0.04716652  0.0274004  -0.04884068 -0.08982496][-0.02840442 -0.05470605  0.11313595  0.26040729  0.06656058 -0.14393998
 -0.06131863  0.06790368 -0.0863905  -0.13324793][-0.02759465 -0.12030046  0.17193415  0.1714367   0.06330348 -0.04464267
 -0.02913115  0.0757979  -0.07916594 -0.18163736][-0.0503364  -0.18030183  0.15852576  0.14953737  0.03126457  0.03026584
 -0.0315273   0.08969446 -0.02761232 -0.16951016][-0.08617728 -0.20635157  0.14616265  0.19124109 -0.01206673  0.07345218
 -0.0458587   0.0703122  -0.02970785 -0.10100599][ 0.0119643  -0.1772791   0.12557583  0.18383038 -0.06913946  0.06350394
 -0.15239919  0.09027342 -0.03280123 -0.04352888][ 0.03467581 -0.1282288   0.07615545  0.11903385 -0.18042782  0.05471104
 -0.15690703  0.10683199  0.02066905  0.05348646][ 0.0448622  -0.11108832  0.01973406  0.09435849 -0.18867018  0.05409131
 -0.11766675  0.02366701  0.10255601  0.07815616][ 0.11514871 -0.08526759  0.0361748   0.20329319 -0.27097219 -0.02402056
 -0.17007616 -0.10239575  0.08418221  0.21393334][ 0.10275229 -0.10018637  0.09640778  0.11160742 -0.27301431  0.07729935
 -0.16331879 -0.13073971  0.05271181  0.22648053][ 0.08798289 -0.17390419  0.1340292   0.11570943 -0.2470021  -0.03542918
 -0.12542724 -0.13085306  0.21228032  0.16261394][ 0.17090701 -0.18127366  0.09544182  0.16161005 -0.25327093 -0.02960043
 -0.16280373 -0.10347775  0.09845077  0.20401685][ 0.20291989 -0.18980004  0.04239031  0.08599884 -0.2030064   0.03360975
 -0.15774885 -0.09873209  0.13488783  0.14948075][ 0.19905339 -0.07948485  0.05163805  0.13269937 -0.16398353  0.05614754
 -0.1363576  -0.13787947 -0.03250515  0.11067224][ 0.14145763 -0.02893269 -0.04919902 -0.00653325 -0.04545389  0.13678361
 -0.09472786 -0.14416989  0.10634466 -0.01556929][ 0.07668469  0.09161461 -0.0757503   0.02725284 -0.01784528  0.11689243
 -0.03781634 -0.14533556  0.04635494 -0.08205203][ 0.12670572  0.0839162  -0.04765924 -0.03412615  0.04753402  0.05865567
 -0.00727859 -0.09185223  0.03250154 -0.16839694][ 0.11527696  0.07188698 -0.09858523 -0.15119485  0.22121771  0.15721107
 -0.00740353 -0.08601818  0.01140124 -0.23379218][-0.02528929  0.02453947 -0.18611705 -0.15564394  0.29696251  0.29855312
 -0.00555207 -0.08284696  0.05249136 -0.21709716][-0.12359026 -0.02140105 -0.10687604 -0.0842748   0.10863528  0.40077594
 -0.00528526 -0.05093985  0.00171684 -0.11876079][-0.0818443  -0.03977749 -0.03151056 -0.02517527  0.00851087  0.21102561
 -0.0119348  -0.02463816  0.04021295 -0.04486885][-0.02900405 -0.00694259 -0.00526565 -0.00274257  0.00765496  0.07385033
 -0.00690509 -0.00816315 -0.00993976 -0.01254243][-0.00857775 -0.00185819 -0.00108906 -0.00019216 -0.00064935  0.01147453
  0.003773   -0.00053198 -0.00122933 -0.00111973][ -3.63888359e-06  -2.94154330e-06  -3.78166169e-06  -6.13970778e-06
  -4.70872398e-06  -3.47455769e-06  -3.49160468e-06   4.18387916e-05
  -3.72497161e-06  -9.93713725e-06][ -1.69636206e-04  -1.74606163e-04  -3.80796501e-04   4.81630244e-03
  -1.70329923e-04  -6.39913837e-04  -4.90805334e-05   2.69895080e-04
  -8.61629612e-04  -2.64020474e-03][-0.0017994  -0.00193943  0.00902955 -0.00081958 -0.00166227 -0.0057097
 -0.00128612  0.01324273 -0.00268106 -0.00637472][-0.00527026 -0.00288767  0.00425583  0.06192513  0.00305826 -0.04310501
 -0.0216696   0.03911249 -0.00961904 -0.02580012][-0.02632234 -0.0051645   0.05796535  0.19280452  0.03153582 -0.15556179
 -0.014679    0.02509556 -0.02177831 -0.08389531][-0.02932031 -0.05392352  0.09876686  0.2412076   0.08483037 -0.17871848
 -0.03973702  0.08397798 -0.03286373 -0.17421975][-0.0266667  -0.11145898  0.18707094  0.20593388  0.04725877 -0.14058246
 -0.0754189   0.16642065 -0.0526185  -0.1999387 ][-0.05036389 -0.1464261   0.13282044  0.11285638  0.02565945 -0.01566593
 -0.05086672  0.20659231  0.00825927 -0.22286522][-0.1063634  -0.24054654  0.13132382  0.04871604 -0.02101232  0.13365525
 -0.08201239  0.16739594  0.0879499  -0.11910631][-0.02932034 -0.26709792  0.0537393   0.05786727 -0.03858171  0.10848167
 -0.11145154  0.23949284  0.04057276 -0.05370233][ 0.01058924 -0.25243722  0.02018066  0.03540254 -0.14198571  0.14826484
 -0.16549851  0.25395237  0.04660497  0.0449268 ][ 0.02373982 -0.20113397  0.09156412  0.04123322 -0.20798188  0.12406228
 -0.12569251  0.23071606 -0.06507135  0.08856422][ 0.03754831 -0.11718428  0.02572398  0.12763634 -0.31230417  0.07930653
 -0.15685317  0.1819899  -0.06614283  0.20027938][ 0.06305955 -0.16273532  0.07774719  0.13049209 -0.30229931 -0.02695583
 -0.20592909  0.1049958  -0.0394059   0.36103081][ 0.07176609 -0.14383615  0.05299042  0.18638767 -0.40354161  0.033548
 -0.154597   -0.00693081 -0.12356953  0.48778293][ 0.09497856 -0.23782588 -0.02460666  0.20106195 -0.42108109 -0.1075113
 -0.14600127  0.03469872  0.08245903  0.52382796][ 0.15784481 -0.20777118 -0.04180625  0.0507972  -0.38381368  0.04277239
 -0.23691257  0.13459593  0.04831474  0.43597861][ 0.22503885 -0.17409847 -0.1467129   0.07753911 -0.27378241  0.08894997
 -0.24292696  0.22984193 -0.05545402  0.2716049 ][ 0.20150674 -0.11395775 -0.07524053  0.05435196 -0.19979675  0.0395626
 -0.28573871  0.19703015  0.05577601  0.12650628][ 0.13391996 -0.01052759 -0.06405523  0.09636274 -0.12973101  0.09493278
 -0.30161876  0.08523648 -0.001176    0.09665664][ 0.05306506  0.03291685 -0.10603738  0.05132537 -0.10713025  0.12330338
 -0.19307502  0.10626643 -0.00230446  0.04167002][ 0.07629657  0.0038991  -0.00988023 -0.05475866 -0.02013242  0.12858719
 -0.15144583  0.00886053  0.10476828 -0.08619453][ 0.12637573 -0.01097242  0.00335441 -0.09734683  0.14126772  0.16290658
 -0.14745429 -0.02016502  0.05886006 -0.21682594][ 0.07998531 -0.0790745  -0.19584025 -0.16280526  0.2240806   0.37283313
 -0.13264626 -0.04866492  0.17978883 -0.23765668][-0.07057538 -0.12409417 -0.1417596  -0.13840028  0.10029302  0.54174648
 -0.04365886 -0.06773594  0.12181971 -0.17763497][-0.10470161 -0.06822255 -0.043009   -0.03751764  0.01955797  0.38513926
 -0.04836625 -0.04525224  0.0244216  -0.08204954][-0.04027764 -0.00761506 -0.00747037 -0.00382879  0.01334884  0.09350019
 -0.0154209  -0.00957709  0.0018008  -0.02445999][-0.00328118 -0.00290813 -0.00096103 -0.00021916 -0.00082055  0.00902408
  0.00122088 -0.00060739 -0.0003537  -0.00109381][ -1.47878035e-05  -1.19539313e-05  -1.53680294e-05  -2.49507274e-05
  -1.91354528e-05  -1.41200110e-05  -1.41892871e-05   1.70025727e-04
  -1.51376506e-05  -4.03828344e-05][ -2.21247177e-04  -1.36699013e-04  -3.01285489e-04  -1.36107457e-03
  -2.79762186e-03  -5.08235986e-04  -9.63485338e-05   1.47748381e-02
  -9.84639472e-04  -8.36768604e-03][-0.0020251  -0.00109209  0.00592787 -0.00203846 -0.00253189 -0.00738067
 -0.0016183   0.03828073 -0.00401178 -0.02351032][ -1.07745996e-02  -2.07743643e-03   2.19123396e-03   6.18271298e-02
  -6.39535679e-03  -5.68663807e-02  -1.68005732e-02   9.44890828e-02
   3.14444669e-06  -6.55962443e-02][-0.03922655 -0.01171672  0.07085434  0.20730567  0.01394876 -0.20988349
 -0.01103167  0.11225712 -0.00613182 -0.12637564][-0.05665769 -0.05188239  0.10839648  0.2176694   0.05890178 -0.19754543
 -0.05436652  0.13996231  0.01522337 -0.17970131][-0.04479941 -0.10886474  0.1232399   0.15313456  0.00698357 -0.16206483
 -0.09315726  0.19549859  0.07732783 -0.14729821][-0.0871994  -0.15245471  0.10352342  0.06583786 -0.01515337 -0.04826629
 -0.10679505  0.26713968  0.1466417  -0.17327384][-0.0753676  -0.23466767  0.07320515  0.02046528 -0.10010715  0.10201602
 -0.10388569  0.21849792  0.10184262 -0.00199888][-0.03106161 -0.29006079  0.07450113  0.04016293 -0.05743884  0.08138319
 -0.11090901  0.18956751  0.12740866 -0.02355317][ 0.01399761 -0.27115885  0.20940283  0.07622493 -0.13918737  0.05900767
 -0.16275869  0.14769563  0.0795476  -0.01277136][ 0.00455013 -0.19143102  0.15646335  0.04589241 -0.16692324  0.09632317
 -0.14979093  0.23285582  0.01082149 -0.03876117][ 0.06966934 -0.09119021  0.03819462  0.04941721 -0.25895686  0.02115953
 -0.16312654  0.26829204  0.10569408 -0.03915321][ 0.0692734  -0.0543781   0.03590998  0.04937316 -0.21291038 -0.06145627
 -0.18572591  0.13271409  0.10967493  0.11752509][ 0.12522398  0.01438779  0.10379904  0.15014052 -0.39426193 -0.11009034
 -0.21889478  0.17195871 -0.11489344  0.27263046][ 0.1629476   0.00698609  0.09476526  0.18979391 -0.40416029 -0.19772416
 -0.27206536  0.25254783 -0.08645361  0.25336272][ 0.27906752 -0.10093044 -0.00429332  0.10874389 -0.36146591 -0.09821062
 -0.3087751   0.2488404   0.07119926  0.16582433][ 0.21638913  0.00466013 -0.02509493  0.11534567 -0.20587369 -0.0552041
 -0.33198612  0.24374047 -0.02450782  0.06253127][ 0.19214597 -0.03906796 -0.07966235  0.14240596 -0.1081511   0.00979571
 -0.49523088  0.23910886  0.06850186  0.07015393][ 0.09731803 -0.07593944  0.0472261   0.14317678 -0.09156863  0.05535835
 -0.44180123  0.16033239  0.09752132  0.00837633][ 0.05141181 -0.10475813 -0.02060422  0.14464172 -0.10353143  0.11713643
 -0.31386351  0.16109586  0.04039589  0.02807558][ 0.05092693 -0.12232137 -0.02026682  0.10635297 -0.05099083  0.1291107
 -0.24101557  0.0161621   0.11097288  0.021069  ][ 0.15436814 -0.17343252 -0.03503486  0.03553556  0.0331319   0.19095491
 -0.23751958  0.01566657  0.16591405 -0.14958416][ 0.16146636 -0.22642921 -0.10642464 -0.20327817  0.07914871  0.48286023
 -0.2186894  -0.0293173   0.25677734 -0.19611391][-0.00892639 -0.19604071 -0.1645765  -0.17471759  0.03971133  0.69192415
 -0.14821646 -0.08843286  0.21262598 -0.16335096][-0.10680172 -0.08160873 -0.06207948 -0.04765337  0.00959967  0.48457581
 -0.08367719 -0.05892654  0.03156785 -0.0849963 ][-0.03647534 -0.00873576 -0.00817971 -0.00373055 -0.0092947   0.11865363
 -0.03645796 -0.01479546  0.02148825 -0.02247238][-0.00338484 -0.00140077 -0.00078045 -0.00012625 -0.00350368  0.00981549
 -0.00632057 -0.00309919  0.01030033 -0.00150007][ -5.61702688e-06  -2.05486395e-06  -5.14537842e-06  -2.52330093e-05
  -8.57784424e-06  -7.41285138e-06  -2.90150293e-06   2.42655679e-04
  -6.58252200e-06  -1.79130680e-04][-0.00037002 -0.00027845 -0.00054716 -0.00146191 -0.00419889 -0.00075813
 -0.00019496  0.02193346 -0.00144427 -0.01267966][ -8.48469020e-04  -9.49732665e-04   7.49791802e-06   3.89335183e-03
  -6.20409606e-03  -4.47458207e-03  -2.61265586e-03   4.87357771e-02
  -5.65549626e-03  -3.18915949e-02][-0.01586963 -0.00304268 -0.00375826  0.06595017 -0.03915338 -0.06027406
 -0.01883404  0.14986303 -0.00123947 -0.07364169][-0.05000764 -0.01923088  0.06857196  0.1838208  -0.03319209 -0.17931906
 -0.02547289  0.17471449  0.02007534 -0.13996001][-0.06890772 -0.06549486  0.15043514  0.1146846  -0.01263357 -0.16602513
 -0.07880951  0.16362262  0.07262957 -0.10950113][-0.05411107 -0.10373055  0.05131763  0.08330593 -0.06838165 -0.08882683
 -0.09710895  0.14804637  0.12832237  0.00116675][-0.06510951 -0.13062031 -0.02087613  0.04472983 -0.06155833  0.03515916
 -0.05351221  0.0877833   0.16024926  0.00375493][-0.07657273 -0.18009871 -0.04225951 -0.0068099  -0.06679308  0.17553046
 -0.04472993  0.07032268  0.15015529  0.02125543][-0.02560815 -0.23178014  0.09900663 -0.04320436 -0.02793014  0.11994326
 -0.10784921  0.04627554  0.16736616  0.0037804 ][ 0.05073977 -0.20591221  0.13957552 -0.1244942  -0.08966745  0.14103188
 -0.13840232  0.01954024  0.13963513  0.06795363][-0.01013686 -0.13231024  0.07031709 -0.27129087 -0.09545015  0.28909463
 -0.14759193  0.09300832  0.13133409  0.07302593][ 0.04712466 -0.07385797  0.0458116  -0.20550748 -0.08430682  0.16362364
 -0.1662144   0.1649311   0.06329212  0.04510355][ 0.12343554  0.06337428  0.05545063 -0.04624777 -0.17734308  0.00924269
 -0.20341076  0.10848951  0.00500974  0.06199922][ 0.07164022  0.21201657  0.1330536   0.19141527 -0.51293074 -0.16291396
 -0.17756679  0.26380912 -0.20061986  0.18209657][ 0.02104247  0.29478034  0.16030592  0.30175139 -0.37179844 -0.30250463
 -0.2864121   0.30136268 -0.31719899  0.19867135][ 0.16027727  0.12094014  0.10430342  0.23640336 -0.11884516 -0.30859555
 -0.39246116  0.36056044 -0.14170261 -0.02088016][ 0.21134885  0.01985682  0.04135067  0.17738029 -0.04960275 -0.2130579
 -0.49953825  0.33306023 -0.01143172 -0.00936623][ 0.24799065 -0.07162104  0.05068086  0.1295935  -0.04574888 -0.11086137
 -0.51607398  0.25964787  0.00119058  0.05520181][ 0.20778849 -0.17866747 -0.01370987  0.1702549  -0.03491562 -0.05997688
 -0.42900803  0.23899227  0.12651136 -0.02726915][ 0.07906295 -0.21427108 -0.02674013  0.22723251 -0.04699389  0.02239823
 -0.30937349  0.17419812  0.08076241  0.01372438][ 0.01723774 -0.23628025 -0.04794656  0.18982238 -0.03588798  0.19517972
 -0.26898071  0.13808055  0.10831317 -0.05953805][ 0.12367584 -0.26788459 -0.02995019  0.09383392 -0.04139323  0.28505419
 -0.27921762  0.06120766  0.19155645 -0.13688243][ 0.2080268  -0.25262352 -0.0996212  -0.12339415 -0.0753342   0.5263173
 -0.20856301 -0.05363753  0.25344012 -0.17461061][ 0.04683299 -0.16654528 -0.14881471 -0.14656634 -0.13922782  0.81309143
 -0.15977218 -0.07686367  0.11086517 -0.13299959][-0.1118839  -0.06626231 -0.05138638 -0.03637032 -0.08197566  0.58027862
 -0.1207097  -0.0440815   0.00244503 -0.07005387][-0.03686323 -0.00826785 -0.00601574 -0.00459374 -0.02682183  0.13725181
 -0.04838143 -0.00687311  0.02480407 -0.02423896][-0.00168317 -0.0010739  -0.00066224 -0.00021703 -0.00311189  0.01151942
 -0.0031273   0.00851892 -0.00846794 -0.00169487][ -7.89414149e-06  -3.16404411e-07  -6.43476694e-06  -5.11653809e-05
  -1.33549497e-05  -1.25782192e-05  -1.50469333e-06   5.19495366e-04
  -1.00321966e-05  -4.16214613e-04][-0.00049115  0.00059207 -0.00057459 -0.00151324 -0.0039895  -0.00091904
 -0.00021848  0.02156307 -0.00091786 -0.01353128][ 0.00476401 -0.000662   -0.00088133  0.00111628 -0.01664144 -0.00393513
 -0.00662437  0.06076134 -0.00492327 -0.03297409][-0.01358079 -0.00903806 -0.00512606  0.07792319 -0.05412963 -0.05123282
 -0.02374722  0.15662991 -0.01067038 -0.06702815][-0.04916196 -0.02037628  0.00472255  0.06716465 -0.04860048 -0.09198066
 -0.04164482  0.20328698  0.07781353 -0.1012235 ][-0.05666919 -0.06226328  0.05892603 -0.03391966 -0.07639118 -0.06668793
 -0.06147451  0.1862845   0.10741131  0.0047839 ][-0.05786512 -0.11188276  0.01202825 -0.07233493 -0.1011291   0.00284473
 -0.05955092  0.08093551  0.16608733  0.140867  ][-0.03151543 -0.1252518  -0.11529941 -0.14295357 -0.04868214  0.11672853
  0.00887493  0.0358755   0.19043629  0.11178711][-0.03458882 -0.13010957 -0.08663145 -0.24448974  0.00937291  0.22350643
  0.01665968 -0.03704308  0.17143219  0.11189144][-0.00393405 -0.16659947 -0.13426952 -0.34388846  0.09599587  0.24175853
 -0.03724876  0.01232431  0.25546262  0.08039895][-0.04654057 -0.13239343 -0.14852309 -0.43540871  0.04750205  0.28536822
 -0.03494621  0.04509041  0.26242463  0.1574267 ][ 0.01406281 -0.10743862 -0.17505174 -0.44454871  0.07562677  0.31102597
 -0.10830093  0.01835541  0.18892351  0.22734554][ 0.04083644 -0.00896808 -0.20376143 -0.335293    0.10094719  0.258124
 -0.14454125  0.03751045  0.16647083  0.08867485][ 0.04113375  0.176522   -0.24297038 -0.01017284 -0.23346193  0.21335335
 -0.09121248  0.20948498  0.03315055 -0.09582699][-0.01061927  0.44764071 -0.09941146  0.17681975 -0.60229458  0.05768712
 -0.19836702  0.28218783 -0.08177842  0.02813534][-0.11437643  0.54141646 -0.07236693  0.23182216 -0.22227868 -0.12052231
 -0.36184622  0.39363905 -0.27704722  0.00156012][-0.05785614  0.21876506  0.01443118  0.23652529  0.00708755 -0.24586206
 -0.42510261  0.49694931 -0.2283166  -0.016621  ][ 0.11988322  0.00710237  0.08422961  0.18453989  0.05783973 -0.31660313
 -0.40582469  0.37005971 -0.12535442  0.02412771][ 0.2040932  -0.14159099  0.01392252  0.18347329 -0.02447355 -0.22531966
 -0.39095052  0.29421292  0.04955813  0.03707466][ 0.14342491 -0.19044926 -0.02980167  0.17845299  0.01303624 -0.19383175
 -0.35003261  0.24713535  0.14507131  0.0369945 ][ 0.08789516 -0.25758053 -0.00910432  0.21531776 -0.06360849 -0.11120223
 -0.23808437  0.24974406  0.07999388  0.04662908][ 0.09797089 -0.23843104 -0.04394542  0.10048575 -0.07966992  0.01367764
 -0.22611564  0.22255228  0.1093742   0.04410128][ 0.20437016 -0.22055899 -0.05834153  0.03265998 -0.12633494  0.10250214
 -0.19272009  0.11445215  0.18492119 -0.04095007][ 0.2690589  -0.18771054 -0.08765125 -0.0869609  -0.2198413   0.37269907
 -0.10791292 -0.04977512  0.19626774 -0.09817367][ 0.10556311 -0.12446782 -0.09791233 -0.09604378 -0.17401833  0.67691958
 -0.11789823 -0.08583768  0.02274565 -0.10905017][-0.10026633 -0.03911282 -0.02804376 -0.02156288 -0.10850615  0.56972487
 -0.13497479 -0.03537197 -0.04366927 -0.05821689][-0.03818757 -0.0091992   0.00040116 -0.00286228 -0.03346659  0.14932108
 -0.04477219 -0.00598254  0.0047942  -0.02004606][ -4.88234569e-04   9.04730950e-05  -3.84218872e-04  -6.26946392e-05
  -1.01892413e-03   5.61534168e-03  -6.62827672e-03   1.22697393e-03
   4.39030480e-03  -2.74074457e-03][ -2.50351792e-05  -5.48045762e-06  -1.31469082e-05  -6.33729010e-05
  -3.51211157e-05  -4.18422897e-05  -9.22509978e-06   6.95999188e-04
  -2.60756181e-05  -4.76699618e-04][-0.00032123  0.00016046 -0.00020274 -0.00063964 -0.00211626 -0.00051987
 -0.00011407  0.01551148 -0.00050446 -0.01125367][-0.00199667 -0.00021464 -0.00186264  0.00276827 -0.02333953 -0.00274628
 -0.00077898  0.07329407 -0.00390531 -0.04121829][-0.01137395 -0.00536352 -0.02744031  0.04604974 -0.037168   -0.04426939
 -0.02458461  0.1649648  -0.00100429 -0.05981047][-0.07357841 -0.01066358 -0.07021195  0.0004712  -0.0711994  -0.03209922
 -0.03329873  0.23032357  0.07612    -0.01586349][-0.08788911 -0.03969935 -0.10342988 -0.13605514 -0.0645261   0.00050329
 -0.01044826  0.12933256  0.15582204  0.15638994][-0.0125493  -0.08499206 -0.22875041 -0.23618037 -0.02728985  0.11022655
  0.01154353  0.05957827  0.1843294   0.22408424][ 0.02004217 -0.10333154 -0.33648774 -0.35476672  0.05155618  0.11314848
  0.0763399   0.07044919  0.26298182  0.20006826][ 0.012781   -0.13235717 -0.37155443 -0.39699172  0.16110294  0.19887374
  0.04739395 -0.00701167  0.24929826  0.2384651 ][-0.04560382 -0.17121117 -0.41644685 -0.34434907  0.25303022  0.12736658
  0.08752375  0.10899847  0.27206951  0.12862237][-0.05628092 -0.1598358  -0.47616685 -0.31037638  0.28400661  0.12955265
  0.03177273  0.12202859  0.20121518  0.23408419][-0.02384699 -0.17926023 -0.43704987 -0.21122586  0.25667643  0.21558992
 -0.01279172  0.07024047  0.11450535  0.20716248][-0.036606   -0.03983995 -0.50469351 -0.10853468  0.24907157  0.27375456
  0.02474414 -0.02135814  0.19955793 -0.03609593][-0.07700658  0.22005045 -0.60351409  0.07708621 -0.34028094  0.36313707
  0.03244906  0.06393908  0.34049002 -0.07635026][-0.27620779  0.59714806 -0.44286028  0.22234976 -0.5199533   0.09906021
 -0.20263465  0.1933459   0.28979025  0.03996185][-0.40642917  0.58543495 -0.28787642  0.16222734 -0.01259662 -0.08675627
 -0.4046754   0.37172784 -0.03037142  0.10931516][-0.37324862  0.16923504 -0.10563978  0.04567399  0.26554518 -0.13522074
 -0.28502871  0.43139066 -0.17884029  0.16613328][-0.12765367 -0.04982562 -0.13663434  0.17769436  0.10633083 -0.21894534
 -0.2592415   0.3719078  -0.16134478  0.29771227][-0.00660798 -0.08042855 -0.10599019  0.1777443  -0.03122242 -0.24301463
 -0.23488702  0.37127252 -0.05698654  0.21012051][ 0.09491989 -0.1609694   0.03271604  0.15473939 -0.0284842  -0.34353456
 -0.18468284  0.18810717  0.02006625  0.22712226][ 0.10948794 -0.18247485 -0.0374441   0.14465197 -0.10119336 -0.46415131
 -0.10862551  0.20338111  0.07853469  0.35783342][ 0.18697111 -0.14602855 -0.04291087 -0.05688048 -0.09937865 -0.39786824
 -0.00822532  0.18460519  0.11887458  0.26084123][ 0.26082451 -0.1152187  -0.08020571 -0.06655037 -0.14301579 -0.38157356
  0.04200382  0.1092832   0.2774943   0.0969583 ][ 0.28083426 -0.0843136  -0.09226034 -0.09777227 -0.19932537 -0.1381598
  0.11177623 -0.04329479  0.27581208 -0.01329638][ 0.1647405  -0.05837769 -0.04084502 -0.07052842 -0.14646847  0.12454703
 -0.01624054 -0.07950218  0.19791763 -0.07524284][-0.05189558 -0.01913659  0.02921068 -0.01001612 -0.06442795  0.2446283
 -0.11104365 -0.02720896  0.05305213 -0.04316225][-0.01973259 -0.00461401  0.00439206 -0.00113319 -0.00981169  0.06464723
 -0.04997929 -0.00770601  0.03806752 -0.01413002][ -3.61133993e-04   8.85705929e-04  -1.30718479e-04  -4.09032989e-05
  -5.92232723e-04   3.11990880e-03  -3.72701771e-03  -8.24142733e-04
   2.98362246e-03  -1.31308826e-03][ -3.50231476e-06  -2.63079494e-07  -3.87112723e-06  -2.03741344e-05
  -6.69432605e-06  -7.00605375e-06  -5.81840940e-07   7.91509515e-04
  -1.06943054e-05  -7.38522333e-04][ -1.52069706e-04  -4.61324014e-05  -1.26945345e-04  -1.33422183e-03
  -7.18066972e-03  -6.06426215e-04  -1.79380637e-04   2.22716803e-02
  -2.47073103e-04  -1.23987614e-02][-0.0017403  -0.00057928 -0.00060167 -0.00437797 -0.02227485 -0.00229277
 -0.00065568  0.07815521 -0.00202629 -0.04360639][-0.01226709 -0.00057347 -0.03715593 -0.00851665 -0.04864219 -0.01505614
 -0.02076974  0.16256416  0.01613415 -0.0357171 ][ -8.13338106e-02   5.93961078e-05  -1.28403664e-01  -5.28207010e-02
  -9.22173035e-02   1.02189017e-02  -3.64537533e-02   2.25145054e-01
   4.22157308e-02   1.13590150e-01][-0.03988421 -0.03050866 -0.28983813 -0.16192865 -0.04550198  0.04353357
  0.01996121  0.10332206  0.1337161   0.26712869][ 0.07005621 -0.03820177 -0.49825377 -0.29305169  0.07859534  0.15251662
  0.11661735  0.02131847  0.12558652  0.26481672][ 0.06026075 -0.05035774 -0.59958923 -0.34553313  0.22258851  0.12268007
  0.13764019  0.08823044  0.15353288  0.21054726][ 0.03162162 -0.10713944 -0.47847038 -0.32191471  0.29377818  0.10149712
  0.10324074  0.12805266  0.0693444   0.17998981][-0.01337516 -0.14450369 -0.48238676 -0.15841292  0.28023146  0.00643206
  0.13387454  0.03122474  0.11638927  0.23052646][ 0.00991297 -0.24617107 -0.48585511 -0.02720592  0.37574448  0.17561572
  0.06526832 -0.04826778 -0.04629498  0.22725338][ 0.02286473 -0.30920932 -0.45457489 -0.06101637  0.48550576  0.2709661
  0.13916697 -0.14548901 -0.01772146  0.06950749][ 0.03838276 -0.10316792 -0.49051426  0.06948876  0.42485718  0.29067611
  0.15355055 -0.36876158  0.14761723 -0.16212883][-0.13037112  0.24947871 -0.4746776   0.16568146 -0.09028271  0.31533308
  0.04121907 -0.44119078  0.37285796 -0.00804807][-0.43097593  0.71750407 -0.39467813  0.28981829 -0.27652619  0.0294106
 -0.20636383 -0.17716517  0.27136563  0.17761065][-0.56516306  0.49475758 -0.39289272  0.15635395  0.14151106 -0.11950567
 -0.21383009  0.18145674  0.07944751  0.2378647 ][-0.49325022  0.10407266 -0.268072    0.08212068  0.32453203 -0.30562259
 -0.07808632  0.35409819  0.00694266  0.2732649 ][-0.22378298 -0.00229825 -0.19735006  0.09054133  0.09715014 -0.30259501
 -0.09597549  0.29646223 -0.02098803  0.35883612][-0.04769957 -0.07316126 -0.12862433  0.12562583  0.01220285 -0.24538257
 -0.13598623  0.24034534 -0.04362844  0.29630837][ 0.00600519 -0.16533063  0.04904496 -0.00326207  0.07164664 -0.27624095
 -0.17962056  0.09148065  0.08829457  0.3179822 ][ 0.03761182 -0.13820533 -0.04034818 -0.08393272  0.03064666 -0.35285175
 -0.06162294  0.10529272  0.15026741  0.3531423 ][ 0.13789759 -0.08685624 -0.03967749 -0.22487223  0.03393371 -0.48536485
  0.08583933  0.05004251  0.22850907  0.30054862][ 0.29266561 -0.06521983 -0.11920467 -0.16853188 -0.04151493 -0.55992752
  0.19214793  0.07249338  0.24761344  0.14947847][ 0.33320671 -0.04194576 -0.15410338 -0.11447406 -0.11376942 -0.49873791
  0.30461124 -0.05057225  0.28141388  0.05437094][ 0.24086828 -0.03145951  0.00128044 -0.04821147 -0.05537308 -0.29223818
  0.12873946 -0.05142251  0.19149271 -0.08367615][ 0.01035561 -0.01455096  0.09487071 -0.00225699 -0.02188295 -0.00624042
 -0.07180367  0.00507718  0.05141532 -0.04498383][-0.00707851 -0.0048813   0.03864451 -0.00035471 -0.01004389  0.0175175
 -0.0449506   0.00574843  0.01880466 -0.01340609][ -1.09949202e-04   6.16921640e-04   4.02156079e-03  -6.72995530e-05
  -2.43970669e-03  -6.88016894e-04  -2.31099927e-03   3.23143255e-03
  -1.69401283e-03  -5.59930536e-04][ -1.51387224e-07   3.39307955e-05  -4.42131058e-06  -9.33013131e-06
  -4.49146676e-07  -1.55977070e-06  -2.04234793e-06  -3.54895299e-06
  -6.00805824e-06  -6.41968985e-06][  3.03825794e-04  -2.97533153e-05  -1.47912006e-04  -1.34377538e-03
  -7.47566326e-03  -5.94943557e-04  -3.03897981e-04   1.68507261e-02
  -1.30976463e-04  -7.12762991e-03][-0.0007872  -0.00028968 -0.00039542 -0.00333324 -0.0157031  -0.00171265
 -0.00039265  0.05032848 -0.00093409 -0.02678045][-0.01016358  0.00152468 -0.03282753 -0.00949413 -0.04311396 -0.00163252
 -0.02101572  0.11264598  0.00645607 -0.00237929][-0.06162014  0.00086953 -0.16677884 -0.07075569 -0.03169109  0.02773948
 -0.04807193  0.15175524 -0.0206737   0.21922714][ 0.0152222  -0.02278414 -0.40164861 -0.16749054  0.08443236  0.07975273
  0.07083851  0.08421715 -0.00099148  0.25845182][ 0.16349353 -0.02950286 -0.57164457 -0.26156787  0.22128531  0.07778141
  0.20296739  0.02729432 -0.00257223  0.17246558][ 0.16981777 -0.05869247 -0.51758172 -0.31483446  0.30738112  0.11983321
  0.12706141 -0.01774572 -0.01840666  0.20316752][ 0.089666   -0.07601918 -0.37834109 -0.21579315  0.3080202   0.11975183
  0.08002923 -0.05907873 -0.04269711  0.17446199][ 0.07800975 -0.18440701 -0.29994669 -0.10256152  0.28637001  0.08124901
  0.13373299 -0.09047656 -0.02101041  0.11904042][ 0.12344076 -0.39649875 -0.18214087 -0.11853358  0.3944341   0.22376823
  0.13788817 -0.15120593 -0.12528986  0.09413772][ 0.10456534 -0.43775217 -0.11157784 -0.14250932  0.54909338  0.28445193
  0.14960103 -0.42181971  0.04848318 -0.02253582][ 0.03587184 -0.16014973 -0.10583917  0.03683212  0.32768646  0.3180463
  0.14444417 -0.70867867  0.23302725 -0.12124056][-0.25769238  0.30250035 -0.03335663  0.22151045 -0.11212983  0.22604677
 -0.01938604 -0.72459879  0.29477538  0.10233072][-0.53055418  0.62286533 -0.10498152  0.18945729 -0.09982363  0.01518968
 -0.10538743 -0.27590823  0.08040791  0.2087348 ][-0.62386715  0.413524   -0.24656239 -0.00232176  0.19279055 -0.23626738
  0.02533243  0.0235871   0.2139098   0.23987481][-0.50661318  0.10362876 -0.21152384  0.07447619  0.27080251 -0.36308393
  0.02821124  0.14880217  0.09227578  0.3630243 ][-0.22653797  0.01821818 -0.111173    0.06355834  0.29041911 -0.2644849
 -0.08324899  0.07388229 -0.10116889  0.34053584][-0.08097548 -0.21217228 -0.11615371  0.14141982  0.1916556  -0.15601196
 -0.11931288  0.08033375 -0.0165731   0.28779024][-0.08394376 -0.19865706 -0.0644425  -0.09160039  0.18355609 -0.10412313
 -0.07978133  0.05280916  0.0513586   0.33482431][-0.09490155 -0.13334273 -0.03359865 -0.22163499  0.18965132 -0.12610891
 -0.03882369  0.10918271  0.08038207  0.26919443][ 0.08641831 -0.08704321 -0.07054502 -0.2263415   0.1086985  -0.26130542
  0.15546722  0.06009533  0.01027455  0.22428123][ 0.24697981 -0.06786257 -0.1332045  -0.21852894  0.05238114 -0.31832865
  0.27217124  0.04592026  0.08535811  0.0351141 ][ 0.33986787 -0.05599609 -0.08679699 -0.12407884 -0.04435482 -0.39390496
  0.39156191 -0.01486805  0.08845321 -0.09988323][ 0.22731511 -0.04153922  0.07618661 -0.04336868 -0.07311162 -0.26877247
  0.20965491  0.01067176  0.04438643 -0.14142282][ 0.02647552 -0.01529206  0.14031549 -0.00603818 -0.01280057 -0.0405251
 -0.05760629  0.01475982  0.01047226 -0.0597609 ][-0.00175396 -0.00288591  0.07115459 -0.0005633  -0.00499512 -0.00298292
 -0.04253476  0.0007966  -0.00196273 -0.01427248][-0.00070545 -0.00031693  0.02567963 -0.00085465 -0.00693572 -0.00523936
 -0.00793963 -0.00133389 -0.00160289 -0.0007511 ][ -4.44768001e-05  -2.19157938e-06  -9.67917060e-06  -6.28172912e-04
  -2.77291497e-05   2.36334739e-03  -6.33139393e-05  -2.86510682e-05
  -1.46123780e-04  -1.41300899e-03][ -9.92797648e-05  -1.62843810e-05  -2.73055577e-03   2.69424638e-03
  -4.23482895e-03  -4.84107773e-04  -5.70649186e-05   8.56005995e-03
  -3.99884580e-04  -3.23230019e-03][-0.000747    0.00016889 -0.00203349  0.00017057 -0.00872171 -0.00105532
 -0.00015209  0.02783827 -0.0005568  -0.01491132][-0.024193    0.00343361 -0.02602904  0.00161523 -0.00725203 -0.00085296
 -0.01536364  0.05567622 -0.00829392  0.02125952][-0.0502169   0.00314871 -0.1223703  -0.02753604  0.10690935  0.02351126
 -0.08136291  0.05026311 -0.05788591  0.15553964][ 0.13477699 -0.02613837 -0.33487888 -0.13628349  0.21753352 -0.00682955
  0.06633817  0.06331324 -0.09524418  0.11741256][ 0.20283088 -0.0535216  -0.27113186 -0.24267792  0.23452918 -0.01938526
  0.18361455 -0.01260456 -0.16376214  0.14210873][ 0.22358706 -0.08683357 -0.11966379 -0.29534934  0.33334452 -0.00873346
  0.11069783 -0.06642742 -0.21638086  0.12575903][ 0.14395155 -0.09065214 -0.09823779 -0.22133986  0.2828038   0.0830094
  0.13107843 -0.10445418 -0.22178361  0.0956244 ][ 0.15473351 -0.20631767 -0.06567157 -0.11039814  0.23335331  0.18634754
  0.18419224 -0.17857222 -0.18970277 -0.00796424][ 0.1730987  -0.4144956  -0.01390824 -0.15385226  0.29912843  0.25124045
  0.22121845 -0.26803436 -0.06070757 -0.03368799][ 0.13783363 -0.4266853   0.01418772 -0.13532266  0.4195561   0.08747627
  0.29103876 -0.51627639  0.19243501 -0.06424314][-0.02100666 -0.09604068  0.0461183   0.05949907  0.2354081   0.16513776
  0.14385283 -0.72029083  0.2564227  -0.06910061][-0.3070383   0.32458879  0.1822373   0.10962147 -0.09843515  0.08042749
 -0.06304027 -0.57436111  0.33271148  0.0132883 ][-0.55910589  0.55563137  0.05885555  0.11220562 -0.07527626 -0.09808364
  0.00876926 -0.20604145  0.19042418  0.01262128][-0.60687134  0.35217944 -0.1015261   0.06385279  0.12802987 -0.21763003
  0.09836559 -0.05745486  0.17605687  0.16499777][-0.53614588  0.0642711  -0.07606637 -0.00280829  0.34051303 -0.25842618
  0.06955282  0.06562772  0.00992569  0.32355637][-0.21221238 -0.20979984 -0.11015809  0.00834529  0.42109493 -0.20584915
 -0.13408389  0.17323107 -0.01199584  0.28142788][-0.06584678 -0.32185441 -0.08698375  0.07653401  0.25772325 -0.14165487
 -0.15009212  0.3302259  -0.0653833   0.16733205][-0.0907273  -0.24958404 -0.05947241 -0.05236654  0.28023562 -0.16834004
 -0.07602551  0.34273734 -0.0513567   0.12489959][-0.0066929  -0.15147295 -0.04686966 -0.12562144  0.16614404 -0.05623542
  0.02455321  0.2292474  -0.16490518  0.13185291][ 0.11284786 -0.10398744 -0.11791687 -0.04826189  0.09014837 -0.11137004
  0.15138989  0.14965644 -0.16732087  0.04481455][ 0.18242178 -0.0730271  -0.11562813 -0.14132969  0.0582184  -0.09966115
  0.27273068  0.17058658 -0.15774634 -0.09656503][ 0.30991526 -0.05302454 -0.04777638 -0.09735748 -0.03961761 -0.19035652
  0.32386696  0.10508225 -0.10733446 -0.20339749][ 0.21137448 -0.02758347  0.11348549 -0.03406314 -0.06931495 -0.14055203
  0.14693176  0.01362955 -0.05558129 -0.15832641][ 0.0154542  -0.01325389  0.16830599 -0.01150321 -0.02958774 -0.05067457
 -0.03366186  0.00133924 -0.0040494  -0.04236876][-0.00237806 -0.0019392   0.09346773 -0.00424398 -0.01694114 -0.0079592
 -0.04666014 -0.00166133 -0.00631811 -0.00536658][ -8.43421676e-05  -2.75505860e-05   3.07552849e-03  -6.23252365e-04
  -7.48486060e-04  -3.44606517e-04  -9.39808983e-04  -1.84088017e-05
  -2.64389745e-04  -2.46832688e-05][ -1.60941724e-05  -8.25842346e-07  -3.28743413e-06  -2.06849845e-04
  -1.21435211e-05   7.61693299e-04  -2.11926053e-05   1.77642478e-05
  -4.97040497e-05  -4.69360077e-04][ -8.83295404e-05  -9.83396428e-06  -5.74322502e-03   7.04097000e-03
  -1.63752475e-05  -3.18407529e-04  -1.91787989e-05  -4.41779173e-05
  -7.56591805e-04  -4.48501792e-05][-0.0010354   0.00124167 -0.00324249  0.00807378  0.00324674 -0.00155822
 -0.00031299  0.00949988 -0.00118388 -0.0147291 ][-0.02947394  0.00144157  0.01383778  0.01293389  0.00900306 -0.00749761
 -0.02964097  0.0324855  -0.01164038  0.00855111][ -1.11005427e-02  -3.96422800e-03   1.16712709e-02   2.91615579e-02
   7.43745406e-02  -6.58719740e-03  -1.14493636e-01   4.13811045e-05
  -6.31355176e-02   8.40323713e-02][ 0.20426626 -0.04789611 -0.01917311 -0.0563676   0.14229906 -0.0912268
  0.00718351 -0.06080972 -0.15467444  0.07639894][ 0.16182064 -0.09937643  0.0542651  -0.15144245  0.20194323 -0.0919271
  0.15429958 -0.03372366 -0.21165096  0.01579204][ 0.23334681 -0.11044728  0.05503293 -0.21522805  0.31385706 -0.14949882
  0.15793445 -0.09346293 -0.21004799  0.01851381][ 0.1796519  -0.11980127  0.06461387 -0.27037569  0.30158058 -0.01818136
  0.17466554 -0.20499982 -0.17775669  0.07060295][ 0.19147332 -0.22113318  0.05568498 -0.21140615  0.2939463   0.11531581
  0.17593921 -0.24807061 -0.09552139 -0.0562283 ][ 0.2313899  -0.31559926  0.03271822 -0.1824884   0.1747129   0.11786623
  0.2843871  -0.29609234 -0.05940224  0.01250789][ 0.05430692 -0.19328485  0.02626454 -0.04556682  0.22053161  0.09071354
  0.30938926 -0.47369378  0.00133925  0.01000034][-0.16591821  0.01444786  0.0566409   0.08724131  0.12084786  0.12108082
  0.12095679 -0.53006318  0.22234139 -0.04757554][-0.46416559  0.38731777  0.19137295  0.14526128 -0.10115076 -0.04104534
  0.02903792 -0.36077987  0.34920869 -0.13505706][-0.64199914  0.58807199  0.10545096  0.10666079  0.00593512 -0.19132958
  0.13498231 -0.2016554   0.27426101 -0.18037806][-0.57042949  0.22398887 -0.00899368  0.07426557  0.26569358 -0.23935765
  0.12501362 -0.01996234  0.0713899   0.07839161][-0.43118889 -0.02251376 -0.01927174 -0.05560622  0.43015437 -0.21993401
 -0.00106061  0.00807261 -0.00725401  0.31860226][-0.21351916 -0.36559595 -0.06023949 -0.04483896  0.32615132 -0.17643003
 -0.06060569  0.3816502  -0.05986903  0.27329679][-0.03220224 -0.34245598 -0.08699888  0.0120776   0.14382733 -0.01892979
 -0.07498177  0.41390108 -0.10813293  0.09389558][-0.02899452 -0.26350998 -0.03199613  0.11270767  0.14792055 -0.08632667
 -0.03365182  0.33274647 -0.16956166  0.02066607][ 0.07000681 -0.17716399 -0.12448045  0.12087932  0.04752508 -0.04671095
  0.06405083  0.31339598 -0.2621689  -0.00533372][ 0.09821561 -0.12411327 -0.07555749  0.10610941  0.00518206 -0.03982946
  0.1253439   0.28298616 -0.26938945 -0.10894747][ 0.17933587 -0.08888562 -0.09382092  0.08120688  0.02288968 -0.07978924
  0.16105064  0.21473781 -0.21037653 -0.18634856][ 0.26039254 -0.06150097 -0.00619588  0.01709673 -0.04841956 -0.02298416
  0.17263224  0.06491127 -0.15330596 -0.22262624][ 0.15078704 -0.03718638  0.23346905  0.00547188 -0.13670102 -0.03787929
  0.07314216 -0.00419073 -0.09481473 -0.15209797][-0.00247234 -0.01578623  0.26911584 -0.01744643 -0.06368938 -0.0413184
 -0.042295   -0.01811163 -0.02108767 -0.04690875][-0.00355539 -0.00446877  0.12130053 -0.00275413 -0.00340059 -0.01368171
 -0.06067648 -0.00331422 -0.01415089 -0.01529836][-0.00014138 -0.00055436  0.00831442 -0.00026192 -0.001292   -0.00077457
 -0.00307724 -0.00023878 -0.00101542 -0.00095876][ -8.74841361e-06  -6.18546051e-07  -6.75132472e-07  -6.65662727e-06
  -1.75089426e-05  -6.94063594e-05  -2.63709981e-06   1.55117549e-04
  -1.06183442e-05  -3.82480832e-05][ -5.77527249e-05   2.09942795e-05  -2.92439786e-03   4.70950628e-03
  -2.34729307e-05  -1.87428614e-04  -1.94104341e-05  -6.58397161e-04
  -4.06889121e-04  -4.52751715e-04][-0.00248735  0.0005721  -0.00329642  0.02881733 -0.0039625  -0.0051324
 -0.00116621  0.00065555 -0.00283743 -0.01116267][-0.02841244 -0.00178539  0.06316542  0.06450276 -0.04044757  0.00161897
 -0.03690033 -0.00541524 -0.01451143 -0.00181474][-0.00732532 -0.00984703  0.14460232  0.1139326  -0.08198195 -0.00293878
 -0.12012849  0.01013147 -0.0802193   0.03377447][ 0.21456628 -0.06568793  0.13953975  0.02241043  0.00657005 -0.06585863
 -0.02804169 -0.07619479 -0.16463742  0.01733394][ 0.22596178 -0.15661779  0.16939573 -0.10575618  0.1143401  -0.13145294
  0.13437453 -0.06425009 -0.15300488 -0.03299026][ 0.1891155  -0.18014533  0.10773379 -0.15840481  0.27511889 -0.30815524
  0.20693002 -0.02517532 -0.08786659 -0.01915093][  2.19977204e-01  -1.90924738e-01  -9.41589707e-05  -2.57153251e-01
   3.22368843e-01  -2.64040064e-01   1.85083127e-01  -1.26227298e-01
   3.42384899e-02   7.67718453e-02][ 0.24123467 -0.1751363   0.08890071 -0.24715842  0.21777149 -0.22243724
  0.25700634 -0.19636643  0.06359065 -0.02740546][ 0.24319085 -0.12296622  0.11791789 -0.24272418  0.03189406 -0.15441951
  0.3624532  -0.32657876  0.00935712  0.08187554][ 0.03285814 -0.09237368  0.14274926 -0.11558738  0.02150383 -0.11972078
  0.39527322 -0.44884454  0.09226518  0.09187674][-0.27328301 -0.03304843  0.26509475  0.02898641  0.05747196 -0.05237857
  0.06699601 -0.29101603  0.27795908 -0.04678218][-0.56018118  0.34539416  0.29165981  0.12712443  0.06380181 -0.15358422
  0.05258878 -0.19871894  0.20448761 -0.17257226][-0.56919136  0.53823474  0.1124097  -0.01926207  0.24985881 -0.25269927
  0.12269926 -0.13572561  0.08637513 -0.13269932][-0.44767135  0.05899544 -0.01080319 -0.08838596  0.43564769 -0.18340652
  0.05502461  0.09127013  0.02904826  0.0602809 ][-0.28200884 -0.22434204  0.09826387 -0.1506613   0.39681476 -0.20759684
 -0.07321332  0.13448237  0.07531294  0.23294841][-0.07044088 -0.44201921  0.12436138 -0.01218972  0.28795643 -0.10126426
 -0.11394331  0.25177786 -0.08360528  0.15936699][ 0.02507359 -0.35689115  0.06938584  0.14120867  0.14108258 -0.07816879
  0.03548189  0.2004033  -0.20971083  0.03213489][ 0.05600851 -0.24467153  0.02934058  0.19231759  0.08629477 -0.01086623
  0.08083265  0.23576974 -0.28837748 -0.1366486 ][ 0.10314626 -0.177402    0.00305434  0.14864042  0.09713564  0.02890786
 -0.00231785  0.21791435 -0.26511378 -0.15396525][ 0.10799315 -0.11627429  0.13387337  0.17804868 -0.00043482 -0.00899072
  0.02521596  0.17388468 -0.26850613 -0.22480987][ 0.15925554 -0.08635719  0.13411949  0.18062701 -0.08276576  0.0018682
  0.06862777  0.0616988  -0.23158823 -0.20548562][ 0.16670815 -0.06651598  0.16568694  0.10261079 -0.09927059  0.03596846
  0.06394158 -0.01857211 -0.1133184  -0.23723883][ 0.05889871 -0.03417661  0.31109101  0.03523954 -0.10782261  0.02243188
  0.00474401 -0.03457891 -0.09478008 -0.16104694][-0.025698   -0.01943401  0.37271804 -0.027499   -0.08142376 -0.03250764
 -0.06062554 -0.02638366 -0.05297414 -0.04617228][-0.00676914 -0.00580548  0.1369959  -0.00620162 -0.03181885 -0.01011951
 -0.04645181 -0.00254086 -0.01604994 -0.01123869][ 0.00059444 -0.00020622  0.00695703 -0.00017274 -0.00104217 -0.00012449
 -0.00548772 -0.00016502 -0.00018393 -0.00016919][ 0.  0.  0.  0.  0.  0.  0.  0.  0.  0.][ -3.56836552e-05   1.59990324e-04  -1.18622775e-03   1.66824240e-03
  -1.38882965e-05  -1.34768360e-04  -2.50154648e-05  -3.71462733e-05
  -2.61071784e-04  -1.34431137e-04][-0.0042259  -0.00034151  0.00489887  0.03680862 -0.00898975 -0.00897224
 -0.00231733 -0.00123884 -0.00348025 -0.01214167][-0.03027049 -0.00348914  0.08535378  0.14094508 -0.07213977  0.0092745
 -0.04620624 -0.03821568 -0.02355763 -0.02169441][-0.00343082 -0.02173231  0.24746449  0.18866015 -0.10118252  0.0302099
 -0.15858825 -0.01014871 -0.09581557 -0.07543635][ 0.20703484 -0.11194742  0.23915488  0.07471362 -0.07842547  0.09700332
 -0.09592589 -0.08040595 -0.15996396 -0.09123797][ 0.22929874 -0.22379842  0.20747708 -0.0430675   0.00886367  0.14616089
  0.02423383 -0.14649955 -0.12266862 -0.08000013][ 0.17925176 -0.24066294  0.11967243 -0.0772147   0.15326569 -0.17805789
  0.18962411 -0.16876717  0.01988699  0.00300172][ 0.16600563 -0.18450506  0.04777528 -0.19027497  0.21714312 -0.30365866
  0.20455889 -0.16886755  0.16177238  0.05005094][ 0.24234773 -0.12867369  0.12914995 -0.38696197  0.12352119 -0.28718953
  0.24436616 -0.19932788  0.22185149  0.04091656][ 0.28611272 -0.00658525  0.21136961 -0.46060979 -0.01934225 -0.29423902
  0.40350719 -0.32795329  0.14232921  0.06541086][ 0.03360092 -0.08563054  0.24084038 -0.39810381 -0.03677981 -0.26610261
  0.42976541 -0.23121962  0.26013278  0.0534969 ][-0.2303825   0.05609137  0.32717584 -0.26827871  0.0725684  -0.35419029
  0.179638   -0.09715803  0.31951577 -0.00497986][-0.50511203  0.33808259  0.23382555 -0.2166968   0.25208344 -0.33280108
  0.09517841  0.03810576  0.19225688 -0.09492272][-0.50427951  0.36486428  0.06563456 -0.26576574  0.40950111 -0.22765267
  0.07767339  0.08744648  0.00242382 -0.00984571][-0.34094797 -0.03639138  0.08635876 -0.15399141  0.38823191 -0.12469437
 -0.03802402  0.1079235  -0.07436139  0.18589637][-0.11546219 -0.33496502  0.07045371  0.00935493  0.31125197 -0.01494626
 -0.08193022  0.04327093  0.04164156  0.07133057][ 0.04754647 -0.39527286  0.03601379  0.15724362  0.15263926  0.04192736
  0.0150854   0.0432358  -0.1109802   0.01256137][ 0.02777614 -0.29485667  0.03199652  0.10736807  0.10529395  0.09690887
  0.12403379  0.06905377 -0.20828631 -0.05928814][ 0.0505993  -0.18571919  0.01193072  0.19732661 -0.01519059  0.02815479
  0.14415123  0.01242272 -0.14473838 -0.09893722][ 0.08101783 -0.13910555  0.03871638  0.08823953  0.00937579  0.09031634
  0.04041774  0.02693554 -0.11224163 -0.12367199][ 0.07987843 -0.0975316   0.13680797  0.21648248 -0.05060522  0.04319708
  0.03333059 -0.01090701 -0.14162769 -0.20902504][ 0.15259658 -0.07209805  0.18062342  0.24450835 -0.1407607  -0.03645037
  0.05598274 -0.02913843 -0.10785071 -0.24741282][ 0.06865177 -0.06175815  0.21117448  0.11486087 -0.12024759  0.07549939
  0.03779552 -0.04556442 -0.05153096 -0.22888091][ 0.00762164 -0.03291951  0.34447754 -0.05030208 -0.09975374  0.08775764
 -0.04899904 -0.02690082 -0.03227982 -0.1487018 ][-0.023247   -0.02655321  0.36355538 -0.05031649 -0.08079875 -0.02064723
 -0.0541624  -0.00219577 -0.07535563 -0.03027888][-0.00379379 -0.00726921  0.09861168 -0.00598927 -0.02311551 -0.00750725
 -0.03350857  0.00582152 -0.01634087 -0.00690872][ 0.00458457 -0.00066877  0.00841963 -0.00026461 -0.00527113 -0.00089057
 -0.00432941 -0.00052443 -0.00041752 -0.00063776][ -1.35425000e-06  -5.85847631e-06  -4.56009303e-06  -9.09626103e-05
  -8.99550154e-05  -3.85730528e-05  -2.69290424e-06  -1.66403313e-04
  -6.61012629e-05   4.66460978e-04][ -7.52131167e-06   3.05897368e-05  -8.61284257e-05   2.27902113e-04
  -2.92480819e-06  -8.62831204e-05  -6.20800177e-06   6.94536890e-06
  -4.34359549e-05  -3.29355960e-05][-0.00417643 -0.00054693 -0.00769903  0.03632455 -0.01067361 -0.00500791
 -0.00181122  0.00416791 -0.00347307 -0.00710424][-0.05291612 -0.00482956  0.05423042  0.22587089 -0.06062832  0.01482561
 -0.04825558 -0.03523334 -0.04677169 -0.04629229][-0.02844324 -0.03591748  0.28188672  0.25801503 -0.08941148  0.08581543
 -0.16248582 -0.03731822 -0.14079354 -0.13134742][ 0.14835035 -0.15699915  0.29921726  0.20166032 -0.07800721  0.18120127
 -0.18569638 -0.12414858 -0.10580918 -0.1797687 ][ 0.18895372 -0.2969543   0.23305069  0.07079513 -0.08640243  0.36918449
 -0.06304694 -0.23981759 -0.0496768  -0.12608597][ 0.15250631 -0.27879868  0.28310268 -0.07784992 -0.04840709  0.16872777
  0.1159524  -0.25449891  0.04601297 -0.10674753][ 0.15858553 -0.12976715  0.10315145 -0.09622336  0.0452966  -0.07304734
  0.16846288 -0.26219825  0.14999595 -0.06425632][ 0.19219599 -0.0281125   0.15691183 -0.25937999 -0.0013085  -0.16040307
  0.20410344 -0.28873847  0.22330099 -0.03856972][ 0.27176746 -0.05546589  0.2371024  -0.38215502 -0.16738436 -0.20905876
  0.30867464 -0.2976891   0.24200378  0.05220487][ 0.06826792 -0.05746288  0.19351435 -0.36468435 -0.09719165 -0.2061234
  0.38497788 -0.16408354  0.21640835  0.02637732][-0.19231092  0.08425816  0.30006327 -0.36331508  0.10078602 -0.1931013
  0.3903116  -0.09289248  0.11662435 -0.15042363][-0.40857564  0.2099812   0.22290364 -0.32601429  0.19760445 -0.06464032
  0.16743837  0.0753771   0.03189126 -0.10596576][-0.39570728  0.17758481  0.12542118 -0.28574287  0.23654221  0.01474743
  0.07462358  0.06538614 -0.08784539  0.07499021][-0.19963259 -0.1299691   0.0076346   0.03721184  0.22081186  0.01505433
  0.06743396 -0.00887931 -0.06217189  0.0525063 ][-0.06580246 -0.29208629  0.08714897  0.20816529  0.16773057  0.0269854
  0.16549482 -0.1303138  -0.07161565 -0.09570685][-0.009996   -0.21791975  0.12219243  0.19159575 -0.08212503  0.08557714
  0.18118128 -0.0676537  -0.12428589 -0.07856624][-0.00575624 -0.15070125  0.10131317  0.20028105 -0.07068051  0.02730261
  0.17944951 -0.07149129 -0.07908071 -0.13063635][ 0.00957365 -0.10820607  0.04050672  0.18654416 -0.08151932  0.07130567
  0.05885766 -0.10601529 -0.0436228  -0.02742438][ 0.00974513 -0.05182102  0.00909778  0.11379247 -0.02851402  0.1031336
  0.02628994 -0.10086865 -0.05430999 -0.02654526][ 0.07076946 -0.06791422  0.12321259  0.27644761 -0.0888537   0.04197621
  0.05510559 -0.11146742 -0.10140422 -0.19787192][ 0.10870324 -0.08421653  0.21567129  0.27701975 -0.19933322  0.03594659
  0.0155498  -0.13093533 -0.00851681 -0.22988877][ 0.00717253 -0.06180789  0.34464772  0.05895799 -0.12763485  0.10578295
  0.00254341 -0.12936836 -0.00559563 -0.19469788][-0.0273861  -0.03161125  0.42139795 -0.09085596 -0.0816817   0.09417259
 -0.07539849 -0.07374463 -0.03245211 -0.1024403 ][-0.01762813 -0.00538446  0.25615687 -0.03910121 -0.06034318 -0.01206797
 -0.0360374  -0.00783624 -0.05215564 -0.02560265][-0.00340294  0.00063848  0.04010084 -0.00531808 -0.00288204 -0.00620221
 -0.01914776  0.00580266 -0.00769846 -0.00189049][-0.00188866  0.00149416  0.01204659 -0.00047132 -0.0001427  -0.00252311
 -0.00681279 -0.00012019 -0.00121181 -0.00037016][ -2.92546231e-08   2.21819389e-05  -1.17798496e-05  -1.96898830e-06
  -6.01735115e-08  -1.55827367e-07  -4.55158503e-07  -4.46746942e-07
  -6.97256460e-06  -3.13375438e-07][  1.66403338e-03   8.63355551e-05  -5.00406928e-04   1.46337300e-04
  -4.87855111e-05  -1.98293018e-04  -2.76343283e-04   1.97481625e-04
  -3.30382978e-04  -7.39976142e-04][-0.00517559 -0.00092372 -0.00592897  0.0190284  -0.01046696  0.01478194
 -0.00217604  0.0054631  -0.00524    -0.00936216][-0.05193196 -0.00777271  0.01469417  0.22493319 -0.02789446  0.02647433
 -0.04138962 -0.03243857 -0.06423702 -0.04043735][-0.05529389 -0.04946623  0.22276305  0.27843171 -0.06641423  0.1092015
 -0.14227599 -0.05128362 -0.1312875  -0.11437481][ 0.10154717 -0.18869011  0.18909622  0.31202969 -0.06060032  0.16314784
 -0.18525914 -0.13677957 -0.02564208 -0.16884971][ 0.17451404 -0.23888309  0.20483979  0.15570683 -0.14300587  0.30316736
 -0.10542979 -0.22685925  0.04515879 -0.16920881][ 0.14930835 -0.17968786  0.29683456  0.06284951 -0.20852494  0.24932719
  0.01413335 -0.29097003  0.05700055 -0.15027069][ 0.16197536 -0.07490563  0.22485647  0.03546269 -0.26834837  0.22391878
  0.08694559 -0.2845333   0.0723946  -0.17776618][ 0.15715657  0.00721346  0.24571891 -0.05944972 -0.31520859  0.10175844
  0.19248862 -0.27397835  0.16946696 -0.2251663 ][ 0.25978818 -0.03793201  0.19822064 -0.17261729 -0.32280236  0.06031746
  0.30638483 -0.2294026   0.13870672 -0.20066357][ 0.19563316  0.01331249  0.22661398 -0.26295516 -0.25602619  0.08279754
  0.46633218 -0.18967509 -0.04125398 -0.23477892][ 0.07842686 -0.00630809  0.25178813 -0.2427745  -0.21135262  0.04890578
  0.40231006 -0.07352872 -0.00110825 -0.24635863][-0.123164    0.13158837  0.20830926 -0.16502962 -0.0938672   0.06492557
  0.19877873  0.03482319 -0.10161597 -0.15474832][-0.15263831  0.03871814  0.12342117 -0.06312038  0.02983626  0.053007
  0.1952338   0.05736896 -0.15215189 -0.12967473][-0.10912223 -0.01851764  0.13732967  0.04488377  0.08237172  0.02753679
  0.19744712 -0.11522024 -0.07533575 -0.17137321][-0.06976075  0.01455256  0.10920722  0.14943651 -0.01466998 -0.02603716
  0.20122784 -0.18924429 -0.05594572 -0.11876624][-0.00338019 -0.01532084  0.11140863  0.23304118 -0.13174791 -0.01206028
  0.17121013 -0.16880257 -0.03261164 -0.15173653][-0.00196282  0.02879308  0.08550337  0.23111257 -0.1297162   0.08279991
  0.11291233 -0.25008866  0.00731059 -0.16666416][-0.05016668  0.03931496  0.0087213   0.1669604  -0.16829894  0.07199785
  0.08218185 -0.21511551  0.03770868  0.02669609][-0.00816841 -0.00084518  0.07819384  0.15166049 -0.14114621  0.0950934
  0.08098645 -0.25518639  0.01146644 -0.01205444][ 0.05962768 -0.04206449  0.19113127  0.22976314 -0.11901205  0.05295051
  0.07125881 -0.27281805  0.00836741 -0.17920423][ 0.05263647 -0.06181664  0.29030978  0.1409366  -0.21106672  0.11171259
  0.01079434 -0.23056175  0.07872183 -0.18166649][ -2.67097021e-02  -2.93212827e-02   3.19913869e-01  -1.84416230e-04
  -1.37280929e-01   1.14849485e-01  -4.89897426e-02  -1.40624346e-01
   6.98632251e-02  -1.21516161e-01][-0.0306749  -0.0021324   0.29234928 -0.07507194 -0.07356377  0.06507579
 -0.06924153 -0.04303215 -0.01797885 -0.04572954][-0.01657096  0.00327839  0.18651379 -0.0262065  -0.0281029  -0.00899313
 -0.05013517 -0.00954858 -0.03482222 -0.01541273][-0.00203743  0.000419    0.04909328 -0.00359308 -0.00159053 -0.0077807
 -0.01992171 -0.00170094 -0.00830173 -0.00458614][ -5.58548773e-04   8.04562193e-04   5.75796899e-03  -2.41277510e-04
  -1.33364212e-05  -8.33324124e-04  -4.33309037e-03  -3.63863558e-05
  -4.84727671e-04  -6.18399566e-05][ 0.  0.  0.  0.  0.  0.  0.  0.  0.  0.][  4.18764679e-03  -7.45844312e-05  -1.06118886e-03   2.00199544e-04
  -1.11396985e-04  -2.64325981e-04  -6.93077870e-04  -7.63856345e-05
  -6.99358397e-04  -1.40752817e-03][-0.00303809 -0.00398424  0.00632626  0.01574593 -0.0037842   0.01025593
 -0.00213521 -0.00452208 -0.00642377 -0.00844054][-0.0441817  -0.0116033   0.04425959  0.19871351 -0.02625285  0.01957369
 -0.03158121 -0.03666611 -0.07226551 -0.03999611][-0.02927309 -0.03556644  0.19450262  0.28142652 -0.0609076   0.06005913
 -0.11438591 -0.08750644 -0.12871299 -0.0796358 ][ 0.09047154 -0.12567778  0.18921322  0.2603909  -0.09828578  0.15105757
 -0.18892118 -0.14749195 -0.02731617 -0.10344038][ 0.11307122 -0.08411653  0.20092976  0.22698137 -0.18041237  0.18020499
 -0.17609354 -0.2366124   0.11611101 -0.16006352][ 0.11040745 -0.03122958  0.29049626  0.16382837 -0.27961917  0.12108927
 -0.04436087 -0.28700217  0.19889835 -0.24250793][ 0.10255392  0.05214473  0.26437349  0.12809245 -0.36334393  0.24462299
  0.02366726 -0.25623391  0.08172594 -0.27760294][ 0.13040441  0.0560378   0.23280247  0.13231685 -0.36788024  0.15700955
  0.17007513 -0.21604067  0.03552436 -0.33024966][ 0.29284328  0.08652521  0.18360276 -0.03877806 -0.35117061  0.07757621
  0.28382508 -0.21545552  0.05978468 -0.37875302][ 0.30555185  0.08967745  0.24671766 -0.12939225 -0.25163921  0.14726816
  0.30474801 -0.1921891  -0.11589826 -0.40484431][ 0.24387791  0.01516741  0.13354039 -0.18918579 -0.17735879  0.02833961
  0.40039063 -0.02683741 -0.02485445 -0.40307952][ 0.11114184  0.0038314   0.06010752 -0.08932431 -0.24106004  0.01529431
  0.34891289  0.0420632  -0.02823508 -0.22273174][-0.02211124  0.02066366  0.0206342   0.0252415  -0.09478573 -0.04017245
  0.40225197  0.01744087 -0.10865186 -0.22051093][-0.01163886  0.00760903  0.05231659  0.0088022  -0.01777403 -0.01855952
  0.29411197 -0.11384377  0.00495122 -0.20597484][-0.04733515  0.10775065  0.08929143  0.10967445 -0.0338035   0.06386698
  0.18640834 -0.22689107 -0.15305704 -0.0959051 ][-0.03895902  0.1451236   0.04048709  0.15285141 -0.03739263  0.07586953
  0.13056515 -0.25631542 -0.05256591 -0.1596638 ][-0.09027953  0.15838573  0.13213762  0.19848286 -0.10686994  0.04534444
  0.17111373 -0.35512611  0.01537385 -0.16856266][-0.1178539   0.08770704  0.18056807  0.15558126 -0.14019926  0.04474138
  0.0848253  -0.31116833  0.04423464 -0.02843619][-0.05837076  0.02428264  0.15237137  0.22718953 -0.10521133  0.00123783
  0.069929   -0.32820526  0.09227233 -0.07549535][ -7.72774723e-03  -1.23524029e-02   2.03218538e-01   1.57613218e-01
  -7.53929415e-02   6.57522138e-02   4.68715492e-05  -2.98281170e-01
   1.24983437e-01  -1.57860017e-01][-0.01461102 -0.038913    0.2212321   0.0362636  -0.119681    0.22718996
 -0.05893257 -0.23735066  0.09469341 -0.10989082][-0.05322525 -0.02002636  0.25685183 -0.03706498 -0.09653291  0.12799977
 -0.06507815 -0.11997377  0.05908252 -0.05203271][-0.0398119   0.00944024  0.22200181 -0.06515461 -0.0430598   0.02957233
 -0.05328908 -0.032899   -0.03845241  0.01165242][-0.01209374  0.0036283   0.09206135 -0.01747253 -0.01484379 -0.00365945
 -0.02040617 -0.00852984 -0.02507711  0.00639297][-0.00069201  0.00195493  0.02013241 -0.00242775 -0.00047235 -0.00242297
 -0.00452385 -0.00112167 -0.00743625 -0.00299049][ -6.32791727e-06  -3.43951900e-06  -1.66867233e-06  -8.68499042e-06
  -8.56744345e-06   1.05963148e-04  -2.20205468e-06  -4.91476809e-06
  -6.06085128e-05  -9.54927001e-06][ -1.20983999e-07   3.47662597e-05  -1.13458990e-05  -6.28035154e-06
  -4.06391331e-07  -6.63560967e-07  -7.62604283e-07  -2.76567665e-06
  -1.12402289e-05  -1.18056306e-06][ -6.23710943e-05  -1.36639502e-05   2.10766664e-05   6.01296915e-04
  -1.53013873e-05  -1.47178412e-04  -5.08541318e-05  -8.05215983e-05
  -9.79092194e-05  -1.54573788e-04][-0.00452001 -0.00697032  0.01405596  0.02799325 -0.00096117 -0.00421284
 -0.00115808 -0.01186827 -0.00643034 -0.00592817][-0.02976348  0.00483086  0.04693315  0.13442648 -0.01825895  0.00036155
 -0.01674872 -0.04104378 -0.04934674 -0.03139036][-0.04046342  0.0023151   0.12362075  0.23397265 -0.04311124  0.06715557
 -0.0842465  -0.08519948 -0.12035506 -0.05368836][ 0.05984128  0.06578998  0.14507407  0.17295476 -0.07753682  0.0525968
 -0.16280112 -0.11820052 -0.05094484 -0.08677359][ 0.09513243  0.10222665  0.15914179  0.14809952 -0.19214895  0.10127304
 -0.22466326 -0.19501719  0.15383052 -0.14787457][ 0.10877703  0.1034027   0.15151567  0.13204824 -0.25724346  0.11744536
 -0.10963745 -0.22425351  0.18532647 -0.20738106][ 0.06408879  0.11902198  0.10386807  0.1016529  -0.23688743  0.17537521
  0.02213448 -0.14725817  0.03532788 -0.23732371][ 0.09464636  0.06154407  0.17863194 -0.02078339 -0.23209345  0.1166477
  0.1190127  -0.1532058   0.03680601 -0.20120615][ 0.21088087  0.08660445  0.1522575  -0.05775809 -0.2301732   0.0852739
  0.21445579 -0.1869856  -0.03366723 -0.2408884 ][ 0.28299226 -0.07634546  0.12449421 -0.1206616  -0.13513287  0.13914052
  0.28758935 -0.1263613  -0.0472946  -0.32842051][ 0.20008329 -0.14185883  0.052818   -0.11549624 -0.14150798  0.06849869
  0.446908   -0.05124063 -0.06944136 -0.24876294][ 0.08944045 -0.13740023  0.04909985 -0.08941165 -0.16587688  0.04031473
  0.44556073 -0.1095854   0.08924276 -0.21138437][ 0.03337257 -0.03044012  0.00596138 -0.04381548 -0.12352505  0.06725113
  0.39980052 -0.11770441  0.00752224 -0.19842279][ 0.01830166  0.04869868 -0.04813542  0.01693655 -0.06151459  0.05100854
  0.26945655 -0.10058923 -0.01352104 -0.18064171][-0.03596476  0.09772774  0.04644315  0.07314501 -0.0669672   0.04059014
  0.20044431 -0.13380728 -0.07276925 -0.14884186][-0.12608523  0.15403655  0.12920944  0.08610173 -0.01904633  0.03349436
  0.21468703 -0.21314122 -0.03346152 -0.22579479][-0.12439127  0.14676353  0.17739223  0.15722836 -0.05119705  0.01440655
  0.1929372  -0.29581995 -0.01536678 -0.20195281][-0.12932992  0.06226672  0.24556133  0.17209407  0.02066379  0.0310084
  0.03943345 -0.30843235  0.0117007  -0.1449662 ][-0.07523892  0.04877323  0.11475451  0.10313588  0.03036906  0.1262131
 -0.03211924 -0.28060741  0.07651674 -0.11179695][-0.04708958  0.01752982  0.16559447  0.00655245 -0.00734734  0.20459514
 -0.08269606 -0.24538492  0.0785605  -0.09031449][-0.03471821 -0.04979915  0.22906989 -0.04831735 -0.0426659   0.20042557
 -0.04910586 -0.20494239  0.04732952 -0.04727612][-0.04737883 -0.02680784  0.28870127 -0.09047707 -0.04374685  0.10912302
 -0.05277973 -0.11222886 -0.02741871  0.00301359][-0.02734041  0.01102706  0.17295241 -0.06884291 -0.02891945  0.01076327
 -0.02926474 -0.02893567 -0.04867943  0.03723987][-0.00488464  0.01048739  0.06264886 -0.01355945 -0.01004991 -0.00441742
 -0.01137731 -0.00690542 -0.02008015 -0.00186194][ 0.00482749 -0.00039851  0.00804504 -0.00228307 -0.00056118 -0.00029393
 -0.00114636 -0.0009731  -0.002908   -0.00430839][  1.91018107e-05  -6.94805720e-08  -2.62115046e-06  -2.26670094e-06
  -3.68564409e-07  -4.75096907e-06  -2.45226878e-06  -3.07757297e-07
  -5.77043438e-06  -4.94484830e-07][ -1.17203249e-07   3.36798141e-05  -1.09913397e-05  -6.08409056e-06
  -3.93691602e-07  -6.42824687e-07  -7.38772899e-07  -2.67924925e-06
  -1.08889717e-05  -1.14367047e-06][ -2.40405338e-06   8.36481382e-06  -6.60678106e-06   2.99074277e-05
  -6.52827554e-07  -8.98233551e-06  -4.89959688e-07  -4.69220853e-06
  -8.44507916e-06  -5.99899662e-06][-0.00154973 -0.00666858  0.00885697  0.02374408 -0.00053448 -0.00401481
 -0.00041141 -0.00858695 -0.00521897 -0.00561611][-0.01987953 -0.00013744  0.02773961  0.08991958 -0.0122572  -0.00936444
 -0.00454028 -0.03153542 -0.02548787 -0.01445701][-0.07739345  0.02592012  0.09596336  0.15670451 -0.02877907  0.04808371
 -0.03988171 -0.04269601 -0.09502433 -0.04289714][ 0.00493776  0.20438341  0.08796501  0.14133615 -0.06583962 -0.00984692
 -0.09464126 -0.02600293 -0.14025784 -0.10203376][ 0.07809826  0.21090881  0.12374677  0.12693393 -0.11660244 -0.04711
 -0.18586007 -0.05893108  0.00442293 -0.13560711][ 0.09096449  0.13674915  0.15679602  0.06967269 -0.16328783 -0.0257841
 -0.18373593 -0.00654318  0.09620324 -0.17103455][ 0.13461081  0.08576562  0.17262597 -0.01306105 -0.15917013  0.0440819
 -0.1570528  -0.01453429  0.01138637 -0.10465239][ 0.13839592  0.03419085  0.19123381  0.0387717  -0.14246012  0.05335419
 -0.09126519 -0.06908336 -0.04573893 -0.10739887][ 0.16070758 -0.05727741  0.15260286  0.02748403 -0.10953968 -0.01321807
  0.0080143  -0.11192815  0.03114144 -0.08798691][ 0.19975739 -0.22687406  0.14199145 -0.00831836 -0.0567115   0.09299228
  0.00499788 -0.16982802  0.11563866 -0.09364573][ 0.1847586  -0.31728494  0.05828792 -0.0995729  -0.12055785  0.17942175
  0.10601066 -0.09698785  0.16183555 -0.05591096][ 0.24485494 -0.27517883 -0.01540616 -0.04529978 -0.11294123  0.17333535
  0.13204062 -0.17524342  0.17639313 -0.10255461][ 0.13089732 -0.09802902 -0.05454258 -0.03170114 -0.12151885  0.12232653
  0.08412378 -0.1007589   0.15045827 -0.08125542][ 0.0947166   0.03370015 -0.12156276  0.03385003 -0.05319958  0.04498381
  0.12443728 -0.01799898  0.06008961 -0.19901615][ 0.03650147  0.11339896 -0.04167981  0.03603602 -0.05114495  0.09415054
  0.04445302 -0.08063164  0.01223607 -0.16331969][-0.01075159  0.21758567  0.03203501  0.04055761  0.02172404  0.04521582
 -0.0045518  -0.1573438  -0.00622956 -0.1782414 ][-0.07774332  0.16735842  0.17505395  0.08364525  0.06422491  0.09079329
 -0.07354419 -0.25455228  0.02112959 -0.19636562][-0.1071933   0.07059503  0.18870064  0.11635084  0.17046774  0.1222072
 -0.08749631 -0.24979811  0.00105122 -0.22488494][-0.10485517  0.02925113  0.20071989  0.02848644  0.12374999  0.10527716
 -0.06952242 -0.2621402   0.01291603 -0.06388284][-0.06747655 -0.02286476  0.18311855 -0.06821505  0.0990321   0.0910322
 -0.05252629 -0.2159964   0.05325341  0.0006428 ][-0.03563124 -0.0654233   0.21709687 -0.06214026  0.01178048  0.11655964
 -0.06612985 -0.16388017 -0.00752472  0.05529255][-0.01838378 -0.03049547  0.17086712 -0.07119616 -0.01965427  0.08024663
 -0.05058208 -0.09925777 -0.0370843   0.07554008][-0.01651629 -0.00289397  0.092371   -0.03898441 -0.01371216  0.00810253
 -0.02124188 -0.0220988  -0.01926183  0.0342358 ][-0.00216423  0.00505064  0.03817066 -0.00981864 -0.00576746 -0.00195023
 -0.0055287  -0.00946115 -0.00789285 -0.00063806][  6.62485511e-04   9.87055669e-04   3.85756020e-04  -1.44718839e-04
   5.08324943e-04  -3.60979438e-05  -4.88949749e-05  -3.04023080e-04
  -9.59538668e-04  -1.05034864e-03][  3.52648814e-05  -1.28271825e-07  -4.83904701e-06  -4.18467866e-06
  -6.80426602e-07  -8.77101982e-06  -4.52726543e-06  -5.68167318e-07
  -1.06531096e-05  -9.12895070e-07][ 0.  0.  0.  0.  0.  0.  0.  0.  0.  0.][ 0.  0.  0.  0.  0.  0.  0.  0.  0.  0.][ -3.45494801e-04  -1.43798731e-04  -3.68799597e-04   1.43105384e-02
  -1.91568931e-04  -7.11336092e-04  -7.32848678e-05  -7.10452221e-03
  -1.51282250e-03  -3.85891068e-03][-0.0068494  -0.0114813  -0.00013058  0.06744066 -0.00623985 -0.00240903
 -0.00172344 -0.01917241 -0.01497218 -0.00446246][-0.05636405  0.0085195   0.01078884  0.15653036 -0.01857479  0.02633553
 -0.01043517  0.01334626 -0.08224316 -0.04790332][-0.05004828  0.14482362 -0.01780858  0.18518618 -0.03998007  0.03186416
 -0.02797491  0.06326771 -0.21035205 -0.07897777][ 0.00154741  0.19205146 -0.0184811   0.19894691 -0.04879647 -0.02898373
 -0.07276986  0.1248968  -0.23645105 -0.11196036][ 0.06041088  0.1072838  -0.02242124  0.15747427 -0.07352919 -0.05252066
 -0.14182414  0.17648792 -0.13390216 -0.07745949][ 0.09703964  0.02341292 -0.01039638  0.02854678 -0.06676233  0.05230624
 -0.19544461  0.02317365  0.03213576  0.01598832][ 0.17358175  0.00630412  0.00413575  0.07231739 -0.0337867   0.08588832
 -0.21849595 -0.00152769  0.00312187 -0.09153885][ 0.22115547 -0.07793299  0.00524528  0.11008362 -0.02864455  0.11314253
 -0.24329051 -0.05868955  0.02235076 -0.06342005][ 0.26073004 -0.16171355  0.03848627  0.09406917 -0.01403481  0.11667962
 -0.25544005 -0.10886018  0.12600393 -0.09592043][ 0.25854242 -0.12264639  0.03240108 -0.05263759 -0.08270213  0.1312699
 -0.18862658 -0.12874746  0.22709844 -0.07395169][ 0.25486489 -0.17854315 -0.05367889  0.04200269 -0.06898039  0.04883917
 -0.12451907 -0.10280245  0.28758106 -0.10476387][ 0.20315241 -0.16294957 -0.05054589 -0.040534   -0.04016944  0.10097228
 -0.12001023 -0.02930738  0.22337185 -0.08398003][ 0.12337201  0.00676066 -0.10065575 -0.02598479 -0.03393837  0.0619176
 -0.1163103   0.0155847   0.23831906 -0.1690648 ][ 0.00959591  0.10510078 -0.06418548 -0.05685377  0.01619132  0.09688714
 -0.14534957 -0.04632725  0.24985451 -0.16491359][-0.02265167  0.17141353  0.00822891  0.04661538  0.0458179  -0.01006797
 -0.13843426 -0.09209212  0.11894642 -0.12777612][-0.1316234   0.075408    0.13001909  0.12701454  0.14882577 -0.08226193
 -0.07399606 -0.16831857  0.12187322 -0.14694066][-0.16210826  0.01999087  0.17972951  0.00408542  0.15660497  0.01633277
 -0.042256   -0.22751645  0.10500209 -0.04986492][-0.14809416 -0.0218679   0.15111075 -0.06962109  0.16106525  0.06236608
 -0.04187432 -0.2251775   0.08123375  0.05085914][-0.08417711 -0.06003663  0.16564703 -0.08394227  0.10368053  0.0415097
 -0.0511334  -0.18984208  0.02776809  0.13052614][-0.03229392 -0.05729181  0.14140905 -0.07577458 -0.00364707  0.05023946
 -0.03351712 -0.13371611 -0.0204111   0.16500321][-0.0142097  -0.03130056  0.07047681 -0.05042703 -0.01677661  0.04747952
 -0.0192423  -0.0959651  -0.00135486  0.11131984][-0.00930548 -0.00595718  0.04639457 -0.01304597 -0.01402482  0.01522316
 -0.00983043 -0.02867446 -0.01058819  0.02980881][ -1.42839941e-03   2.10221510e-05   3.27893043e-02  -7.04423702e-03
  -9.30514711e-04  -1.26444649e-03  -2.33542614e-03  -1.05521985e-02
  -4.78287706e-03  -4.47222715e-03][ -1.44705898e-04   3.21306553e-03   2.09627099e-04   9.12373670e-04
   5.59368123e-04  -1.51536219e-04  -8.91378100e-05  -3.44784556e-04
  -2.97768933e-03  -1.18658061e-03][ 0.  0.  0.  0.  0.  0.  0.  0.  0.  0.][ 0.  0.  0.  0.  0.  0.  0.  0.  0.  0.][ 0.  0.  0.  0.  0.  0.  0.  0.  0.  0.][ -8.81682080e-04  -2.34881064e-05  -1.01806458e-03   6.30219618e-03
  -3.24072629e-05  -3.17431899e-04  -2.09682431e-05  -2.96982919e-03
  -1.59845493e-04  -8.78479328e-04][-0.00166777 -0.00908993 -0.017219    0.04740688 -0.00115776  0.00375281
 -0.00024346  0.00541322 -0.01762793 -0.00956705][-0.01407984 -0.01220147 -0.0359098   0.12737134 -0.01006185 -0.00762363
 -0.00158968  0.04646302 -0.0770006  -0.01536749][-0.02199299  0.02207604 -0.09200499  0.17266525 -0.01234619 -0.01659363
 -0.00603275  0.14830929 -0.1741479  -0.01993214][-0.04254154  0.02435337 -0.14095906  0.28138088 -0.02508279 -0.03344922
 -0.01757039  0.21668315 -0.24109918 -0.02171522][-0.08045818 -0.05071567 -0.15309685  0.28425198 -0.05255109  0.00661588
 -0.04149782  0.23559438 -0.19718178  0.04903914][-0.08514    -0.12899335 -0.16628246  0.22061231 -0.05952682  0.03801921
 -0.08584858  0.20168216 -0.02540108  0.09087861][-0.06493179 -0.12879837 -0.1783664   0.20798095 -0.02077525  0.15741397
 -0.13043333  0.13102757  0.01409371  0.01278896][-0.05148042 -0.18153418 -0.18802638  0.26495726 -0.0181742   0.15172532
 -0.16751912  0.09813798  0.04373843  0.0481753 ][-0.03870613 -0.2208167  -0.12257393  0.25212863  0.00398459  0.16320827
 -0.20452754  0.07456108  0.13426738 -0.04152566][ 0.05253702 -0.20770109 -0.0503257   0.18579027 -0.08729003  0.19816758
 -0.20250607  0.06201327  0.17217731 -0.12286256][ 0.06501801 -0.2432057  -0.02230132  0.24485426 -0.10608476  0.19489694
 -0.22423998  0.13348588  0.11607896 -0.15850229][ 0.0239451  -0.20711382  0.03714633  0.20187905 -0.09043077  0.17163781
 -0.21500725  0.12555359  0.12134915 -0.16895919][-0.03871646 -0.15766269 -0.00655731  0.09374827 -0.08186945  0.15232663
 -0.1788494   0.09593715  0.18022657 -0.05858331][-0.09844853 -0.15405698 -0.02628817  0.07619828 -0.00545695  0.07792711
 -0.13497697  0.05156355  0.25419527 -0.04065661][-0.11384996 -0.03048985  0.02976895  0.031251   -0.07704347  0.06839053
 -0.10554158  0.04295659  0.09645709  0.0581007 ][-0.14502406  0.0034565   0.05720917 -0.0880828   0.00477286  0.07069942
 -0.07698778 -0.06537347  0.16762883  0.07170132][-0.1281234   0.00330701 -0.00817585 -0.09396685  0.05574391  0.0430082
 -0.0594461  -0.10439023  0.16045835  0.13158497][-0.1084874  -0.0146043  -0.00760863 -0.05421882  0.0339306   0.02796051
 -0.03764426 -0.11028942  0.03382611  0.23713561][-0.07099743 -0.01472086  0.02690848 -0.03254983  0.02044816  0.00826481
 -0.03101773 -0.10266574 -0.01894224  0.21527237][-0.03020839 -0.01545644  0.01184407 -0.0251082   0.00536067  0.03685277
 -0.01890517 -0.09198849 -0.04000318  0.16761236][-0.01047884 -0.0082072   0.01409832 -0.01709028 -0.00146737  0.02989561
 -0.00820489 -0.08278858 -0.02116504  0.10540826][ -2.12440287e-03  -2.58649554e-03   4.50332547e-02  -9.51121151e-03
  -7.63106604e-03   1.62743899e-02  -1.91051546e-03  -2.99566819e-02
  -7.62263762e-03   3.53663626e-05][-0.00017675  0.00136709  0.03002193 -0.00241593  0.00158242 -0.00351188
 -0.00027531 -0.01193276 -0.00520455 -0.00945427][ -2.63952736e-06   2.99620370e-04   4.24135812e-03  -1.26121052e-05
  -7.41567253e-05  -8.89555096e-05  -3.04198321e-05  -8.09255064e-06
  -9.28964955e-04  -3.39513728e-03][ 0.  0.  0.  0.  0.  0.  0.  0.  0.  0.][ 0.  0.  0.  0.  0.  0.  0.  0.  0.  0.][ 0.  0.  0.  0.  0.  0.  0.  0.  0.  0.][ -2.10064657e-05  -1.45475180e-06  -3.24211149e-05   6.70059537e-04
  -3.71246838e-05  -8.32501580e-06  -2.09113484e-06  -1.00589280e-03
  -7.90138577e-05   5.17270292e-04][ -1.54248905e-04  -7.75876049e-04  -6.78531758e-03  -2.00558276e-03
  -1.07842374e-04   6.30842194e-03  -5.64851226e-05   1.06569510e-02
  -2.77442295e-03  -4.30559717e-03][ -1.92702614e-03  -8.85693679e-03  -2.06592996e-02   2.08891610e-02
  -4.96045001e-03   5.77754604e-03  -7.82011093e-04   5.00633883e-02
  -3.96344672e-02   9.00953806e-05][-0.00881794 -0.02245844 -0.03482126  0.05247893 -0.02412029 -0.01169369
 -0.00199889  0.08538318 -0.08056691  0.04661532][-0.02845618 -0.03751717 -0.04695692  0.10618669 -0.05530074 -0.02403033
 -0.00588106  0.10687276 -0.09467287  0.07975582][-0.05299554 -0.06860079 -0.08335892  0.16369551 -0.10785064 -0.03530251
 -0.01112531  0.17410857 -0.11854725  0.13997688][-0.08716101 -0.06967237 -0.12611384  0.22885414 -0.15278186 -0.01914854
 -0.0246983   0.24277458 -0.14714539  0.15509259][-0.12816854 -0.10033614 -0.14083677  0.2776494  -0.15030881  0.03971505
 -0.03427185  0.27521464 -0.15600204  0.11734505][-0.16090069 -0.17724587 -0.13913389  0.33030199 -0.15417008  0.06419365
 -0.03748599  0.23065524 -0.11504986  0.1588355 ][-0.14245057 -0.1608793  -0.1352788   0.3314767  -0.22394896  0.10157335
 -0.04058355  0.27228338 -0.12099205  0.1187998 ][-0.14644306 -0.14108547 -0.11422964  0.33286585 -0.25414614  0.11104821
 -0.04097006  0.26058588 -0.12187467  0.11424909][-0.13481869 -0.17801875 -0.0924718   0.29570336 -0.21606051  0.12553155
 -0.05411583  0.22529007 -0.09740611  0.1263667 ][-0.15883394 -0.17192059 -0.05933166  0.17202764 -0.20701688  0.07438419
 -0.05925111  0.28451589 -0.01013729  0.13556376][-0.15406083 -0.17077027 -0.03460005  0.07024017 -0.18425195  0.10756255
 -0.05600867  0.24468201  0.04746723  0.12973982][-0.13004481 -0.12581752 -0.04364846  0.05106928 -0.24803474  0.09801213
 -0.04565813  0.20722584  0.0330988   0.20379761][-0.11763587 -0.06397624 -0.04682274 -0.0055558  -0.26611055  0.08806811
 -0.03535432  0.18453151  0.02339589  0.23946   ][-0.09499029 -0.02722341 -0.06404969  0.00245541 -0.20212446  0.03954702
 -0.02838866  0.11833298 -0.00158832  0.25802942][ -6.28475525e-02  -1.81357025e-02  -7.99845650e-02   3.60067613e-02
  -1.76474213e-01   9.73225686e-03  -1.92671141e-02   4.48246239e-02
   1.52507788e-05   2.66130255e-01][-0.05835582 -0.00847363 -0.0555802  -0.00542583 -0.10583985 -0.00745583
 -0.01141127 -0.02982017 -0.01256034  0.29492295][-0.0426207  -0.00331366 -0.03901303 -0.01963742 -0.06607765  0.00670344
 -0.00674523 -0.02894891 -0.01866306  0.21831622][-0.01779601 -0.0024556  -0.0291448  -0.00415303 -0.0259476   0.02698373
 -0.003674   -0.02176929 -0.01554287  0.09349948][-0.00508443 -0.00186716 -0.01754489 -0.00240629 -0.00279445  0.02547879
 -0.00170153 -0.02534584 -0.01075047  0.04201626][-0.00146656 -0.00028422 -0.00345543 -0.00014961 -0.00476029  0.01686997
 -0.00049427 -0.00236837 -0.00357874 -0.00031248][ -2.83702159e-06  -6.52711709e-06   3.76449764e-03  -1.05823964e-04
  -3.50391233e-04  -1.34075118e-05  -2.29797113e-05  -2.40844544e-04
  -8.32741388e-04  -2.18894515e-03][ -2.47048782e-06  -7.63808859e-06   4.50572862e-03  -7.20491315e-06
  -7.82807135e-05  -7.78728120e-06  -2.52095588e-05  -7.42762972e-06
  -7.68845890e-04  -3.60086405e-03][ 0.  0.  0.  0.  0.  0.  0.  0.  0.  0.][ 0.  0.  0.  0.  0.  0.  0.  0.  0.  0.][ 0.  0.  0.  0.  0.  0.  0.  0.  0.  0.][ 0.  0.  0.  0.  0.  0.  0.  0.  0.  0.][ -6.50016107e-06  -1.30449393e-04  -3.11967315e-05  -1.01626433e-04
  -3.21365016e-05  -2.70201633e-05  -1.64684913e-05  -1.14589690e-04
  -3.04276544e-04   7.64264108e-04][-0.00025245 -0.00164034 -0.00080479 -0.00083638 -0.00470622 -0.00204766
 -0.0002143  -0.00304625 -0.00772874  0.02127714][-0.00420608 -0.00288301 -0.00193602  0.00344771 -0.01631307 -0.0049943
 -0.00045562  0.00034596 -0.01584377  0.04283821][-0.00804442 -0.00521049 -0.00380016  0.00712188 -0.03495985 -0.008484
 -0.00116281 -0.00771089 -0.02240952  0.08466025][-0.01477492 -0.00875473 -0.00951063  0.01284263 -0.0506296  -0.0173007
 -0.00210401  0.02256131 -0.02660963  0.09428029][-0.02334313 -0.0120732  -0.01186598  0.00825394 -0.07450443 -0.02413962
 -0.0041547   0.07270744 -0.03268427  0.10180395][-0.0415924  -0.01464089 -0.01172863  0.00637753 -0.11790589 -0.02095057
 -0.00581397  0.11981619 -0.04098595  0.12742457][-0.0389041  -0.03066698 -0.01330205  0.01084359 -0.14106452 -0.00637403
 -0.00687757  0.12897726 -0.05762577  0.15499415][-0.03402247 -0.03508478 -0.02160434  0.00891202 -0.16017192  0.02779103
 -0.00821222  0.12126686 -0.04995198  0.1510778 ][-0.02711388 -0.03953645 -0.01684337 -0.00087963 -0.18140712  0.03109203
 -0.00921449  0.10497839 -0.05846567  0.1973902 ][ -4.03213862e-02  -5.39972953e-02  -2.06946680e-02   2.43787780e-04
  -1.98717119e-01   1.79438242e-04  -1.16937033e-02   1.61998499e-01
  -6.04512683e-02   2.23453715e-01][-0.04885579 -0.043322   -0.01832162 -0.01249797 -0.23420548 -0.01915004
 -0.01169211  0.167937   -0.0637554   0.28386342][-0.04445167 -0.02648235 -0.0206334  -0.00950131 -0.20293676  0.00637292
 -0.00989176  0.20655066 -0.06475921  0.16573289][-0.03689851 -0.01943624 -0.02728301 -0.00395588 -0.19217838  0.00415305
 -0.0087845   0.19972004 -0.04748082  0.13214424][-0.03121082 -0.00944449 -0.02691728 -0.00291523 -0.1667366  -0.01767455
 -0.00777487  0.17358765 -0.02954884  0.11863504][-0.02438617 -0.00844136 -0.01956002 -0.00253745 -0.14940844 -0.02913814
 -0.00636584  0.11914473 -0.02029425  0.14098694][-0.00861188 -0.00425016 -0.0106497   0.00456851 -0.10782608 -0.01205735
 -0.00408791  0.0780056  -0.02026522  0.08517418][-0.0138141  -0.00197348 -0.01069823 -0.00079211 -0.0584828  -0.00039943
 -0.00289722  0.00780382 -0.01724393  0.09849749][-0.01595025 -0.00128671 -0.00930533 -0.0043199  -0.03790438  0.00459633
 -0.00208454  0.01250382 -0.01142682  0.0651778 ][-0.00837176 -0.00048106 -0.00376179 -0.000896   -0.01573093  0.00304784
 -0.00070321  0.01141693 -0.00554397  0.02102396][-0.00112482 -0.00013057 -0.0001671  -0.00021668 -0.0007164  -0.00013756
 -0.00013373 -0.00480224  0.00013912  0.00728998][ -2.48068700e-07  -5.74699310e-09  -2.56894061e-07  -1.19198068e-08
   3.96776522e-05  -2.44973279e-07  -9.11396845e-07  -2.55277438e-05
  -1.64369197e-06  -1.08272168e-05][ -1.14076728e-06  -4.66470736e-07  -1.96832801e-06  -4.76483881e-07
  -9.71026690e-07  -8.36008967e-07  -1.78854584e-07   1.76888497e-05
  -2.15192990e-06  -9.49897961e-06][ 0.  0.  0.  0.  0.  0.  0.  0.  0.  0.][ 0.  0.  0.  0.  0.  0.  0.  0.  0.  0.][ 0.  0.  0.  0.  0.  0.  0.  0.  0.  0.][ 0.  0.  0.  0.  0.  0.  0.  0.  0.  0.][ 0.  0.  0.  0.  0.  0.  0.  0.  0.  0.][ 0.  0.  0.  0.  0.  0.  0.  0.  0.  0.][ -5.28696930e-06  -1.19799946e-05  -7.61624028e-06  -2.09001761e-06
  -7.88537912e-06  -3.17547516e-06  -1.76569566e-06   1.35435115e-04
  -4.13402097e-05  -5.42951335e-05][ -8.10739893e-05  -4.90134674e-05  -3.86389265e-05  -2.52944105e-05
  -5.65594079e-05  -4.36635958e-05  -2.42098489e-05   8.31129932e-04
  -1.28562707e-04  -3.84113578e-04][ -1.56968661e-04  -7.35532382e-05  -7.55368181e-05  -6.91303521e-05
  -1.78495586e-03  -9.92994410e-05  -5.36909134e-05   1.38855818e-03
  -1.85402888e-04   1.10998000e-03][-0.00030239 -0.00011654 -0.00014808 -0.00016086 -0.01039696 -0.00038205
 -0.00013432  0.00365948 -0.00032281  0.00830452][-0.00063058 -0.00013844 -0.00018058 -0.0002093  -0.01054301 -0.00063718
 -0.00016872  0.00617393 -0.00037918  0.00671305][-0.00115955 -0.00012758 -0.00023058 -0.00041401 -0.00479989 -0.00070956
 -0.00015298  0.00671546 -0.00039906  0.00127773][-0.00096618 -0.00176734 -0.00078326 -0.00126002 -0.01198345 -0.00092991
 -0.00031138  0.01488908 -0.00362868  0.00674113][-0.00124187 -0.00068288 -0.00066055 -0.00128569 -0.00883486 -0.00119846
 -0.00039629  0.0098552  -0.00167513  0.00612053][-0.00248512 -0.00151723 -0.00076951 -0.00217644 -0.01400288 -0.00293287
 -0.00066078  0.01756716 -0.00350893  0.0104866 ][-0.00479531 -0.00152102 -0.00079704 -0.0026264  -0.0111648  -0.0051158
 -0.00074537  0.04447415 -0.00334364 -0.01436477][-0.00746116 -0.00114812 -0.00083151 -0.00365623 -0.02677476 -0.00762662
 -0.00119546  0.05384532 -0.00422828 -0.00092318][-0.00733906 -0.0005625  -0.00078174 -0.00334936 -0.01638088 -0.00454915
 -0.00095748  0.04682985 -0.00375147 -0.00915822][-0.00568944 -0.00047146 -0.00068753 -0.00354981 -0.01365364 -0.00352677
 -0.00074694  0.04804873 -0.00225303 -0.0174701 ][-0.00314765 -0.00107156 -0.00066126 -0.00290449 -0.01234017 -0.00395267
 -0.00066719  0.04736737 -0.00207819 -0.0205442 ][-0.00275232 -0.0026577  -0.00084354 -0.00267542 -0.01156077 -0.00640135
 -0.00064901  0.03527608 -0.00196399 -0.00577198][-0.00137577 -0.0001578  -0.00039499 -0.00178006 -0.00950643 -0.00380466
 -0.00031655  0.02327378 -0.00115897 -0.00477854][ -2.22071533e-03  -8.23166044e-05  -9.65602713e-04  -9.16293833e-04
  -3.38332627e-03  -2.69275518e-03  -2.01051110e-04   9.29473346e-03
  -1.25942380e-03   2.42675139e-03][ -3.17302496e-03  -5.34136319e-05  -5.84056778e-04  -4.24027344e-04
  -6.10118523e-03  -2.51598268e-03  -3.15574015e-04   1.19646911e-02
  -7.44715601e-04   1.94728918e-03][ -7.75980387e-03  -5.38001175e-05  -1.79067777e-03  -2.37411731e-04
  -4.50418535e-03  -2.07986193e-03  -2.70464694e-04   1.45061853e-02
  -7.62606330e-04   2.95262653e-03][ -1.70511290e-03  -6.41843484e-06  -3.33022719e-05  -2.80063745e-05
  -2.76286702e-04  -2.54251640e-04  -2.27627236e-05   3.01923378e-03
  -1.28216504e-04  -5.64876234e-04][ 0.  0.  0.  0.  0.  0.  0.  0.  0.  0.][ 0.  0.  0.  0.  0.  0.  0.  0.  0.  0.][ 0.  0.  0.  0.  0.  0.  0.  0.  0.  0.][ 0.  0.  0.  0.  0.  0.  0.  0.  0.  0.]