[ 0.06729159  0.00630071 -0.01237244  0.03225217  0.08139788  0.07980938
 -0.01457184 -0.009221    0.01965097  0.03422224 -0.01605585 -0.04751952
  0.02495491  0.05722787  0.08969065  0.09674441 -0.02398977 -0.06188824
 -0.04909499 -0.0823899  -0.07595298 -0.01354792  0.01440292  0.0102094
 -0.00521323 -0.01796448  0.07982959 -0.05262691 -0.08293197 -0.06658135
  0.02960619 -0.065171   -0.00365843 -0.02283905][ 0.03025926  0.02099232  0.00490517  0.02765734  0.05073178  0.04659647
  0.00650066  0.00947581 -0.04115667  0.04677324  0.02079404  0.00491185
  0.03506376  0.04233011  0.04882282  0.05199971 -0.00366666 -0.10341395
 -0.01951963 -0.03945883 -0.01966799  0.02186909  0.0244238   0.00026999
 -0.00649481 -0.02308599  0.05218147 -0.08746035 -0.0975646  -0.02020016
  0.03984227 -0.08220902 -0.01796232 -0.02453996][ 0.02009559  0.01973002  0.00735326  0.01840765  0.01903801  0.01285467
  0.00736157  0.00788388  0.00413255  0.04224645  0.01826851  0.00851122
  0.02518886  0.02943323  0.03552459  0.03931707  0.00783067 -0.07868327
 -0.00862301 -0.02266053 -0.00819693  0.01454591  0.01527713  0.00066433
 -0.00127615 -0.0218792   0.03612782 -0.05984828 -0.04899111 -0.01922046
  0.01837639 -0.08704919 -0.02084026 -0.030901  ][ 0.00618098  0.00196111  0.00646462  0.01034385  0.01237363  0.00894414
  0.00532403  0.00377454  0.01187721  0.0390782   0.01580649  0.01094231
  0.02257725  0.03360459  0.03120726  0.03883549  0.01127584 -0.07047704
  0.0020024  -0.01673812 -0.00360453  0.01403415  0.01488924  0.00119604
  0.00224792 -0.01569883  0.03290841 -0.05025672 -0.039146   -0.01550367
  0.00997316 -0.08420168 -0.02213873 -0.03005755][ 0.00407208  0.00026376  0.0019583   0.01416728  0.01438819  0.00728678
  0.00325231  0.00513516  0.01169432  0.03969238  0.0155616   0.00953659
  0.01944784  0.02937369  0.02800175  0.03542962  0.0162682  -0.06748391
  0.00908753 -0.01934964 -0.00643712  0.01397377  0.01241482 -0.00024015
  0.00241054 -0.00976174  0.03160628 -0.04613394 -0.03522125 -0.01620505
  0.00600801 -0.08246193 -0.01841521 -0.02932083][-0.00154798  0.00239407  0.00420642  0.00492108  0.00996039  0.0068981
  0.00321232  0.00501503  0.01282344  0.03718294  0.01463764  0.01048192
  0.01849363  0.0308137   0.02951786  0.03468677  0.01745783 -0.06516626
  0.01418306 -0.01626452 -0.00724564  0.01334516  0.01182556 -0.00115996
  0.00319767 -0.00675432  0.0309979  -0.04404268 -0.03572027 -0.01388974
  0.0081379  -0.08173161 -0.02049414 -0.03037329][-0.00177765  0.00024629  0.00223625  0.00681228  0.01037562  0.00927936
  0.0012001   0.00495706  0.01288156  0.03381563  0.00896228  0.01039898
  0.01877764  0.02844037  0.03130939  0.03283636  0.01746771 -0.062716
  0.01429465 -0.01838023 -0.0077686   0.01193726  0.01382669  0.00113013
  0.00261452 -0.00705538  0.03066034 -0.04280828 -0.03459186 -0.01107923
  0.00919724 -0.08218193 -0.01800074 -0.02729783][-0.00043753 -0.00058696  0.00428504  0.00631379  0.01163886  0.00656754
  0.00265431  0.00446174  0.01247316  0.03521959  0.00846658  0.00841885
  0.01841917  0.03041223  0.0291781   0.03258819  0.02104106 -0.06031372
  0.01171391 -0.01675527 -0.00666963  0.01037643  0.01229108  0.00094565
  0.00214855 -0.00727579  0.03141949 -0.04453263 -0.03351787 -0.01293299
  0.00745815 -0.08062685 -0.01545959 -0.02938261][-0.00088186 -0.00139071  0.00618441  0.00587154  0.01113067  0.00596809
  0.00215841  0.00411797  0.01065481  0.0349285   0.01179319  0.00933129
  0.01944709  0.02956652  0.02859048  0.03548517  0.02062863 -0.06214911
  0.01113822 -0.01789666 -0.00575275  0.00989459  0.01190334  0.00059385
  0.00167211 -0.00769561  0.03335481 -0.04331728 -0.03547917 -0.01475227
  0.00536814 -0.07775249 -0.01430432 -0.0284096 ][ 0.00105726 -0.00135845  0.00666617  0.00596534  0.00954028  0.00640084
  0.00053506  0.00589505  0.01087082  0.03634888  0.00814318  0.01262486
  0.01849899  0.02530316  0.0270516   0.03392763  0.02254596 -0.05932733
  0.01322574 -0.01732131 -0.00576855  0.01134938  0.01172081  0.00189896
  0.00298162 -0.00759441  0.03106256 -0.04324415 -0.03713059 -0.01329964
  0.00541894 -0.08134745 -0.01281376 -0.02982744][ 0.00069136 -0.00147802  0.00669031  0.00591954  0.00695448  0.00205043
  0.00281978  0.00217499  0.01350222  0.03845679  0.00958537  0.01201121
  0.01778541  0.02673382  0.02476327  0.03502026  0.02157155 -0.05851437
  0.01611887 -0.01797233 -0.00624508  0.01346494  0.01357293  0.00257868
  0.00101265 -0.00830709  0.03159696 -0.04229459 -0.03750964 -0.01243899
  0.00477605 -0.08003481 -0.01614202 -0.02891492][-0.00060851  0.00151081  0.00324498  0.00819993  0.01305488  0.00616324
  0.00218062 -0.00096157  0.01219589  0.03612566  0.01186622  0.01248162
  0.01820876  0.02522547  0.02181052  0.03743986  0.02231762 -0.06051179
  0.01491242 -0.0177053  -0.00690977  0.01258619  0.01457494 -0.00106504
  0.00068024 -0.00646872  0.03225989 -0.04326766 -0.03986566 -0.01185896
  0.005466   -0.0778238  -0.01693813 -0.02852086][ -1.63913815e-03  -2.24142338e-03   5.71347089e-03   9.02139892e-03
   1.26632767e-02   1.66687773e-03  -9.55196684e-05   1.58189562e-03
   1.15974611e-02   3.36970117e-02   8.91142183e-03   1.28733308e-02
   1.98984174e-02   2.77117130e-02   2.40562135e-02   3.62401717e-02
   1.92254069e-02  -5.76514356e-02   1.61395445e-02  -1.63154859e-02
  -5.11374200e-03   1.42608111e-02   1.47295186e-02  -8.80369101e-04
  -5.30308897e-04  -6.33396454e-03   3.34617892e-02  -4.55021374e-02
  -3.75810113e-02  -1.11350578e-02   4.76090336e-03  -7.92043627e-02
  -1.63642433e-02  -2.76224348e-02][-0.00195485  0.00218318  0.00444613  0.00310719  0.01183602  0.00304085
  0.00123892  0.00121235  0.01260591  0.03490793  0.00854904  0.01267373
  0.01979665  0.02756272  0.02569794  0.0342217   0.02488594 -0.05771443
  0.01129946 -0.01673328 -0.00776069  0.01258829  0.01479587 -0.00056577
 -0.00317089 -0.00639767  0.03347759 -0.04425683 -0.03797073 -0.00870096
  0.00441016 -0.0776337  -0.01527903 -0.02639875][-0.0004797  -0.00031171  0.00455904  0.00843709  0.01001558  0.0069388
  0.00109808 -0.0004573   0.00988944  0.03496573  0.00869738  0.0110059
  0.01981352  0.02747208  0.02366836  0.03425458  0.02665122 -0.05784434
  0.01108272 -0.02104705 -0.0067185   0.01256508  0.01448634  0.00074909
 -0.00214239 -0.00768066  0.03337843 -0.04296169 -0.03506568 -0.01305062
  0.005557   -0.07561714 -0.01551417 -0.0263945 ][ 0.00087609  0.00072418  0.00533014  0.00190214  0.01093844  0.01185137
 -0.00049766  0.00395506  0.00897697  0.03603825  0.00976211  0.01208316
  0.01948309  0.02471688  0.02665034  0.03362259  0.02410573 -0.05700072
  0.01255088 -0.02252231 -0.00578803  0.01086272  0.01161065  0.00037686
  0.0001026  -0.0067292   0.03292309 -0.04343347 -0.04029731 -0.01359217
  0.0036984  -0.07672829 -0.01433243 -0.02222014][ 0.00340445 -0.00124119 -0.00217717  0.00692443  0.01233948  0.00752026
  0.00111799  0.00297558  0.01270162  0.03690666  0.0090039   0.01291312
  0.01581321  0.02871656  0.02595634  0.03290286  0.02319251 -0.05639481
  0.01166124 -0.0170036  -0.00385648  0.0118735   0.01326462  0.00219118
  0.0003189  -0.00957653  0.03232692 -0.04721032 -0.03638372 -0.0127452
  0.00332282 -0.08141604 -0.0165293  -0.02281378][-0.00210064  0.00028437 -0.00059472  0.00639395  0.0094873   0.00471496
  0.00299403  0.00422816  0.01372769  0.03631032  0.01233176  0.01268642
  0.01677476  0.0256159   0.02520351  0.03403808  0.02410086 -0.05278035
  0.01697526 -0.01959376 -0.00151602  0.01133286  0.01223674  0.00578788
 -0.00203618 -0.00803393  0.03166926 -0.04579809 -0.03813778 -0.01306242
  0.00155899 -0.08342448 -0.01667176 -0.02470292][-0.0010317  -0.00363818  0.00423221  0.00550454  0.00916469  0.00628626
 -0.0017575   0.00719742  0.01044223  0.03717159  0.01151415  0.00910554
  0.02067861  0.02642465  0.02455852  0.03174637  0.02930475 -0.05158629
  0.01367302 -0.02011439 -0.00193569  0.00939059  0.01218143  0.00250155
 -0.00073894 -0.00597569  0.02922529 -0.04506049 -0.03441916 -0.01382168
  0.00220645 -0.08405662 -0.01471896 -0.02365459][-0.00288617 -0.00121238  0.00384555  0.00930853  0.01117489  0.00217414
  0.00041273  0.00543493  0.01045498  0.03612436  0.00768116  0.01075541
  0.02110705  0.02234265  0.02633715  0.03351848  0.02797741 -0.0529958
  0.00835089 -0.01569947 -0.00445774  0.01081683  0.01240876  0.00276335
 -0.00331874 -0.00474359  0.03154042 -0.04186702 -0.0325318  -0.01496517
  0.00371983 -0.08222564 -0.01603044 -0.02531552][-0.00278583  0.00159251  0.00083323  0.00914002  0.00903128  0.00396045
  0.00240699  0.00529283  0.01331962  0.03654971  0.007784    0.00928339
  0.01981926  0.022902    0.02620762  0.03213982  0.02797485 -0.04628016
  0.01069182 -0.01555302 -0.00406561  0.0110534   0.01010997  0.00329586
 -0.00469442 -0.00685099  0.03247509 -0.04160567 -0.03362904 -0.01754293
  0.00418953 -0.08183238 -0.01845903 -0.02675416][-0.0026983   0.00054987  0.00534537  0.00882029  0.00874589  0.0055618
  0.00214045  0.00532079  0.011837    0.03659763  0.01185459  0.00931759
  0.01970162  0.02288958  0.025945    0.03375216  0.02600197 -0.044942
  0.01075372 -0.01974807 -0.0041217   0.00976876  0.00994697  0.00462514
 -0.00335528 -0.00692194  0.03125367 -0.04459923 -0.0350455  -0.01745165
  0.00609258 -0.0834552  -0.01974544 -0.02473813][-0.00074646 -0.00221776  0.00791586  0.00859141  0.00835602  0.00727577
  0.00188861  0.00355563  0.01467058  0.03846471  0.01380871  0.00944826
  0.01813736  0.0254994   0.02577943  0.03222417  0.02785678 -0.03939361
  0.0106459  -0.01939868 -0.00475219  0.00863849  0.01058506  0.00220622
 -0.0056268  -0.00771903  0.03126459 -0.04736975 -0.03617559 -0.02008699
  0.00531899 -0.08690638 -0.02070392 -0.02103478][ 0.00025051 -0.0025215   0.00459274  0.01148356  0.00977767  0.00660207
  0.00324004  0.00289602  0.01271658  0.04100174  0.01120189  0.00842755
  0.01534209  0.02912086  0.02632011  0.03475024  0.02682555 -0.03749239
  0.00976344 -0.01989814 -0.0036854   0.01186163  0.00867528  0.0018189
 -0.007579   -0.00708407  0.03175721 -0.04634937 -0.03824271 -0.02356693
  0.0046546  -0.08381035 -0.02117052 -0.02167988][ 0.00022711 -0.00111368 -0.00014213  0.01071506  0.01392402  0.01104768
  0.00930236  0.00715948  0.01895001  0.03657523  0.01249378  0.00581149
  0.01890471  0.02450116  0.02744828  0.03643705  0.01874194 -0.03613644
  0.01062704 -0.01709491  0.00174117  0.01336024  0.01233042 -0.00504236
 -0.01264957 -0.00905498  0.03310558 -0.04741732 -0.03935572 -0.01730745
  0.00565407 -0.0946804  -0.0266088  -0.02245409][ 0.00238488 -0.00516062 -0.00635117  0.02624138  0.03059053  0.03655907
  0.02893045  0.0256289   0.02837115  0.04403295  0.00714707  0.0005675
  0.01435929  0.01947241  0.02521609  0.03353581  0.02088516 -0.02977448
  0.00086966 -0.02194887  0.00570776  0.01028596  0.01208972 -0.01530823
 -0.03374098 -0.01786225  0.03943767 -0.04894073 -0.03910662 -0.01761168
  0.0119636  -0.1068976  -0.04693365 -0.03464014][ 0.02932193  0.01048236  0.02590521  0.04275807  0.04291084  0.04401119
  0.05575847  0.06147964  0.06926877  0.05777313  0.01870098  0.00181154
  0.01062385 -0.0668141  -0.05133265  0.00202199  0.00034487  0.00124009
  0.03252382  0.01737312  0.0428898   0.02673612 -0.00907694 -0.07255424
 -0.09023751 -0.03888684  0.06592082 -0.01675757 -0.01024586  0.00846895
  0.04137099 -0.13771197 -0.11990028 -0.09617858][ 0.0728726   0.04349719  0.01255613  0.01685357 -0.00196458  0.0523352
  0.12387943  0.16377615  0.14314699  0.04778035 -0.01522219 -0.05224791
 -0.06264372 -0.10310364 -0.09071716 -0.07322553 -0.07444419  0.02932205
  0.07362372  0.03715346  0.01498258 -0.03251511 -0.04877622 -0.06197048
 -0.07246391 -0.00728892  0.08798461  0.04516438  0.03342105 -0.00069644
 -0.00651505 -0.11405231 -0.08741125 -0.09309082][ -1.19913447e-02  -1.24521174e-02  -1.15679131e-02  -4.04918909e-03
   1.10549311e-02   6.38104793e-05  -2.91088064e-02  -5.30916557e-02
  -1.28021240e-02   1.92672729e-02   1.00506100e-02  -3.57259216e-03
   8.89895257e-03   2.74876620e-02   2.64429989e-02   2.94394521e-02
   4.62113647e-02   1.63652161e-02  -1.14212147e-02  -2.36735368e-02
  -1.71277076e-02   4.26460522e-03   1.77729064e-02   3.87156901e-02
   2.12053767e-02   1.74047046e-02  -4.37811037e-02  -1.44115499e-02
  -1.11139180e-02  -8.51192152e-03  -4.53428895e-03  -3.20379044e-02
   1.04704980e-02   1.32836457e-04][-0.02079153 -0.01163917 -0.00784169 -0.00376897 -0.00347664 -0.00681471
 -0.00606371 -0.0197711  -0.01864904  0.01415939 -0.00357078 -0.00709833
 -0.00293059  0.00626407  0.01290656  0.01610275  0.03851587  0.03400841
  0.00845987 -0.02788912 -0.0138515  -0.00056905  0.00923672  0.02738337
  0.01492151  0.02260882  0.01568493 -0.00061729 -0.00608585 -0.00674818
 -0.01269187 -0.03914508  0.00693965 -0.00717773][-0.02068605 -0.01626291 -0.00922885 -0.00726255 -0.00202965 -0.00415531
 -0.01073002 -0.0100895  -0.00194363  0.01261737 -0.00707306 -0.00761753
 -0.00315071  0.00516045  0.01185932  0.00993782  0.03667536  0.03827136
  0.00895823 -0.02811441 -0.01169038  0.00033554  0.00704104  0.02196002
  0.00728334  0.01992266  0.02147494  0.00576777  0.00651563 -0.00491482
 -0.01240363 -0.05093433  0.00250929 -0.00800281][-0.01863033 -0.01298013 -0.0058412  -0.0063159  -0.00250042 -0.00275667
 -0.01310655 -0.00869979 -0.00080505  0.01287958 -0.00756504 -0.01072749
 -0.00188064  0.00709514  0.01146126  0.01005841  0.0362065   0.03663022
  0.01313719 -0.02605235 -0.01308279  0.00028646  0.00712062  0.02172615
  0.01033496  0.01860601  0.02136068 -0.00156798 -0.00379015 -0.0061374
 -0.01131861 -0.04859993  0.00328865 -0.0078334 ][ -1.96337703e-02  -1.45497987e-02  -4.72781435e-03  -5.38898803e-03
  -6.10355383e-05  -4.04578079e-03  -1.25522539e-02  -8.11702816e-03
   9.92756569e-04   1.36045773e-02  -8.83845522e-03  -9.97937656e-03
  -1.10227793e-03   8.16633536e-03   1.07848491e-02   1.09076930e-02
   3.52875782e-02   3.18077133e-02   1.20583302e-02  -2.55599629e-02
  -1.09781707e-02  -1.60738758e-03   4.13250601e-03   1.97371578e-02
   1.24203466e-02   1.93025357e-02   2.20199419e-02  -2.49668818e-03
  -3.09618235e-03  -6.94730078e-03  -1.21186483e-02  -4.61280896e-02
   2.47456692e-03  -5.76787817e-03][-0.01937024 -0.0160765  -0.0062178  -0.00669401 -0.00169492 -0.00357078
 -0.01207994 -0.00777949  0.00268382  0.01341507 -0.00640353 -0.01136017
 -0.00239829  0.00635066  0.00927981  0.01272886  0.0334376   0.03602359
  0.01415465 -0.02731198 -0.01224983 -0.00272955  0.0065355   0.02096381
  0.00953704  0.02033157  0.02183206  0.00049887 -0.0032002  -0.00688716
 -0.01084793 -0.04753584  0.0039023  -0.00726704][-0.01813745 -0.01465986 -0.00474472 -0.0052482   0.00153279 -0.0063521
 -0.0086653  -0.01001548  0.000879    0.01442415 -0.00863169 -0.00889101
 -0.00281194  0.00783936  0.00564917  0.01240896  0.02907155  0.03541438
  0.01586371 -0.02977431 -0.01134817 -0.00288309  0.00732988  0.02022842
  0.01042868  0.01986391  0.02351288  0.001748   -0.00357691 -0.0073083
 -0.01293504 -0.0460111   0.00355175 -0.00775191][-0.0146063  -0.01415222 -0.00722346 -0.00523241  0.00197528 -0.00407983
 -0.01072568 -0.01165535  0.0010089   0.01478057 -0.0064539  -0.00733742
 -0.00254151  0.005702    0.00742118  0.01072332  0.02928908  0.03537097
  0.01419158 -0.02975323 -0.01292934 -0.00287985  0.00870635  0.02014719
  0.01197571  0.01879869  0.02356255 -0.00113453 -0.00351968 -0.00860334
 -0.01266931 -0.04404355  0.0051375  -0.00924995][-0.01598753 -0.01128825 -0.00683006 -0.0047532   0.00092572 -0.00518554
 -0.01380924 -0.01107736 -0.00140184  0.01478931 -0.00792667 -0.00990105
 -0.00190158  0.00417726  0.00773264  0.01439773  0.02998766  0.03445148
  0.01036352 -0.02711061 -0.01531942 -0.00256073  0.00922732  0.01910775
  0.01249109  0.01913933  0.02281547 -0.00119754 -0.00190407 -0.00565996
 -0.00950579 -0.04566675  0.00508005 -0.00569913][-0.01589321 -0.0133009  -0.00881313 -0.00113798  0.00137715 -0.00458693
 -0.01750652 -0.01114129  0.00306004  0.01649115 -0.00761023 -0.00847662
 -0.00261996  0.00819456  0.00926507  0.01430637  0.02782619  0.03430465
  0.01254003 -0.03054651 -0.01507417 -0.00269373  0.00850163  0.02502068
  0.00809136  0.01982987  0.02271881 -0.00220165 -0.00298314 -0.00691032
 -0.01061699 -0.04498308  0.00405843 -0.0084896 ][-0.01353335 -0.00954862 -0.01053    -0.00223137  0.0025066  -0.0075346
 -0.01839897 -0.01383526  0.00229762  0.01544505 -0.01081138 -0.00962741
 -0.00043265  0.00859012  0.00977077  0.01483731  0.0285512   0.03472215
  0.01123379 -0.02956066 -0.01460512 -0.00106429  0.00915455  0.02268348
  0.0086865   0.01795109  0.02313979 -0.00025033 -0.00260435 -0.0064743
 -0.0104092  -0.04452462  0.00438932 -0.00798288][-0.01352127 -0.01437839 -0.00646755 -0.00567368  0.00053476 -0.01344915
 -0.01568159 -0.01020125 -0.00047205  0.01509142 -0.00708491 -0.00672387
 -0.00067661  0.00816542  0.01004355  0.01470442  0.02838854  0.03482216
  0.01493475 -0.02777583 -0.01593845 -0.00246307  0.00911944  0.02266782
  0.00745033  0.02024974  0.02204531 -0.00048945 -0.00273851 -0.00516872
 -0.01057129 -0.04481296  0.00429571 -0.00822477][-0.01370455 -0.00798444 -0.0057152  -0.00245822  0.00194352 -0.01622051
 -0.0119502  -0.01393001 -0.00054969  0.01544738 -0.01098353 -0.00821221
 -0.00223004  0.00857763  0.00975384  0.01475671  0.03041194  0.0348611
  0.01118104 -0.02709038 -0.01435676 -0.00115791  0.01057014  0.02122429
  0.00617294  0.02042223  0.02213984  0.00133931 -0.00098992 -0.00653212
 -0.01050048 -0.04428905  0.00288565 -0.01283231][-0.01348728 -0.01189683 -0.0075103  -0.00373202  0.00409035 -0.01215153
 -0.0102324  -0.01860262 -0.00183554  0.01388091 -0.01092733 -0.0065457
 -0.00234987  0.00861514  0.01155293  0.01460677  0.02847886  0.03485942
  0.01131591 -0.02719906 -0.01446733  0.00016414  0.0105018   0.0209811
  0.00752149  0.02155987  0.02207181  0.00129119 -0.00088223 -0.00483588
 -0.0104432  -0.04642258  0.00149086 -0.00946087][-0.01352764 -0.00928586 -0.01059593 -0.00360954  0.00215838 -0.00612682
 -0.01061861 -0.01699177 -0.00183936  0.01407334 -0.01081027 -0.00499726
 -0.00184819  0.00663855  0.00666708  0.0150115   0.02704135  0.03502821
  0.00958528 -0.02548868 -0.01457409  0.00048301  0.01059634  0.02102358
  0.00890661  0.02056364  0.02108224  0.0011346  -0.00249465 -0.00481446
 -0.00896119 -0.04679467  0.0029316  -0.00954634][-0.01702377 -0.00661654 -0.01329346 -0.00568871 -0.00179563 -0.00587902
 -0.01237528 -0.00860189 -0.00203061  0.01396928 -0.00697153 -0.00658414
 -0.00221782  0.00879904  0.00469841  0.01838587  0.02871589  0.03353786
  0.01123857 -0.02561905 -0.01173475  0.00040768  0.00917289  0.02099124
  0.00860371  0.02041402  0.0221462  -0.00019409 -0.00256621 -0.00642675
 -0.01182293 -0.04858313  0.00436077 -0.00941613][-0.01428327 -0.01057315 -0.00846072 -0.0046164  -0.0043526  -0.00468141
 -0.0108426  -0.00907342 -0.00368122  0.01509435 -0.00928744 -0.00564075
 -0.00251496  0.01032892  0.00796926  0.01457644  0.0284433   0.03183778
  0.01069584 -0.03059561 -0.01360046 -0.00254987  0.00906345  0.02099545
  0.00995063  0.01917587  0.02204386  0.00238781 -0.00159844 -0.00547005
 -0.01266761 -0.04343801  0.00383043 -0.0084654 ][-0.01611318 -0.00788374 -0.01181725 -0.00458612 -0.00036518 -0.00485174
 -0.01135927 -0.00917971 -0.0067986   0.0150651  -0.0058884  -0.00408605
 -0.00055901  0.00568169  0.00631204  0.01458782  0.02638875  0.03169525
  0.01272458 -0.02522586 -0.01413747 -0.00248849  0.00853659  0.02497242
  0.01073332  0.0176861   0.02188155  0.000688   -0.00151709 -0.00551952
 -0.0125589  -0.04389275  0.00241557 -0.01054045][-0.01638526 -0.00769853 -0.01478917 -0.00489263  0.00149585 -0.002927
 -0.01391029 -0.00943235 -0.00562891  0.01627798 -0.00625421 -0.00579806
 -0.00110278  0.00755497  0.00940611  0.01412416  0.02597054  0.03163253
  0.01222869 -0.02536446 -0.01140752 -0.00282439  0.00855712  0.02188923
  0.01060897  0.01887692  0.02072614  0.00012134 -0.001968   -0.00732622
 -0.00990048 -0.04625914  0.00347706 -0.00907822][-0.01700595 -0.00982005 -0.00829358 -0.00386743  0.00034947 -0.0043017
 -0.01068223 -0.01006332 -0.00758985  0.01580614 -0.00907003 -0.00480289
 -0.00468678  0.00743168  0.01051274  0.01525758  0.02345275  0.03121233
  0.01390387 -0.02437078 -0.01054972 -0.00181427  0.00710029  0.01998716
  0.0130328   0.02002635  0.0204074   0.00122126 -0.00400819 -0.00633738
 -0.01196962 -0.04532207  0.00308433 -0.0082303 ][-0.01734278 -0.01106745 -0.00338347 -0.00268725 -0.00796898 -0.00482728
 -0.01031424 -0.00860426 -0.00758911  0.01570126 -0.00560691 -0.00651247
 -0.00192723  0.00663265  0.00986407  0.0151066   0.02703226  0.03246907
  0.01329784 -0.02463497 -0.00876988 -0.00213287  0.00451966  0.02057304
  0.00876913  0.01988818  0.02042119  0.00109436 -0.00261009 -0.00655359
 -0.01201226 -0.045519    0.00292411 -0.00822936][-0.0162745  -0.01209236 -0.00464093 -0.00367941 -0.00532066 -0.00390995
 -0.00975577 -0.00610931 -0.00418758  0.01519243 -0.00642824 -0.00693254
 -0.00256901  0.00585175  0.01264329  0.01262688  0.02785343  0.03066606
  0.01462634 -0.02710027 -0.01211809 -0.00139648  0.00664831  0.02131243
  0.00991802  0.02058899  0.02006436  0.00212038 -0.00151012 -0.00840543
 -0.01098476 -0.04746868  0.00100844 -0.010237  ][ -1.52948684e-02  -1.06926208e-02  -5.82337553e-03  -2.49914664e-03
  -4.62958452e-03  -8.84731595e-03  -8.40619932e-03  -8.87937758e-03
  -6.65343898e-04   1.57759255e-02  -7.49251649e-03  -7.81889779e-03
  -1.91909886e-03   6.81696013e-03   8.45882262e-03   1.36357900e-02
   2.88107235e-02   3.00642921e-02   1.54399256e-02  -2.63149448e-02
  -1.29563868e-02  -7.57292592e-04   6.94988569e-03   2.33064486e-02
   9.05879386e-03   2.08792825e-02   2.05313729e-02  -9.25447456e-05
  -3.85752305e-03  -6.43611317e-03  -1.31734922e-02  -4.69335948e-02
   1.80997226e-03  -8.04795736e-03][-0.01561395 -0.00812094 -0.00630336 -0.00645861 -0.00228402 -0.00874338
 -0.01265989 -0.01232236 -0.00214959  0.01555862 -0.00983477 -0.0067734
  0.00018746  0.01005903  0.01140387  0.01286378  0.03039144  0.03230468
  0.01297739 -0.0240144  -0.01492694 -0.00137347  0.0077447   0.02248781
  0.01008741  0.02263951  0.02110226 -0.00048669 -0.00273852 -0.00966291
 -0.01211992 -0.04913874  0.0057246  -0.00980671][-0.01649615 -0.01412962 -0.00394521 -0.00704279 -0.00346882 -0.00763892
 -0.01373692 -0.01144365 -0.00302533  0.01470217 -0.00890298 -0.00759164
 -0.00173127  0.00753091  0.01092103  0.01220137  0.03555945  0.03194663
  0.01156838 -0.0269014  -0.01483116 -0.00333332  0.00416793  0.02634782
  0.01172178  0.02342885  0.01847972 -0.00475812 -0.00236787 -0.00922553
 -0.01302531 -0.04418455  0.00761912  0.00158539][ -1.65017270e-02  -1.04268858e-02  -8.63707863e-03  -8.30538672e-03
  -4.43264258e-03  -4.90948812e-03  -1.32623542e-02  -1.27382522e-02
  -3.73389607e-03   1.34669605e-02  -8.07180223e-03  -6.00632946e-03
  -2.58828443e-03   5.73173610e-03   9.32778776e-03   1.42786701e-02
   3.23042239e-02   3.94489085e-02   1.45225705e-02  -2.97908004e-02
  -1.45866505e-02  -4.24161933e-04   7.36356966e-03   2.41424444e-02
   1.08831385e-02   1.94646432e-02   1.78007031e-02  -1.16705622e-05
   3.97212085e-03  -7.58400066e-03  -8.86623720e-03  -4.73969920e-02
   3.14390819e-03  -7.57674451e-03][-0.0198326  -0.012356   -0.00586237 -0.00588244  0.0009936  -0.00313467
 -0.00530118 -0.0067773  -0.0005625   0.01412952 -0.01302308 -0.00428532
 -0.0043959   0.01025676  0.0122364   0.01582447  0.03304667  0.03243435
  0.01877381 -0.02738472 -0.0114873  -0.00308471  0.01134953  0.02364832
  0.01252215  0.01721451  0.01369693 -0.00201115 -0.00438084 -0.01410746
 -0.0165941  -0.04982838  0.00279298 -0.00862798][ 0.00358199  0.01418419  0.00573335 -0.00409737 -0.01241214  0.00266225
  0.04206997  0.04269216  0.04247533  0.03613664  0.00811972 -0.00204547
 -0.01542538 -0.01820585 -0.01272145 -0.01206151  0.02814412  0.0653595
  0.04082135  0.01659447  0.01570365 -0.00828317 -0.01393029 -0.0244517
 -0.0223105   0.00300901  0.01385612  0.01948128  0.02420812 -0.00183002
 -0.02458716 -0.08083778 -0.06569307 -0.10594035][ -1.14252832e-02  -1.70647970e-02  -1.27512561e-02   9.08240782e-05
   8.21982186e-03  -3.47930424e-03  -3.06497790e-02  -5.84313003e-02
  -1.67208313e-02   2.96833452e-02   7.68135701e-03  -4.53554421e-03
   4.32996297e-03   2.27668471e-02   2.40748538e-02   2.61238684e-02
   3.32164031e-02   1.88373068e-02   7.73915466e-03  -2.73538616e-02
  -1.67708249e-02   5.56888730e-04   1.60865529e-02   3.23175094e-02
   1.31640816e-02   1.49818896e-02   6.60413049e-04   2.44954602e-03
  -1.13391215e-02  -1.05710346e-02  -6.86661072e-03  -3.68918904e-02
   9.33675239e-03  -7.46593945e-03][-0.01956304 -0.00413911 -0.00820154 -0.00682517 -0.00151595 -0.00811756
 -0.00581089 -0.01105849 -0.00835236  0.00867372 -0.00727337 -0.00755112
 -0.00459462  0.00029183  0.00800528  0.00988805  0.03513352  0.03434704
  0.02672486 -0.01656072 -0.0085837   0.00302088  0.00362096  0.01947622
  0.0074045   0.02036601  0.01955742 -0.00077363  0.00801635  0.00014896
 -0.01500152 -0.05528626 -0.00347466 -0.01199186][-0.01740136 -0.01073035 -0.00950858 -0.00480727 -0.00173313 -0.00366506
 -0.00785226 -0.01108902  0.00299716  0.0142229  -0.00790607 -0.00767867
 -0.00336697  0.00709554  0.01135661  0.00978995  0.03781317  0.03235404
  0.01073764 -0.02618529 -0.01265015 -0.00104356  0.00367101  0.01939492
  0.01056678  0.01882949  0.02254428 -0.00348053 -0.00256675 -0.00638749
 -0.00982063 -0.0485581   0.00302941 -0.00797164][-0.01802382 -0.01327353 -0.00352774 -0.00429088 -0.00117883 -0.00305918
 -0.00916748 -0.0085866   0.00349259  0.01498684 -0.00706964 -0.01135534
 -0.00259003  0.00828822  0.01013376  0.00905064  0.03639639  0.03427198
  0.01162791 -0.02697356 -0.01146769  0.00100724  0.00341427  0.01746483
  0.01013926  0.01714749  0.02196154 -0.00240957 -0.00460663 -0.00692364
 -0.01171734 -0.04881518  0.00260241 -0.00694867][-0.01551632 -0.01163485 -0.00776756 -0.00147645  0.00378828 -0.00204516
 -0.00869272 -0.00963512  0.00416876  0.01445659 -0.0079199  -0.01169824
 -0.00244073  0.00778998  0.01011202  0.00374535  0.03592116  0.03403274
  0.0109515  -0.02592717 -0.01005471 -0.00297933  0.00289307  0.01035282
  0.01173819  0.0163964   0.02192176 -0.00036591 -0.00390519 -0.00605779
 -0.00951711 -0.04771639  0.00332728 -0.00624523][-0.0143484  -0.0109088  -0.00393116 -0.00048364  0.00101166 -0.0011114
 -0.00737799 -0.00688658  0.0022609   0.0155411  -0.00706936 -0.01307891
 -0.00070502  0.00747736  0.0090478  -0.0077879   0.03365781  0.03118677
  0.01639089 -0.0213507  -0.00730091 -0.00652336 -0.00293436  0.00626713
  0.01584498  0.01793845  0.02188351  0.0002678  -0.00279781 -0.00655086
 -0.00993118 -0.04663771  0.00297145 -0.00403159][ -1.11511222e-02  -6.22316821e-03  -7.75811531e-03  -8.71553084e-04
   4.62924375e-03   5.03989421e-04  -6.15334179e-03  -7.34365069e-03
   3.47463285e-03   1.57256204e-02  -3.10602139e-03  -1.43558358e-02
   1.14299034e-03   9.64484845e-03   8.40458213e-03  -2.24523836e-02
   3.39299515e-02   2.99670607e-02   1.42974114e-02  -2.16708515e-02
  -7.22176493e-03  -1.13650153e-02  -1.54199625e-03   7.85921621e-03
   1.45299799e-02   1.68738841e-02   2.09583166e-02  -2.38933537e-05
  -1.28718650e-03  -5.12368432e-03  -6.87658165e-03  -4.43754120e-02
   4.34815837e-03  -7.38830814e-03][ -1.05903564e-02  -8.49909116e-03  -4.12891718e-03   7.50389457e-05
   5.57385138e-03   3.38370075e-03  -7.65745391e-03  -6.68301891e-03
   4.00216477e-03   1.73187290e-02  -5.78386610e-03  -1.23598494e-02
   7.87501546e-04   6.19382826e-03   6.22605769e-03  -1.50853624e-02
   2.18738417e-02   3.00435792e-02   1.56847110e-02  -2.53928534e-02
  -7.40097315e-03  -2.21815212e-02   1.84540875e-03   1.14195244e-02
   1.39662907e-02   1.89421912e-02   2.28520785e-02   1.75939463e-03
  -1.15115373e-03  -3.38601103e-03  -5.39865047e-03  -4.36642111e-02
   4.56657439e-03  -7.15117737e-03][ -8.02855686e-03  -7.61000391e-03  -2.04950872e-03   4.15616511e-03
   1.09471676e-02   3.98181846e-05  -1.35693151e-02  -4.09310694e-03
   6.69004636e-03   1.95345937e-02  -1.27278990e-03  -9.74934582e-03
   4.02785403e-03   8.96839240e-03   9.14903357e-04   4.43964011e-03
  -4.79682310e-02   3.28587558e-02   1.94757097e-02  -2.54880455e-02
  -8.13543915e-03  -2.01434308e-02   5.90242303e-03   1.90438498e-02
   1.31944144e-02   2.16809143e-02   2.23949224e-02   1.10715508e-03
   1.00395322e-03  -1.66480635e-03  -6.89676730e-03  -4.25849464e-02
   7.98816611e-03  -5.11455101e-03][-0.00045036  0.00331842  0.01385427  0.01617896  0.03928012  0.02648407
 -0.19125568  0.00655857  0.01702611  0.02609366  0.00774356 -0.00150555
  0.00872275  0.0183931   0.00286903  0.02360189 -0.15692624  0.03958044
  0.032152   -0.01568236 -0.00734114 -0.00486971  0.01240418  0.02438435
  0.01676776  0.02441125  0.02737937  0.00594114  0.00817461  0.00191277
 -0.00132684 -0.03807205  0.01369273  0.00050482][ 0.00793728  0.01406914  0.02568485  0.01843446  0.05929781  0.03390832
 -0.33408924  0.01099052  0.0227561   0.02742922  0.01010321  0.00057605
  0.01239905  0.02413078  0.01551488  0.03382043 -0.17558835  0.04072289
  0.02779996 -0.01116325 -0.00730321  0.00822926  0.01672545  0.02468473
  0.01839217  0.027274    0.02843757  0.01200104  0.01258768  0.00518676
  0.00119275 -0.03383     0.01850902  0.00317867][ 0.00427397  0.01695325  0.04087776  0.0193115   0.04100821 -0.21416136
 -0.08599195 -0.00085384  0.01686273  0.02797879  0.00087292  0.00488217
  0.01270205  0.02588443  0.02473597  0.03041358 -0.118572    0.04210427
 -0.00489125 -0.01141345 -0.01058967  0.0097567   0.01766766  0.02157294
  0.01609116  0.02809526  0.03008975  0.01167377  0.01053015  0.00496039
  0.00085128 -0.03386927  0.01790968  0.00228245][ 0.00988623  0.02995396  0.04409488  0.02746886  0.03619046 -0.33865422
  0.03524338 -0.10343419 -0.010215    0.02959188 -0.0070134   0.00961266
  0.01462597  0.02798804  0.03078041  0.03216197 -0.00277134  0.04456463
 -0.03807326 -0.00906368 -0.01816411  0.01190862  0.01996545  0.01850899
  0.01644854  0.03005765  0.03023732  0.01384064  0.01226742  0.0093804
  0.00277121 -0.02700697  0.01835951 -0.0015129 ][ 0.00420965  0.02614655  0.02199679  0.02055113  0.02904641 -0.10672364
  0.02506816 -0.21724581 -0.05240165  0.02761102 -0.01506786  0.01008206
  0.01144691  0.0277615   0.01926175  0.02731001  0.03658455  0.04225855
 -0.02252261 -0.01263806 -0.02112507  0.00809978  0.01856134  0.01279182
  0.01200085  0.02816235  0.02989173  0.01111352  0.01194816  0.00751028
  0.00342095 -0.02348414  0.01405847 -0.01568547][-0.00635113  0.00273443 -0.00142758 -0.02111899  0.00898856 -0.0069187
  0.00249406 -0.0872226  -0.01693085  0.02129828 -0.0231409   0.00180442
  0.00342333  0.01623577  0.01247627  0.02179517  0.02841315  0.03472626
  0.01040798 -0.02503746 -0.02486456  0.00103865  0.01610171  0.01014036
  0.00778421  0.02542839  0.02587397  0.00502592  0.00359719  0.00081359
 -0.00414035 -0.03791697  0.00817117 -0.01370276][-0.00980747  0.00016146 -0.01330596 -0.05570027  0.00664939  0.00149264
 -0.0046321  -0.01102497 -0.00599426  0.01873784 -0.0157225  -0.0002234
  0.0003583   0.00935457  0.00731971  0.02129572  0.0255651   0.03365796
  0.01110153 -0.02392985 -0.01804774 -0.0033746   0.01242711  0.01362743
  0.00808853  0.02266027  0.02407873  0.00192192 -0.00012343 -0.00244744
 -0.00662171 -0.04602182  0.00652742 -0.00804812][-0.01150951 -0.00712248 -0.01929999 -0.00912152  0.00203585  0.00302346
 -0.00196873 -0.006131   -0.00406577  0.01999139 -0.00914097 -0.00194624
  0.00221184  0.00936096  0.00589047  0.02104275 -0.03595851  0.03623845
  0.0199612  -0.0240255  -0.01423977 -0.00638558  0.00868712  0.01827885
  0.01044196  0.02303214  0.02185302  0.00234465  0.00051005 -0.00209801
 -0.00781674 -0.04329668  0.00581417 -0.0065913 ][ -6.90752141e-03   7.03853418e-03  -6.12319441e-02   3.17927802e-03
   6.79760236e-03   1.43096221e-02   5.30840106e-03   2.34223100e-03
  -9.08339395e-05   2.55085946e-02   7.01098968e-03   3.58950566e-03
   6.33823907e-03   1.59093088e-02   6.19732923e-03   2.80502499e-02
  -1.40131386e-01   3.84010234e-02  -7.68214121e-03  -1.66906190e-02
  -6.02414004e-03  -1.16881554e-02   1.06057395e-02   2.24714883e-02
   1.39226732e-02   2.51923001e-02   2.56130096e-02   8.51835740e-03
   6.69312924e-03   2.90309530e-03  -2.54494096e-03  -4.30404397e-02
   1.01044263e-02   2.69939765e-05][-0.00382018  0.01952812 -0.07788533  0.01143963 -0.02760891  0.02164514
  0.01420169  0.00895239 -0.0492139   0.02870034  0.01836506  0.00606407
  0.01203793  0.01552975  0.01392101  0.03152098 -0.17217422  0.04002853
  0.01926997 -0.01516874 -0.00433297 -0.01500936  0.00679695  0.02599653
  0.01697804  0.0254906   0.02921406  0.00896758  0.00748953  0.00486097
 -0.00096115 -0.03802692  0.01382677  0.00337603][-0.00315346  0.01632134  0.02792957  0.01522023 -0.12672291  0.02352142
  0.03040236  0.02328912 -0.20238591  0.0292674   0.01942092  0.00574214
  0.01210752  0.01486255  0.02002611  0.0334089  -0.12928368  0.04070338
  0.0354409  -0.00547377  0.00113576 -0.00292286  0.00655127  0.02005278
  0.02180494  0.0261466   0.0286327   0.0119604   0.01082708  0.0058052
 -0.00030925 -0.03471192  0.01453231  0.00985088][-0.00461487  0.01121837  0.02621311  0.00985696 -0.10844903  0.01990531
  0.025015    0.01935918 -0.20560393  0.02720609  0.01486012  0.00363236
  0.00903756  0.01006466  0.01786694  0.02579414 -0.03722257  0.03474758
  0.0285017  -0.00778531 -0.00230935 -0.00146054 -0.00238584  0.01697841
  0.01958019  0.02470941  0.02657823  0.0107456   0.00618342  0.00444956
 -0.00385505 -0.03578987  0.011756    0.00521648][-0.01349066 -0.00360383  0.00760933 -0.00040397 -0.06441647  0.00065169
  0.00056697 -0.00150418 -0.01436589  0.01781066 -0.00170259 -0.00111243
  0.0008092   0.00906771  0.01059012  0.01801915  0.01959534  0.02999817
  0.01652977 -0.0208435  -0.00844845 -0.00342665  0.00033911  0.0108837
  0.01335044  0.01666277  0.02123564  0.00274336 -0.0022545  -0.00452632
 -0.00699553 -0.04788539  0.00486675 -0.00634952][-0.0134799  -0.00485205  0.00097128 -0.00117553 -0.0200923  -0.0049632
 -0.00712446 -0.00519214 -0.00133491  0.01512427 -0.0028816  -0.00405234
 -0.00234364  0.00773228  0.01044376  0.01440108  0.02609599  0.02635086
  0.01243187 -0.02532354 -0.00819463 -0.00250815  0.00344619  0.00811883
  0.01249295  0.01699557  0.02273061 -0.00130885 -0.0049801  -0.00583637
 -0.00926608 -0.04789411  0.0023412  -0.00687287][-0.01454407 -0.0058082  -0.00382051 -0.00054194 -0.00784247 -0.00435874
 -0.00970533 -0.00986451  0.00014936  0.01692393 -0.00851619 -0.00653537
 -0.00047798  0.00802095  0.01229729  0.01620991  0.02984694  0.02817534
  0.01258868 -0.02611104 -0.01199425 -0.00245274  0.00333251  0.01286667
  0.01138554  0.01685262  0.02180044  0.00081693 -0.00442814 -0.00688986
 -0.01036764 -0.05037028  0.00135966 -0.00799748][-0.01300502 -0.01090989 -0.00352766 -0.00261551 -0.00273674 -0.00698913
 -0.00659027 -0.00689764 -0.0004398   0.01551357 -0.00480029 -0.00726366
 -0.00302013  0.01004197  0.01032547  0.01426038  0.02942142  0.02931344
  0.01254791 -0.02909106 -0.01302276 -0.00024237  0.00575158  0.02057115
  0.00906727  0.01841099  0.02029952 -0.00207287 -0.0045132  -0.00990148
 -0.01344073 -0.04721267  0.00273754 -0.00996934][-0.01714706 -0.01186747 -0.00434753 -0.00931972 -0.00553624 -0.00987065
 -0.0113952  -0.01338136 -0.00142587  0.01464828 -0.00887556 -0.00595178
 -0.00074192  0.02104142  0.0167348   0.01454779  0.02523059  0.02631562
  0.01175646 -0.03469148 -0.01693983  0.00474356  0.00981471  0.0292437
  0.01060123  0.01703806  0.01556435 -0.00340283 -0.00408672 -0.01249959
 -0.01083724 -0.04066784  0.00873399 -0.00302868][-0.01472194 -0.0147807  -0.00132618  0.00266502  0.00802883  0.01128486
 -0.01031684 -0.02386147 -0.01095405  0.01522871 -0.01200618 -0.00946701
 -0.01347043 -0.00308265  0.00472843  0.02271779  0.05450741  0.03298384
  0.0132966  -0.0260311  -0.01098008 -0.00815453  0.00428432  0.01782768
  0.01244871  0.03290938  0.02330023 -0.00495926 -0.0001609  -0.0059788
 -0.01952448 -0.05390419 -0.00341572 -0.00911531][-0.01183076 -0.00574946 -0.0018152  -0.01150067 -0.01515332 -0.00973218
  0.02708502  0.0429998   0.02798445  0.01551257 -0.01039263 -0.00879679
 -0.0070926  -0.01058414 -0.00743685 -0.00232875  0.04261769  0.06811939
  0.0226352  -0.01309803 -0.00382783 -0.00785091 -0.00590682 -0.0094271
  0.00410616  0.02658971  0.03686118 -0.00179749  0.00425453 -0.00602592
 -0.02315714 -0.06035989 -0.0284673  -0.05643391][-0.0056133  -0.0117914  -0.01276264  0.00075447  0.01072674 -0.00483018
 -0.03031912 -0.05806679 -0.01761512  0.0255355   0.0041713  -0.00346894
  0.0029383   0.01984812  0.01749395  0.02115951  0.03427407  0.01351699
  0.0188771  -0.02711238 -0.01430529 -0.00067895  0.01368292  0.02959386
  0.01416836  0.01527861  0.00297966  0.00727971 -0.00775397 -0.00877744
 -0.00836987 -0.04056954  0.00542017 -0.00566442][-0.01915952 -0.0034767  -0.00443041 -0.00243631 -0.00223066 -0.00696548
 -0.00211404 -0.00295015 -0.00439916  0.01042891 -0.00784371 -0.01498198
 -0.00595603  0.00624341  0.01102026  0.00870942  0.03237504  0.04010712
  0.0121462  -0.02123721 -0.00950265 -0.00034769  0.00541271  0.01772639
  0.00884777  0.01675053  0.0276755  -0.00551552 -0.00030056 -0.0058827
 -0.01165249 -0.05309455  0.000687   -0.01365276][-0.01478787 -0.0115302  -0.00763102  0.00233259  0.00203939 -0.00184351
 -0.00820039 -0.00768856  0.00735175  0.01545232 -0.00550496 -0.01244078
 -0.00183602  0.00421576  0.01205981  0.00438471  0.03456266  0.03198381
  0.01215498 -0.02508045 -0.01089254 -0.00123943  0.00478232  0.01080866
  0.01258411  0.01690962  0.02035979 -0.00378949 -0.00595857 -0.00673153
 -0.01121525 -0.04853741  0.00147546 -0.00854977][ -9.04247898e-03  -8.43320972e-03   3.59003892e-03   2.27536041e-03
   7.24915690e-03   3.29446745e-03  -9.82018431e-04  -8.81655056e-04
   7.36665939e-03   2.49783135e-02   1.44974197e-04  -7.30211251e-03
   8.25572364e-03   1.56138139e-02   1.76763136e-02  -3.02818304e-02
   4.54724514e-02   3.77075813e-02   2.08646920e-02  -1.29088680e-02
   1.29738177e-02   7.54550716e-03  -6.23910818e-02  -1.32167123e-01
   3.79076259e-02   4.39395910e-03   3.24586594e-02   2.60816204e-03
   3.01059127e-03  -9.80541051e-04  -2.07854344e-03  -3.72330571e-02
   9.29248878e-03   2.16141836e-06][ 0.00155334  0.00103969  0.01388935  0.010958    0.01738779  0.01283076
  0.00644868  0.00743348  0.01742571  0.03850002  0.01120793 -0.01965302
  0.02800787  0.03049705  0.03528814 -0.19541726  0.05548317  0.02379801
  0.03410988 -0.00350005  0.02982801  0.01848612 -0.13729231 -0.13273892
  0.05381715 -0.04924918  0.04260609  0.01224496  0.01459923  0.00959652
  0.00862341 -0.02466857  0.01933511  0.00752385][ 0.01494507  0.01493856  0.02089947  0.01816982  0.01924144  0.0218382
  0.01585956  0.01958151  0.02468461  0.04452767  0.01700966 -0.119754
  0.04354481  0.04029235  0.03946311 -0.12302491  0.06275543 -0.05157654
  0.04240278  0.00546545  0.04141522 -0.09981038 -0.13321303 -0.13157971
  0.06277581 -0.06752144  0.03790889  0.01752758  0.01937613  0.01714287
  0.01929085 -0.00156295  0.02986529  0.01712081][ 0.02558005  0.02323957  0.02694296  0.03201307  0.03279838  0.02802597
  0.02144954  0.02658826  0.03087028  0.05002142  0.02612829 -0.13819882
  0.05558936  0.00576354 -0.05024161 -0.07095726  0.03674684 -0.07034656
  0.05377689  0.01109958  0.04920929 -0.14950116 -0.14466059 -0.12310999
  0.06617345 -0.05364915  0.03467599  0.0225732   0.02659811  0.02174504
  0.02684703  0.01157966  0.03439838  0.02023098][ 0.03815472  0.03483621  0.04295146  0.05275466  0.04751626  0.04137518
  0.03138037  0.03652214  0.03903498  0.05607344  0.04310412 -0.11267446
  0.06943663 -0.05970875 -0.19137864 -0.06902096 -0.15571075 -0.04923144
  0.07835198  0.01534782  0.05241272 -0.10353924 -0.11332495 -0.12240332
  0.06836082 -0.01880884  0.04217625  0.03013033  0.03422751  0.0309895
  0.0308619   0.01151986  0.04219846  0.02608402][ 0.03317975  0.02847586  0.03588314  0.04364037  0.04014655  0.03819868
  0.01996887  0.03090213  0.03651883  0.05470862  0.03199804 -0.14548444
  0.06125455 -0.07494803 -0.12286397 -0.16712184 -0.05227221  0.01822259
  0.06336633  0.01062374  0.04625804 -0.12739603 -0.13383304 -0.10292232
  0.05918929  0.03207506  0.04702945  0.02380371  0.03375346  0.02938336
  0.0310481   0.015071    0.04040797  0.0217344 ][ 0.03001947  0.0322371   0.03289877  0.04245465  0.06480274  0.04991396
 -0.18802249  0.0271071   0.03528172  0.04582966 -0.03020461 -0.07927827
  0.04623982 -0.02435226 -0.12241861 -0.08808732 -0.09257208  0.04943419
  0.04591811  0.00177887  0.01005398 -0.13675247  0.01568064  0.02958337
  0.0301845   0.03769823  0.03558937 -0.02502995  0.02873252  0.0234029
  0.02374526 -0.00096975  0.03384682  0.01525406][ 0.03872671  0.04620669  0.05807806  0.05028619  0.07135281 -0.02154615
 -0.23418911  0.0364795   0.04876129  0.05762131 -0.12115672  0.01216426
  0.05088633  0.04919548 -0.17082263  0.05916912 -0.09166149  0.0603608
 -0.08585514 -0.023293   -0.03774653 -0.16115427  0.04320509 -0.00814697
  0.03908633  0.04683611  0.04057497 -0.04041235  0.03801935  0.03226679
  0.03403773  0.01117221  0.04102136  0.03047586][ 0.04921736  0.07045358  0.08212177  0.06096143  0.05869033 -0.15569124
 -0.22986897 -0.04307575  0.06182526  0.06038161 -0.05107282  0.03653136
  0.05051439  0.06103532 -0.16370923  0.07423796 -0.03305977  0.06912746
 -0.08485193 -0.17273095 -0.16363539  0.01462971  0.07737536 -0.14269001
  0.012967    0.06335607  0.05412502  0.0437642   0.04912093  0.03957849
  0.03551508  0.0418263   0.05105154  0.02197852][ 0.06347094  0.088344    0.09028099  0.05414071  0.10219956 -0.21351698
 -0.09509965 -0.18465733 -0.09477094  0.07257608 -0.03057137  0.05333511
  0.05073406  0.07164987  0.03469856  0.08064466 -0.08369472  0.03101105
 -0.06754749 -0.20242803 -0.12119425  0.04480101  0.08107697 -0.11018734
 -0.08934049  0.0682496   0.06465942  0.0611118   0.06277044  0.05321909
  0.04638997  0.07249866  0.06103265 -0.11588665][  5.92140152e-02   8.93534678e-02   5.59873693e-02   1.49849955e-04
   9.05111834e-02  -1.91949765e-01   9.58939104e-02  -1.66065436e-01
  -1.23413515e-01   7.62544332e-02  -2.71976613e-02   5.77137084e-02
   5.23386623e-02   7.76949805e-02   7.10981152e-02   8.03960562e-02
  -1.35364632e-01  -3.14336144e-02  -5.76781601e-02  -2.06797381e-01
  -1.20413651e-01   4.56133416e-02   8.88849805e-02  -1.29264846e-01
  -1.14982972e-01   7.34868895e-02   6.15730124e-02   6.94451960e-02
   6.32118362e-02   5.55249866e-02   4.86885577e-02   7.90781468e-02
   6.29664087e-02  -1.50517474e-01][ 0.05292655  0.10989759 -0.07288548 -0.13112204  0.08617615  0.03191901
  0.08239034 -0.20474067 -0.15462545  0.06659272 -0.03260323  0.05872659
  0.04808021  0.07571226 -0.02322791  0.08021042  0.04265999 -0.04726944
 -0.03487417 -0.17266927 -0.12111514  0.04381401  0.08156404 -0.10497115
 -0.10527489  0.06793525  0.05399873  0.05994418  0.05818168  0.04898995
  0.04222247  0.06609158  0.05600877 -0.10866363][ 0.0349712   0.1057576  -0.24541465 -0.17371147  0.08059105  0.09843183
  0.07994271 -0.01078615 -0.09772232  0.06067552 -0.05099379  0.05450042
  0.06315406  0.07994279 -0.18770727  0.09773489 -0.15665802 -0.00318998
  0.07482427 -0.06975634 -0.16516604 -0.00716298  0.08494338 -0.14906853
 -0.03629111  0.07134742  0.05803654  0.05042404  0.05369379  0.04424662
  0.03545336  0.040106    0.05025847  0.03459271][-0.02998064 -0.00258056 -0.28162006 -0.18772308 -0.00185165  0.10504156
  0.08875253  0.07372877 -0.18851412  0.05862991 -0.10816018  0.0503619
  0.06146915  0.05827634 -0.1004715   0.08807725 -0.040534    0.04744906
  0.04920711  0.04351402 -0.0512021  -0.15068022  0.0490247  -0.02954382
  0.03543407  0.05622385  0.04824419  0.04079578  0.04379003  0.04352214
  0.02977305  0.02141698  0.04293096  0.0371986 ][-0.05674878 -0.14359542 -0.18850031 -0.13646466 -0.17890082  0.10724088
  0.09930836  0.08520299 -0.16619901  0.06327515  0.04033653  0.0541501
  0.0617597  -0.01462467 -0.08395357  0.08600971 -0.05279505  0.06829752
  0.01765813  0.03822998  0.02599462 -0.12879654 -0.05001854  0.04934176
  0.03872579  0.05093529  0.04807823  0.04165526  0.04383887  0.04882177
  0.03089853  0.01208569  0.04694226  0.04181026][-0.06065629  0.07014836 -0.0900747  -0.07412031 -0.21687229  0.07865588
  0.07528214  0.06528328 -0.10761325  0.06392019  0.06372691  0.05612012
  0.06470436 -0.06925606 -0.15191753  0.0906041  -0.0874266   0.0713027
 -0.00580305  0.03270034  0.04390012 -0.13568743 -0.15138616 -0.03810898
  0.05611961  0.05973743  0.04867413  0.03981164  0.04175151  0.0398813
  0.03299445  0.00923741  0.04592239  0.03844427][-0.00834232  0.05429284  0.07129828 -0.00759256 -0.24740046  0.05864221
  0.05624918  0.05434393 -0.15426416  0.05999409  0.06157204  0.04586509
  0.06224273 -0.06593384 -0.18221721  0.08539294 -0.04283203  0.06013528
 -0.02269732  0.03137311  0.04767904 -0.12848376 -0.10982762 -0.13461739
  0.06159893  0.03129028  0.05124684  0.03473631  0.03664329  0.03401765
  0.0261145   0.00413653  0.03989254  0.03545102][ 0.00103044  0.04673414  0.06368115  0.01677548 -0.23606841  0.04619845
  0.036855    0.04527501 -0.16290687  0.05348199  0.0452721   0.03914759
  0.05334339 -0.0136761   0.01627189  0.06860712 -0.06973831 -0.00300863
  0.05493661  0.02344847  0.04576034 -0.1618412  -0.1411469  -0.11919953
  0.06180204 -0.0306808   0.04687276  0.0291574   0.02949394  0.02642081
  0.02200252  0.001611    0.03617961  0.02790749][ 0.00404515  0.03106499  0.05422189  0.02672942 -0.23870699  0.03357366
  0.02842626  0.02996955  0.02299921  0.04880839  0.03335924  0.03141581
  0.04170604  0.02725643  0.04519215  0.05808426 -0.193569   -0.06502421
  0.05982379  0.01465014  0.0391789  -0.04559291 -0.11401197 -0.14771151
  0.06267381 -0.05099572  0.04207254  0.02404422  0.0244915   0.01995574
  0.01553677 -0.01248733  0.02804793  0.02077187][ 0.00025141  0.02077939  0.04080077  0.01168579 -0.24777286  0.0212921
  0.03505658  0.01793122  0.02792809  0.03930985  0.0188289   0.01981539
  0.02875673  0.02803593  0.0293034   0.04515305  0.02680716 -0.06935886
  0.03587075  0.00732364  0.03597725  0.01886772 -0.16437034 -0.12768377
  0.05459428 -0.04540978  0.03479456  0.01626737  0.01272598  0.00903805
  0.0077338  -0.02199104  0.01984372  0.01181377][ -6.75240371e-03   2.57363748e-05   6.73135918e-03   2.76245072e-03
  -3.85758813e-03   9.02023864e-04  -8.37123964e-04  -5.85199693e-04
   7.55497917e-03   2.61441621e-02   3.64870132e-04   4.35217322e-03
   1.58290047e-02   1.42428067e-02   1.96724921e-02   2.66848514e-02
   3.32620476e-02  -3.25689785e-02   1.99485966e-02  -8.03637966e-03
   1.23073949e-02   7.92120315e-03   1.55749946e-02  -1.76653469e-01
   4.35217209e-02  -2.81139439e-02   2.97618520e-02   5.99640354e-03
   8.98860005e-04  -2.90770777e-03  -5.79207444e-03  -3.75492806e-02
   9.84884938e-03  -6.54682459e-04][-0.01303925 -0.00660235 -0.00231252 -0.00070776 -0.00101117 -0.00523551
 -0.00706519 -0.00685974 -0.00018796  0.0175675  -0.00543663 -0.00323614
 -0.00012907  0.00875395  0.01272642  0.0169009   0.02988935  0.01743068
  0.01506649 -0.0199327  -0.0077358   0.00059391  0.00945377 -0.00456789
  0.01416756  0.00203673  0.01883739 -0.00073553 -0.00289918 -0.00832342
 -0.01172809 -0.04875585  0.00286435 -0.00978726][-0.01481535 -0.01076933 -0.00374861 -0.00454569  0.00105741 -0.00930166
 -0.00479725 -0.01026927 -0.0004219   0.01588235 -0.00733785 -0.0061326
  0.00109425  0.01552239  0.01525787  0.0122722   0.03118469  0.02676236
  0.0104632  -0.02460654 -0.01311889  0.000498    0.00947812  0.02226984
  0.00656756  0.01362896  0.01751727 -0.00200068 -0.00723639 -0.00972464
 -0.01184867 -0.04545871  0.00150672 -0.01482916][-0.01363761 -0.00537565 -0.00296836  0.00429339  0.01053491  0.00572481
 -0.01809821 -0.02595258 -0.01236674  0.0135156  -0.00892755 -0.00690102
 -0.01066691  0.00021891  0.01026118  0.02240923  0.04303023  0.01399347
  0.01344168 -0.02427496 -0.01078426 -0.0020082   0.00761707  0.02425948
  0.01696321  0.02763669  0.00758493 -0.00479226 -0.00112751 -0.00846122
 -0.01793274 -0.05287854  0.0043704   0.00129909][-0.01337616 -0.00700563 -0.00325439 -0.01084857 -0.016394   -0.00924401
  0.02980277  0.04019422  0.02260039  0.01429489 -0.01538043 -0.01207673
 -0.00767077 -0.00788128 -0.00711725 -0.00227016  0.04369491  0.06852373
  0.01485803 -0.01539846 -0.00744879 -0.00784157 -0.00677189 -0.00769667
  0.00435112  0.03024733  0.05120667 -0.00342239  0.00095097 -0.01030286
 -0.02189451 -0.05950481 -0.02122094 -0.04670275][-0.00767703 -0.00857637 -0.00951967  0.00373128  0.0117376  -0.00582441
 -0.02904741 -0.05868852 -0.01656448  0.02675339  0.00155856 -0.00304674
  0.00035092  0.01588612  0.01748754  0.01443973  0.03543769  0.01362586
  0.02466286 -0.02498221 -0.01262384  0.00207719  0.01254136  0.02995729
  0.01271278  0.01442943  0.00199877  0.00705325 -0.00467745 -0.0090617
 -0.0083117  -0.04421007  0.00384013 -0.00747015][-0.01937537 -0.0024695  -0.00324296 -0.00126927 -0.00154557 -0.00572994
 -0.00107023  0.00309342 -0.00080357  0.01200029 -0.00793166 -0.014877
 -0.004065    0.00392641  0.00946783  0.00379638  0.03419259  0.03478957
  0.00786684 -0.02572308 -0.00930488 -0.00038229  0.00812936  0.01788497
  0.00779291  0.01566614  0.02475112 -0.00694965 -0.00028464 -0.00600571
 -0.01293336 -0.05129045  0.00065266 -0.00875638][-0.01335742 -0.01127916  0.0010988  -0.00194744  0.00471922  0.00076102
 -0.00350965 -0.00809844  0.00700948  0.01715272 -0.00400531 -0.01466704
 -0.00044898  0.00940254  0.01420049 -0.03507921  0.03806702  0.02532848
  0.01352472 -0.02401442 -0.00821958  0.00343321  0.00533155  0.01339813
  0.01391054  0.00362829  0.02226788 -0.0015878  -0.00143399 -0.00680316
 -0.00852874 -0.04667865  0.00557695 -0.00915203][ 0.00485747  0.00746484  0.01394748  0.00605889  0.01891946  0.01568517
  0.00904322  0.01085457  0.01890745  0.03818574  0.01132404 -0.08851212
  0.03390279  0.03250345  0.04008117 -0.16958563  0.05595547 -0.04960424
  0.03444382 -0.00233469  0.02260176  0.02185952 -0.03736646 -0.08584466
  0.04646462 -0.10125028  0.03534654  0.01197206  0.01533084  0.01039581
  0.00974398 -0.01921129  0.02074836  0.00711085][ 0.01639696  0.01807057  0.02494489 -0.03142634  0.02532495  0.02441599
  0.01638731  0.02258376  0.0247576   0.04467099  0.01916814 -0.06403434
  0.03173807 -0.00935513  0.040248   -0.08778534  0.06156344 -0.05743825
  0.04403767  0.00816457  0.04188551  0.02732468 -0.11289001 -0.13374765
  0.07047662 -0.09736608 -0.07994734  0.01834588  0.02028629  0.01617316
  0.01896196 -0.00768596  0.02793832  0.0178111 ][ 0.03410786  0.03069304  0.03680965  0.02767002  0.03507725  0.04013671
  0.03071556  0.0363549   0.03438222  0.05254052  0.04139981 -0.07913251
 -0.06005693 -0.19236011 -0.07158796 -0.16135812  0.07308138 -0.08443703
  0.04942078  0.00920574  0.03919039 -0.01108114 -0.06277249  0.01451918
  0.05860434 -0.01272682 -0.09006756  0.02721282  0.02928006  0.02838443
  0.02973534  0.0086796   0.03538232  0.02299676][ 0.04126813  0.04119844  0.04390764  0.04623362  0.04689175  0.04908346
  0.03615287  0.04375946  0.04191138  0.05816197  0.05425121 -0.19008078
 -0.13895483 -0.0182869  -0.1226843   0.01876834 -0.12106052 -0.09300283
  0.01185177  0.01717859  0.04157719 -0.12361889  0.02963775 -0.02999121
  0.06120704 -0.01905156 -0.0486617   0.03196069  0.03443347  0.03350865
  0.03102918  0.02351199  0.04174273  0.02616621][ 0.04705998  0.05412862  0.00157859  0.05110924  0.05062263  0.05479813
  0.04028198  0.04635884  0.04587373  0.06393349  0.04376333 -0.16533898
 -0.09923528 -0.05775417 -0.13617061 -0.02211021 -0.03947612 -0.07306674
  0.03394923  0.02486398  0.06236333 -0.04547642 -0.09187837 -0.11152435
  0.08260025 -0.06251135 -0.0673886   0.03603044  0.03978906  0.03894786
  0.0417505   0.03002236  0.04775587  0.03434976][ 0.05714253  0.10826366 -0.21215888  0.04830942  0.07923746  0.08365699
  0.05582845  0.05615591  0.05948704  0.07180022 -0.10686757 -0.11980268
 -0.11609177 -0.03987711 -0.08326689 -0.14109419 -0.11145065 -0.01612458
  0.08727678  0.04224655  0.05792786  0.04026504 -0.08672528 -0.02899428
  0.0794178  -0.07154332 -0.10262867  0.03752897  0.05080898  0.0459661
  0.04572978  0.03370369  0.05487277  0.0409999 ][ 0.04810147  0.13035453 -0.32493488 -0.03805805  0.06561868  0.08862576
  0.00331551  0.05894512  0.05684029  0.06011266 -0.0540341  -0.02995173
 -0.10031358 -0.02076951 -0.01818278 -0.06924418 -0.13431665 -0.08410469
  0.05799419  0.02550746  0.03009952 -0.13127967  0.03521014  0.04491311
  0.04718264  0.05017095 -0.01012866 -0.01289053  0.04268158  0.04151072
  0.03806359  0.02056544  0.04799179  0.03440385][ 0.09504899  0.18471763 -0.27315301 -0.09803589 -0.12600229  0.09297468
 -0.15766496  0.10369057  0.10134977  0.08546254 -0.16714909 -0.04344505
  0.06563839 -0.13403882 -0.12384777 -0.06564243 -0.02246653  0.04465938
 -0.00208481 -0.11236572  0.02106951 -0.04461924  0.06426598  0.03366812
  0.05371129  0.06967094  0.0591649  -0.14867007  0.07716981  0.07175923
  0.07992483  0.06767948  0.07811221  0.06944743][ 0.10643017  0.18315763 -0.2425135  -0.17193136 -0.11242803 -0.12281873
 -0.11471938  0.1218942   0.11639381  0.09746432 -0.09994158  0.02642064
  0.09641552 -0.01326436 -0.04146024  0.11239045 -0.06761102 -0.04633574
 -0.04006021 -0.12355644 -0.0871058   0.07011025  0.10171167 -0.08863866
 -0.0423087   0.0866529   0.04557376 -0.13684193  0.0932235   0.08443757
  0.09373933  0.1074232   0.09181496 -0.08371819][ 0.07546347  0.09455123 -0.20140803 -0.11717264 -0.11819991 -0.11357247
 -0.06278254  0.10776713 -0.00808424  0.09599664 -0.13726075  0.07542673
  0.0867614   0.10954886 -0.12461113  0.12455779 -0.06521571  0.01892408
 -0.0444733  -0.04415261 -0.0899811   0.08154377  0.099721   -0.08163579
 -0.05741786  0.0901212  -0.05811956 -0.05518522  0.08793365  0.08216801
  0.08225574  0.09653948  0.08581269 -0.11582003][-0.00809537 -0.06352607 -0.15078763 -0.13603983 -0.07872873 -0.14079806
  0.1581764  -0.06912717 -0.0870813   0.08701124 -0.1453086   0.07862348
  0.07790861  0.10402332 -0.07716755  0.10954999 -0.01742039 -0.05721975
 -0.06987057  0.0418222   0.02861299  0.07180489  0.06559884  0.0518012
 -0.00748496  0.07308706 -0.0692755   0.01430974  0.06948049  0.07934526
  0.06197422  0.07051048  0.07639568 -0.14210462][-0.1373886  -0.16025285 -0.14309725 -0.10013954 -0.14083977  0.14156861
  0.17623733 -0.11340675 -0.08766097  0.09794179 -0.09121563  0.1028781
  0.08686844  0.12873169 -0.06620979  0.12746676 -0.11897195 -0.03421071
 -0.02143641 -0.13122579 -0.07799043  0.08345801  0.09816707 -0.04776059
 -0.03833114  0.08851985 -0.02449692  0.06576578  0.06786675  0.09909492
  0.07927327  0.11425453  0.09581826 -0.11927605][-0.14781996 -0.11591185 -0.15070382 -0.09585596 -0.13390061  0.15947931
  0.1725399  -0.14163002 -0.09374306  0.09495268 -0.12366008  0.11278664
  0.08302364  0.01356451 -0.09135007  0.13562699  0.03297055 -0.02312208
  0.03617384 -0.13564827 -0.09857075  0.0501034   0.10789517 -0.09821566
 -0.06880566  0.09699345 -0.04542914  0.08858177  0.09216899  0.09801046
  0.08070095  0.12430218  0.09228252 -0.10778998][-0.16722088 -0.16087657 -0.01184373 -0.13364753 -0.16192553  0.09733044
  0.10625765  0.04271305 -0.10275559  0.08369072 -0.12905036  0.10059209
 -0.03119259 -0.09556392 -0.0726284   0.12633765 -0.07188013 -0.006518
  0.02866177  0.04788262  0.02268119 -0.08969084  0.06909571  0.01489051
  0.01576638  0.0873146  -0.08370531  0.07113856  0.07367694  0.0798392
  0.06139349  0.06052183  0.07316398  0.05555101][-0.17917441 -0.1669315   0.12358076 -0.18308861 -0.02417314 -0.04497898
 -0.10579079  0.09340795  0.0086129   0.06916174 -0.05799348  0.08064513
 -0.14014739 -0.01424406  0.00162352  0.10227797 -0.10842867 -0.03050745
  0.00532858  0.06383193  0.0394237  -0.07943955 -0.03881575  0.06097337
  0.04994119  0.06853828  0.04145131  0.05660646  0.0596503   0.06339435
  0.04694813  0.0360569   0.05904333  0.04321596][-0.18815546  0.0773756   0.11714448 -0.17887604  0.07622716 -0.08381387
 -0.25744138  0.08201158  0.03926966  0.06590731 -0.0213478   0.07581205
 -0.13745649 -0.06693911 -0.1363046   0.10105901 -0.05396067  0.01507138
 -0.02996798  0.05900456  0.05319243  0.04048156 -0.12780474 -0.00975343
  0.06086784  0.04328658  0.05616623  0.05327192  0.05751866  0.05151279
  0.04490935  0.02583877  0.05452403  0.04136862][-0.18237759  0.10298012  0.10186422 -0.17054558  0.0880005   0.01484077
 -0.24350885  0.08295207  0.04122399  0.07878408  0.08716887  0.08442971
 -0.1282992  -0.03966607 -0.06941892  0.10980983 -0.10368568 -0.06131767
 -0.0320508   0.05592618  0.06675313 -0.09895064 -0.05718352 -0.10398849
  0.08577759 -0.06757936 -0.01183677  0.05678388  0.06058183  0.05541535
  0.05055319  0.03669229  0.06073506  0.04913649][-0.19803505  0.09553722  0.10073097 -0.19920452  0.05976278  0.08416819
 -0.23987659  0.07612219  0.05033623  0.06872856  0.0845341   0.07442754
 -0.04502925 -0.03040518 -0.13490522  0.10305238 -0.11913723 -0.02700042
  0.01776577  0.04237901  0.05025443 -0.11002928  0.03936361 -0.0571368
  0.07455571 -0.09061607 -0.08900589  0.05111402  0.05672052  0.04844762
  0.04211303  0.02467186  0.05392844  0.04166731][-0.21447551  0.07590631  0.07757233 -0.20409806  0.0067916   0.06293844
 -0.12133339  0.06130068  0.0444207   0.06010751  0.05652107  0.06333626
  0.05012911 -0.175564    0.02593037  0.07433667 -0.08254112 -0.09567748
  0.02671984  0.02887616  0.04219005  0.01665803 -0.12492428  0.04228842
  0.05969323 -0.01364222 -0.08347094  0.04124469  0.04386214  0.03625839
  0.03456986  0.00818927  0.04411775  0.03176813][-0.0224679   0.03641535  0.04286774 -0.05768781  0.00524625  0.02787282
  0.01794693  0.03079966  0.02925216  0.0582084   0.0385891   0.03964337
  0.0456024  -0.01415666  0.05056436  0.0618989  -0.161902   -0.09721955
 -0.08052974  0.01674341  0.04633479  0.03719154 -0.12640342 -0.12057131
  0.07376415 -0.05479039 -0.08363171  0.03065661  0.02914677  0.02639931
  0.02460181 -0.01310068  0.03326409  0.02945126][-0.00107671  0.01102479  0.01680474  0.00262824  0.00828759  0.01063945
  0.00572768  0.00915333  0.0179028   0.04012845  0.00983166  0.01437303
  0.03262475  0.02508194  0.03161101  0.04052076  0.03992774 -0.07596679
 -0.04142821  0.00156118  0.0235143   0.01645527  0.0285586  -0.13499923
  0.05971621 -0.10449725 -0.1194393   0.01209403  0.01084472  0.00859389
  0.00636438 -0.02934756  0.01267192  0.01011259][-0.00444035  0.00413137  0.00704317  0.00684423  0.00579978  0.00424705
 -0.00074381  0.0033408   0.00835647  0.02848883  0.00416227  0.00690904
  0.02308158  0.01900521  0.02545143  0.03063293  0.04092789 -0.11834437
  0.01813617 -0.01290856  0.00327956  0.01046764  0.02497706  0.01915342
  0.03428697 -0.09707507 -0.0748795   0.00562998  0.00679463 -0.00056037
 -0.00244921 -0.03702238  0.00882154 -0.0015454 ][-0.01175954 -0.00738293 -0.00340682 -0.00127461 -0.00087703 -0.00427345
 -0.00435029 -0.00563861  0.00297579  0.01789473 -0.00877895 -0.00533175
  0.00138224  0.01755405  0.01441574  0.01718918  0.03412114 -0.02006725
  0.01098126 -0.02356274 -0.00997586  0.00058862  0.00972829  0.02314307
  0.00993248  0.01270628  0.01638927 -0.0016062  -0.00349719 -0.01066101
 -0.01279083 -0.0452204   0.00196111 -0.01050778][-0.01185546 -0.00607685 -0.00041753  0.00400899  0.00853656  0.00558945
 -0.01796087 -0.02267655 -0.01082466  0.01395307 -0.00900018 -0.00574724
 -0.00566546  0.00144121  0.00828467  0.02429889  0.03922704  0.01401737
  0.01602404 -0.02394339 -0.01239314 -0.00073869  0.00879533  0.02762722
  0.01847727  0.01935446  0.00675627 -0.00621408 -0.00715671 -0.00969837
 -0.01469944 -0.05257149  0.00620203 -0.00495375][-0.01477779 -0.00433894 -0.00371709 -0.00863652 -0.01182145 -0.00662241
  0.02573053  0.03717638  0.01995673  0.01297552 -0.01663575 -0.01191887
 -0.0092538  -0.00956214 -0.00874213 -0.00044552  0.04591686  0.06591537
  0.011184   -0.01893577 -0.00886129 -0.00528188 -0.00334602 -0.00511903
  0.00164691  0.03236062  0.05131304 -0.00603568  0.00131249 -0.01009935
 -0.02155081 -0.05547036 -0.01961786 -0.04469798][-0.00947999 -0.00933328 -0.00755225  0.00166574  0.00882671 -0.00483022
 -0.02354244 -0.05712671 -0.01683334  0.02261002  0.00717843 -0.00578386
  0.00027933  0.01649028  0.01731207  0.01454068  0.0376831   0.01244059
  0.01892175 -0.02110761 -0.01379882  0.0022474   0.01195467  0.02727486
  0.01455654  0.01594585  0.00223627  0.00442798 -0.00146417 -0.00588136
 -0.01069168 -0.04572614  0.00533482 -0.00877522][ -1.63757143e-02  -7.86864227e-03  -3.11539283e-03  -4.52260424e-05
  -1.91569406e-03  -2.11617227e-03  -3.82698604e-03   2.71864492e-03
   1.60847829e-04   1.28056173e-02  -1.07383337e-02  -1.85493767e-02
  -6.50353589e-03   7.84891921e-03   1.24365151e-02   1.43648850e-03
   3.51776628e-02   3.14483097e-02   8.76529572e-03  -2.46997527e-02
  -1.01556079e-02  -8.84786315e-04   8.74052417e-03   1.83644181e-02
   9.94880205e-03   1.63118364e-02   2.42949448e-02  -6.36980899e-03
  -4.02923460e-03  -6.48084224e-03  -1.06741940e-02  -4.81685295e-02
   1.28134267e-04  -8.06913064e-03][-0.00831369 -0.00040476  0.00092399 -0.00038994  0.0117053   0.00411503
 -0.00054055 -0.00104885  0.01058998  0.02139296 -0.00026016 -0.05176347
 -0.00120043  0.01149273  0.02532924 -0.11160465  0.041907   -0.00872576
  0.01656701 -0.01957373 -0.0058859   0.00816191  0.0099901   0.02330749
  0.01622295  0.01860724  0.02331445  0.00219494  0.00385022 -0.00100863
 -0.00512083 -0.0388922   0.00860764 -0.00354665][ 0.00184684  0.00729993  0.01332952 -0.00569867  0.01462317  0.01278366
  0.00735571  0.01122839  0.01529727  0.02788865  0.00931959 -0.0908784
 -0.01841412 -0.02097211  0.03448035 -0.12172059  0.04778983 -0.08645642
  0.02650353 -0.01308308  0.0036696   0.01590121  0.01491411  0.01284633
  0.02585357  0.00786509  0.02784397  0.00818908  0.01045516  0.00446905
  0.00364217 -0.02495086  0.01514665  0.00163181][ 0.02429858  0.04702631  0.04701366 -0.18460883  0.03657437  0.0433983
  0.03198372  0.04699359  0.03394747  0.04983099  0.04180165 -0.146112
 -0.10849886 -0.15498732  0.04768539 -0.04495132  0.08048981 -0.05290142
  0.05717076  0.01804863  0.04626761  0.04564778 -0.0612353  -0.1060886
  0.06446131 -0.0982332   0.00816598  0.02701838  0.02805712  0.03029105
  0.02773251  0.01460011  0.03537143  0.02374037][  7.04015104e-05   5.84308982e-02   5.89497561e-02  -2.19098495e-01
   4.56381061e-02   5.10501380e-02   3.61735819e-02   5.19420554e-02
   3.90540641e-02   4.95592301e-02   4.56147380e-02  -2.76430495e-02
  -1.16879606e-02  -1.24532172e-01  -1.64228097e-01  -7.16687996e-02
   6.55897879e-02  -9.58892822e-02   9.69303843e-03   1.41628971e-02
   3.92111344e-02   4.24921684e-02  -6.57039325e-02   1.16863741e-02
   5.99482069e-02   6.98465828e-03  -1.04433933e-01   3.06746889e-02
   3.52870047e-02   3.13315534e-02   2.81767845e-02   7.20390758e-03
   3.82087615e-02   2.77517860e-02][ 0.01313544  0.06341906  0.06543555 -0.16417988  0.05810286  0.06593749
  0.048545    0.06193749  0.04738498  0.0666932   0.06095736 -0.05054882
 -0.10577241 -0.15384449 -0.07236038 -0.04430941 -0.12485832 -0.10903761
 -0.09651949  0.0255623   0.04372292 -0.054464    0.02790858 -0.02581322
  0.06254008  0.01054561  0.0023428   0.04221683  0.04609857  0.04393283
  0.0385652   0.02185713  0.0481627   0.03670404][ 0.02684586  0.03042267  0.07476387 -0.21855947  0.07302763  0.07615325
  0.06033683  0.07757788  0.06148101  0.07687243 -0.06030799 -0.16504466
 -0.09022768  0.03917181 -0.00340581 -0.0821077  -0.05719758 -0.08756921
 -0.09115842  0.05381237  0.06710932 -0.04070799 -0.10207303 -0.05357231
  0.08768735 -0.07456704 -0.05097641  0.05062882  0.05597613  0.055008
  0.0525085   0.04634696  0.06058852  0.05115608][-0.01147365 -0.09767674 -0.03252955 -0.19070042  0.06641981  0.07837333
  0.05178544  0.0688404   0.05387925  0.05162069 -0.06001707 -0.02254749
 -0.14353953  0.04093144 -0.14385278  0.0053773  -0.01931833 -0.02913329
 -0.09755483  0.03468207  0.03009027  0.02123723  0.0166253   0.04883841
  0.05128237  0.03906698 -0.06624855  0.03470685  0.04429176  0.04564469
  0.03420748  0.01470642  0.04509398  0.03689077][-0.04016635 -0.16996952 -0.13656011 -0.1676112   0.04417009  0.11469087
  0.08232328  0.09821411  0.07588202  0.02668384 -0.20969333 -0.0461454
 -0.0357499  -0.1183804  -0.04123577 -0.06784328 -0.02943118 -0.03603931
  0.03048537  0.05957303  0.03787747 -0.11749557  0.05467555  0.05343807
  0.05059897  0.06234884  0.04526333  0.04322814  0.06036201  0.06822961
  0.05268001  0.04441232  0.06307287  0.0481115 ][-0.09869742 -0.2020117  -0.12982027 -0.09612019 -0.11600045  0.14007787
 -0.04350117  0.12187503  0.09468125 -0.01908848  0.00856471 -0.05349985
 -0.0308917  -0.10958196 -0.05372853 -0.11811423  0.01578541 -0.0984758
 -0.07202561  0.0652193   0.04228379  0.04836449  0.06662613  0.06098105
  0.05942453  0.07136764  0.07069355 -0.08331096  0.08329652  0.09025884
  0.08171026  0.06185062  0.08092718  0.06088014][-0.14842491 -0.16639598  0.00422461 -0.10147012 -0.11080544  0.13480828
 -0.16891159  0.1444346   0.02676991 -0.05770008 -0.01714928 -0.0376434
 -0.01449578 -0.07263984 -0.06396454  0.07261888 -0.03715909 -0.00719197
 -0.03677774 -0.08055246 -0.00145802  0.09279369  0.08494452  0.03511315
  0.07310564  0.05206261  0.06733935 -0.13142495  0.10553463  0.10890465
  0.10710326  0.11425606  0.10015662 -0.07000526][-0.16338515 -0.19708562  0.10042657 -0.09386343 -0.08342368 -0.184069
  0.10879244  0.13260598 -0.06412147 -0.07466144  0.05984737  0.07166657
  0.08861166  0.01371906 -0.02017463  0.08740877  0.0057715   0.01853854
 -0.06140474 -0.03896499 -0.10735584  0.08483754  0.11706158 -0.09699174
 -0.05532455  0.03106168 -0.00292068 -0.13373265  0.10219906  0.10554276
  0.10799371  0.10981391  0.10174513 -0.07016419][-0.1239579  -0.24135557  0.11130267  0.06473686  0.06493265 -0.06833949
  0.10901848  0.08948252 -0.13008262 -0.08600914 -0.10695163  0.07480041
  0.06795983  0.09582335 -0.12973161  0.07437412 -0.00719719 -0.08879001
 -0.08999087  0.04251352  0.03176426  0.07333541  0.07334025  0.05856642
 -0.06326712  0.04961837 -0.05301621 -0.14522379  0.03061388  0.09263284
  0.09097002  0.07652939  0.08667604 -0.12507814][-0.00504709 -0.03286098  0.13043333 -0.09661425 -0.15863584 -0.07241569
  0.1709911  -0.04021713 -0.09903955 -0.05352285  0.0621231   0.10634802
  0.02108931  0.0593565  -0.05869076  0.12066032 -0.10454128 -0.0485338
 -0.03367251 -0.15226156 -0.07930931  0.09199584  0.11282019 -0.05714902
 -0.0692157   0.0647091   0.04314513 -0.08775071 -0.1157666   0.11471577
  0.1132127   0.12859607  0.11918341 -0.09413528][ 0.02598413  0.10819453 -0.03153812 -0.15797537  0.02328127 -0.14440607
  0.00505967 -0.12549724 -0.11846353 -0.04886166  0.04160993  0.10364101
 -0.09816273 -0.02768782  0.03106946  0.11866774 -0.01816105 -0.04844261
 -0.01571949  0.07008163 -0.00102275  0.07978563  0.08843416  0.00088143
  0.0342845   0.03723633 -0.06539524 -0.00983843 -0.10746448  0.09883066
  0.08654307  0.09156398  0.09799169 -0.12450422][ 0.01118978  0.16280968 -0.21864324  0.06836163  0.10946643 -0.16646505
 -0.17704563 -0.18088991  0.00199757 -0.01581898 -0.07498509  0.09173146
 -0.0155234  -0.11457447 -0.109085    0.1131106   0.00949819 -0.05696565
 -0.07658594  0.08923224  0.04022139 -0.00425957  0.05802851  0.06206874
  0.05597404  0.05583709 -0.01046044  0.07273371  0.05959372  0.07412502
  0.05607268  0.06173209  0.06801805 -0.10050024][-0.02072659  0.13377603 -0.10304721  0.10042369 -0.07132603 -0.14280933
 -0.17250594 -0.0210301   0.07492999  0.03649152 -0.18334574  0.08293849
 -0.12589771 -0.12893186 -0.05621389  0.10704859 -0.02140426 -0.05042274
 -0.08009411  0.07635433  0.04186064 -0.08937569  0.04558746  0.05182492
  0.04699614  0.06627112  0.05100993  0.06152629  0.05790175  0.06025281
  0.04461112  0.03829318  0.04066692  0.04836628][-0.06570231  0.06775404  0.08811027  0.05509714  0.04672112 -0.21064503
 -0.16798806  0.03616328  0.05235502  0.04794405 -0.07838282  0.05737559
 -0.14906587  0.0180202  -0.13984389  0.08703021 -0.05293479 -0.10069226
 -0.08150925  0.04876421  0.0373442   0.02823086 -0.06556338  0.05402107
  0.04753475  0.05183631  0.05001866  0.0446395   0.04440225  0.03679487
  0.02886454  0.01329303  0.03865584  0.03135665][-0.12950492  0.08337435  0.11075391 -0.04843427  0.08749356 -0.21144111
 -0.11303882  0.06188649  0.05863725  0.06791211 -0.0126538   0.07139074
 -0.16519575  0.03089084 -0.10675981  0.10183378 -0.09302955 -0.04715117
 -0.06536491  0.05687447  0.05643948 -0.10773582 -0.07220886 -0.04853134
  0.0675829   0.03604559  0.01910675  0.05061349  0.05534128  0.04485873
  0.04214691  0.02652363  0.04887079  0.04247306][-0.21968916  0.10292139  0.11904882 -0.19053743  0.08283139 -0.25575851
 -0.01870741  0.07152143  0.06091229  0.07185082  0.08179211  0.07749332
 -0.01969904 -0.14087513 -0.07257908  0.10011009 -0.03540995 -0.04525007
 -0.07012124  0.05223242  0.04884702 -0.01803215  0.04264169 -0.05870909
  0.07787016 -0.09952786 -0.07823392  0.0561588   0.05643697  0.04952774
  0.04396722  0.02505748  0.05620081  0.04570806][-0.19323835  0.09247173  0.10517616 -0.18979104  0.06415435 -0.23069758
  0.06183693  0.06559619  0.05054971  0.06642105  0.08190577  0.07213369
 -0.11500569 -0.10363169 -0.06451606  0.08985025 -0.0640737  -0.11522011
 -0.08404015  0.040252    0.04762958  0.0550886  -0.1229855   0.04199434
  0.06311315  0.03224064 -0.03869067  0.04749301  0.05283348  0.04396003
  0.04091607  0.01796246  0.04867728  0.03963409][ 0.02142317  0.06379324  0.06562508 -0.2095968   0.05000462 -0.05157745
  0.04283191  0.04655049  0.03614654  0.06224691  0.0582333   0.0525327
  0.00377881 -0.19697558  0.06744052  0.06876007 -0.18924343 -0.11555164
 -0.06768234  0.02886161  0.04137443  0.04644855  0.0276894  -0.14884418
  0.07163873 -0.03104321 -0.03681812  0.03811535  0.03570234  0.03293458
  0.02671106 -0.00697058  0.03721068  0.02824924][ 0.00707863  0.01964513  0.02716799 -0.10133864  0.01856936  0.00897747
  0.00911648  0.01378232  0.0171483   0.04141053  0.01684042  0.0184863
  0.02809651 -0.02404291  0.03550034  0.03902104  0.03643073 -0.07826315
 -0.08213326 -0.0029724   0.01045619  0.01769706  0.0267094   0.01856997
  0.04060131 -0.09249352 -0.11337406  0.01554689  0.01371686  0.00976802
  0.00687063 -0.02603548  0.0151278   0.00831772][-0.01025088  0.00126697  0.00406154 -0.00492239  0.00727589  0.0034075
 -0.0041858  -0.00098889  0.00581372  0.0226439   0.00015884  0.00321788
  0.00601994  0.00243304  0.02189902  0.02045545  0.03114225 -0.09669249
  0.00964982 -0.0204579  -0.00223495  0.00598566  0.01454289  0.02256937
  0.02354372  0.00799004 -0.02637952  0.00188476  0.00241504 -0.00359456
 -0.00713252 -0.04199415  0.0057058  -0.00524897][ -9.56479305e-03  -3.39082185e-03  -1.46222791e-04   1.68180928e-03
   3.17353309e-03  -2.83407557e-03   3.45668197e-04  -3.08867576e-03
   3.83174720e-03   1.68666854e-02  -6.03249258e-03  -1.19917057e-03
   2.25449051e-03   1.60717740e-02   2.29866921e-02   1.74148223e-02
   3.58284888e-02  -1.13482031e-01   1.00533630e-02  -2.22556376e-02
  -7.98489817e-03   3.71479338e-03   1.27042501e-02   2.73966626e-02
   1.56369907e-02   1.65682018e-02   2.29372982e-02   1.03555667e-04
   5.69926507e-04  -6.84641894e-03  -7.92172722e-03  -4.01818699e-02
   3.93233874e-03  -9.14425639e-03][-0.00997426 -0.00398735  0.00141553  0.00227092  0.01025754  0.00738208
 -0.01632651 -0.0242142  -0.00940133  0.0158855  -0.008651   -0.00249566
 -0.00566847  0.00382742  0.01231141  0.02263686  0.03574039  0.00040423
  0.01252445 -0.02777004 -0.01214034 -0.00065255  0.00899444  0.02812934
  0.01895026  0.01828213  0.00957938 -0.0058733  -0.00678829 -0.01090674
 -0.0145799  -0.04620503  0.00499299 -0.00794993][-0.01011444 -0.00355238  0.0002974  -0.00768973 -0.01490409 -0.00977122
  0.02935633  0.03648796  0.02100107  0.01145035 -0.01933675 -0.01240257
 -0.00962294 -0.00776021 -0.00746785  0.00098171  0.04577863  0.06195656
  0.00904228 -0.01769782 -0.00891393 -0.00551177 -0.00456856 -0.00475094
  0.00180509  0.03258212  0.04723914 -0.00643429  0.00093686 -0.01043018
 -0.02183431 -0.05441265 -0.01992844 -0.04181043][-0.00767875 -0.00718352 -0.00807667  0.00335935  0.00891376 -0.0027086
 -0.02571201 -0.05563565 -0.01546135  0.02414519  0.00328575 -0.00416295
  0.00264242  0.009676    0.01577994  0.01313285  0.0357524   0.01382971
  0.02329647 -0.02322872 -0.0123371   0.00237193  0.01181532  0.02889012
  0.0130085   0.01479221  0.00113002  0.00446371 -0.00128629 -0.00734258
 -0.0106359  -0.04412257  0.00258134 -0.00729432][ -1.63026675e-02  -8.53101225e-03  -1.31975118e-03  -8.03481612e-05
   9.21109335e-04  -2.92318913e-03  -6.63928185e-04   2.41099860e-03
   4.02518134e-03   1.14393054e-02  -6.90365748e-03  -1.96523250e-02
  -7.61867786e-03   4.12993974e-03   1.08408771e-02   1.61877991e-03
   3.50437613e-02   2.90701738e-02   9.03467497e-03  -2.69774969e-02
  -1.11463786e-02  -6.41425127e-04   6.37313729e-03   2.04564579e-02
   8.79185415e-03   1.76880147e-02   2.34693711e-02  -6.28728374e-03
  -2.45417696e-03  -7.80975938e-03  -1.04622021e-02  -4.75694954e-02
   1.66122455e-03  -9.63108615e-03][-0.00216011 -0.00302111  0.00668732  0.00588916  0.01179206  0.00630897
  0.00212327  0.00421     0.01230552  0.0186079   0.00428083 -0.10506003
 -0.00592199  0.01750097  0.0290425  -0.12092177  0.04223827 -0.02877521
  0.02111815 -0.01701995 -0.00239921  0.01152024  0.01655791  0.02166735
  0.01952586  0.02166337  0.02796147  0.00417754  0.00453864  0.00129576
 -0.00096284 -0.03272396  0.00926588 -0.00131277][ 0.00681451  0.01060065  0.01573999  0.01822419  0.0210612   0.0181465
  0.00921562  0.0146873   0.01685887  0.02880275  0.01909013 -0.07254123
 -0.10777839 -0.11385349  0.04179764 -0.1180768   0.05626811 -0.09040337
  0.0335594  -0.01027058  0.00792599  0.02486716  0.01916732  0.01939702
  0.02732692  0.02320171  0.03287477  0.01250317  0.01257053  0.00979772
  0.00733598 -0.01580406  0.01812829  0.00276448][-0.02372209  0.02690018  0.0327976   0.01449432  0.03315213  0.03110219
  0.02733856  0.03324827  0.03083467  0.04654684  0.03274533 -0.17012798
 -0.03652867 -0.10337974  0.03121311 -0.16077469  0.07173766 -0.06292354
  0.05081806  0.01477122  0.04412292  0.04308139 -0.06584601 -0.12190484
  0.0657473  -0.09592819  0.03273947  0.02646655  0.03026606  0.02526942
  0.02821163  0.00940291  0.03445576  0.0236722 ][-0.16406876  0.07169825  0.06738406 -0.15852278  0.0548656   0.05737248
  0.05034983  0.06729095  0.04727864  0.05318044  0.05257865 -0.18403317
 -0.0618366  -0.06944985 -0.14885556 -0.14148174  0.07853802 -0.08777287
  0.0506481   0.03156182  0.04758272  0.05577894 -0.05420724  0.00992877
  0.06677011  0.01158594 -0.09038918  0.04052578  0.04830738  0.03881566
  0.04172485  0.03294904  0.04770317  0.03619855][-0.20205767  0.07813722  0.08216975 -0.18873589  0.06750843  0.05223415
  0.06214162  0.07097623  0.05676139  0.05497599  0.02881744 -0.04751404
 -0.14255492  0.0148264  -0.07802161 -0.03874715 -0.13052521 -0.0210984
 -0.0887127   0.04167603  0.04912521 -0.04878323  0.03017424 -0.02800169
  0.0737706   0.0125983  -0.10582511  0.05074326  0.05743253  0.0516489
  0.04985252  0.031602    0.0566722   0.04673321][-0.18322889  0.05746312  0.10389952 -0.16771853  0.08516665 -0.02574889
  0.09213746  0.0877635   0.07191342 -0.00721353 -0.04756903 -0.05790983
 -0.09771554  0.0138661  -0.12205217 -0.05429012 -0.01021853 -0.02370013
 -0.08888514  0.06600645  0.07424107 -0.04439955 -0.09068228 -0.06082077
  0.0933857  -0.06342511 -0.0720198   0.06588697  0.07350063  0.07165488
  0.06841177  0.05708754  0.07296231  0.06225075][-0.19035981 -0.05946518  0.08367089 -0.02089839  0.08627408 -0.06750114
  0.09527903  0.08478685  0.07075725 -0.08182434 -0.17772768 -0.09798585
 -0.14681781  0.01480625 -0.08232631 -0.10547109 -0.06620438 -0.04017878
 -0.08667093  0.06896981  0.04412641  0.02298864  0.03391227  0.06009414
  0.06172114  0.06244314 -0.01627693  0.06201937  0.07500532  0.0741753
  0.06169844  0.04872123  0.06934844  0.05891062][-0.16286863 -0.06268083  0.042175    0.08035006  0.06316692 -0.12273288
  0.0958552   0.07931529  0.06859459 -0.02753872 -0.18163211 -0.15464204
 -0.0226397  -0.07382128 -0.02588636 -0.06618197 -0.06708911 -0.06053675
 -0.10674597  0.06179575  0.04108475 -0.12704471  0.05916596  0.0559945
  0.05427381  0.06325098  0.05594201  0.05941372  0.07009681  0.06908505
  0.06110489  0.05544326  0.06635591  0.05957658][-0.01258499  0.04016998  0.01894821  0.08600758 -0.12637519 -0.15174286
  0.01935504  0.03509113  0.08485178 -0.05846967 -0.1302511  -0.13835298
 -0.08986494  0.01407031 -0.13016479 -0.09990214 -0.08717997 -0.09571258
 -0.07530943  0.06276476  0.03862829  0.05358477  0.06539867  0.06068503
  0.05326195  0.05213628  0.06650684  0.05413302  0.07291736  0.07294255
  0.05976873  0.05355243  0.06966056  0.06147538][ 0.08326199  0.14725217 -0.03649861 -0.07859489 -0.14449256 -0.16467485
 -0.12617008  0.04731801  0.08439809 -0.08628827 -0.00575732 -0.01159211
 -0.07811938 -0.01861431 -0.11617982 -0.06556402  0.00880983 -0.02891571
 -0.06006492 -0.09867486  0.00909204  0.09530244  0.08869457  0.05362323
 -0.03468439 -0.06030368  0.08025698  0.00567791  0.08517704  0.08953355
  0.07979636  0.08030447  0.0876741   0.08901699][ 0.1126      0.18805786 -0.15117831 -0.08849701 -0.00971601 -0.13526466
  0.10510732  0.10862372 -0.06274083 -0.08734502 -0.13044914  0.04463445
  0.07777933 -0.12744061 -0.00876242  0.00815444 -0.05039652 -0.00793382
 -0.07807217 -0.03325865 -0.09633548  0.10386377  0.12982301 -0.08044538
 -0.04595837 -0.06461393  0.04920989 -0.13554625  0.0384089   0.10891056
  0.11887161  0.11923815  0.10658404 -0.02591249][ 0.08562681  0.16336466 -0.28284402  0.0421379   0.05432619 -0.04111854
  0.08331156  0.0948444  -0.13484508 -0.11033142 -0.16770578  0.07009387
  0.06219445  0.09110355 -0.12935933 -0.00301393  0.0253816  -0.02525021
  0.02383889  0.04859251  0.03758552  0.08255823  0.08279996  0.06653766
 -0.03027344 -0.09786297 -0.06683646 -0.12806649 -0.14537313  0.08730673
  0.08999583  0.07327628  0.08943512 -0.09143092][ 0.13042512  0.2001502  -0.18181721 -0.09736529 -0.1095756   0.12163559
 -0.07439536  0.11044441  0.03408569 -0.08591999 -0.11856571  0.11470983
 -0.06198824 -0.01661107 -0.0480246  -0.02900746 -0.09797544  0.03075036
  0.024347   -0.13397607 -0.07484826  0.11073597  0.12444445 -0.04096286
 -0.02936806 -0.04318124 -0.03985044  0.04332117 -0.12199471  0.1151221
  0.10334187  0.12621971  0.11524893 -0.09955481][ 0.12527248  0.19904412 -0.20906109 -0.11601825  0.00714199  0.14445272
 -0.08183185 -0.075868   -0.07053256 -0.06214337  0.01460463  0.11107169
 -0.04362953  0.00248912 -0.09365525 -0.07835377  0.03171576 -0.04026056
 -0.14251631  0.1000912   0.02467945  0.09671021  0.10693314  0.03331115
 -0.0870617  -0.06304965 -0.04249233  0.09886995 -0.12599377  0.10815863
  0.06375565  0.09674306  0.10730219 -0.13987916][ 0.08537611  0.14657451 -0.22649792  0.09376166 -0.17815232  0.0996144
  0.08233566 -0.1753728   0.03106211 -0.04965258 -0.13614379  0.08223162
 -0.03304226  0.00696412 -0.11215106  0.0727295  -0.10281414 -0.05301536
  0.01191914  0.07223576  0.04620901  0.00280861  0.06311134  0.07258025
  0.04464877 -0.0686421   0.0406474   0.08310706 -0.05777916  0.0716105
 -0.1369637   0.0548873   0.06999312 -0.00418078][ 0.06921488  0.07971111  0.0177948   0.08683661 -0.21506301  0.06025918
  0.08900594 -0.19535974  0.07151205 -0.04432974 -0.18684706  0.07524992
 -0.14619745 -0.05490278 -0.05482353  0.09493137 -0.06223543 -0.05336571
 -0.02667817  0.06007794  0.03856102 -0.1112537   0.04746943  0.05205803
  0.04679625  0.05704876  0.05183954  0.06356086  0.0640383   0.05890742
  0.00200337  0.03739388 -0.12445932  0.05124498][ 0.06470502  0.06123348  0.08874936  0.08772151 -0.03456206 -0.02279907
  0.07717167 -0.20771735  0.06587837 -0.0921803  -0.13436793  0.07365752
 -0.13430846 -0.01983382 -0.15274021  0.10571987 -0.08250855 -0.07908942
 -0.19900971  0.05998602  0.05056598 -0.01667807 -0.0691895   0.0688248
  0.05575548  0.06571481  0.06014249  0.06222941  0.06884085  0.06267995
  0.04977433  0.03091482 -0.06973951  0.05445822][ 0.05063831  0.05578563  0.09649039  0.05993517  0.06806084 -0.18304881
  0.07561515 -0.06789496  0.0554771  -0.03894151 -0.11997159  0.07195945
 -0.14705842 -0.05539888 -0.14962753  0.10356222 -0.05324496 -0.07329906
 -0.0838218   0.05238611  0.05802394 -0.1240068  -0.1005649  -0.04460874
  0.06654065  0.05440602  0.0566193   0.05387019  0.05300197  0.04600566
  0.04385483  0.02931796  0.0481564   0.04178068][ 0.04575219  0.07266515  0.10067419 -0.15009285  0.07111212 -0.2241894
  0.07443668  0.02755719 -0.00992857  0.05149514  0.05769269  0.06044513
 -0.05349103 -0.05520074 -0.09054776  0.0928891  -0.09158426 -0.08861995
 -0.111243    0.04288402  0.0494632  -0.01865641  0.01143383 -0.06247918
  0.07335397 -0.09940111 -0.03586361  0.04488921  0.04401866  0.0351066
  0.03655224  0.01334788  0.0467334   0.03879525][ 0.04283371  0.06787846  0.09743059 -0.20674244  0.06355752 -0.23608421
  0.07541923  0.04412578 -0.00786391  0.05779785  0.06584936  0.05557036
 -0.09136293 -0.09557884 -0.06487177  0.08306913 -0.04361488 -0.02795896
 -0.10869621  0.03218     0.04741975  0.04840085 -0.15561563  0.04076212
  0.06290209  0.03407898 -0.11442929  0.04242715  0.04145662  0.03300529
  0.03239908  0.00638551  0.04165679  0.03621288][ 0.0456211   0.06597982  0.08273373 -0.23892666  0.0553     -0.16721167
  0.05819952  0.04071917  0.04214113  0.05986812  0.06611407  0.05022836
 -0.15009269 -0.06051468  0.07385707  0.06910545 -0.1440064  -0.02126862
 -0.09115912  0.03346716  0.04362421  0.05134218  0.02994903 -0.15409624
  0.0734788  -0.0226472  -0.0936016   0.03866681  0.03431943  0.02933419
  0.03039655 -0.00043922  0.0391382   0.03038   ][ 0.0125703   0.01562383  0.02504694 -0.04811654  0.02126685  0.00599589
  0.0124343   0.0106192   0.01919438  0.03991021  0.02066198  0.02959004
  0.03014844 -0.16121712  0.04024288  0.04086261  0.04674535 -0.1317302
 -0.04758078 -0.00219158  0.01424205  0.02164264  0.0302054   0.01891367
  0.03906892 -0.0826184  -0.080723    0.01717379  0.01494634  0.01238648
  0.00927935 -0.02373277  0.01893436  0.01020419][-0.00321943 -0.00109371  0.00473402 -0.00090382  0.00533955 -0.00047668
 -0.00177165 -0.00576824  0.00564111  0.01905476  0.0004206   0.00341863
  0.0027517  -0.00156721  0.0207622   0.02030094  0.03308416 -0.11843659
  0.0092956  -0.02050512 -0.00411375  0.00620472  0.01333768  0.02357025
  0.01999547  0.01053745  0.01159709  0.00191667  0.00084996 -0.00338829
 -0.0074171  -0.03982952  0.0029326  -0.00725408][-0.00932855 -0.00323808 -0.00034263  0.00194063  0.00534959 -0.00066913
 -0.00194284 -0.00463147  0.00384047  0.01553036 -0.00214225  0.00059728
  0.0008961   0.0143376   0.02170801  0.01607879  0.03405831 -0.11612343
  0.01236372 -0.02061382 -0.007695    0.00403202  0.01160875  0.02763389
  0.01436216  0.01787687  0.02528918  0.00030196 -0.00057389 -0.00657496
 -0.00916543 -0.03834687  0.0028569  -0.00927423][-0.0080983  -0.00628689  0.00201343  0.00592958  0.01054759  0.00353238
 -0.01578177 -0.02577265 -0.00914712  0.0162791  -0.00665113 -0.00227523
 -0.00404088  0.00585943  0.01575263  0.0227015   0.03405546 -0.00222452
  0.01076898 -0.02537883 -0.01043259 -0.00184048  0.00902932  0.0299341
  0.01755816  0.01600199  0.00989087 -0.00717301 -0.00810129 -0.01061602
 -0.01415651 -0.04974227  0.00532251 -0.00745754][-0.0115791  -0.00273565 -0.00198386 -0.00917122 -0.01227066 -0.00719327
  0.02743879  0.03687531  0.01837368  0.00999975 -0.01890352 -0.01235002
 -0.01118645 -0.00517619 -0.00721176  0.00114017  0.04394894  0.06343678
  0.01137587 -0.01959612 -0.00765933 -0.00537533 -0.00332536 -0.0049193
  0.0031889   0.03155943  0.04618695 -0.00783117 -0.00048111 -0.01026627
 -0.02166751 -0.05435165 -0.01833946 -0.03995024][-0.00912255 -0.0091286  -0.00712105  0.0018464   0.01121163 -0.00639409
 -0.02324803 -0.05182569 -0.01813061  0.02430437  0.00174791 -0.00229808
 -0.00028589  0.01036556  0.01951981  0.01484911  0.03405231  0.01403888
  0.02377453 -0.02231959 -0.01179671  0.00261649  0.01106074  0.0263443
  0.01347411  0.01642715  0.00134084  0.0062688  -0.00111044 -0.00706844
 -0.01045396 -0.04726962  0.00276568 -0.00843527][-0.0157217  -0.0053597  -0.00102756 -0.00151759 -0.00035682 -0.00435607
 -0.00181713 -0.00038536  0.00451057  0.00890996 -0.00653459 -0.02085591
 -0.00575528  0.00437411  0.01267656  0.00531822  0.03547972  0.02930583
  0.00964484 -0.02646761 -0.01071935 -0.00176788  0.00667127  0.02083571
  0.00768496  0.0166853   0.02373159 -0.00419723 -0.00341218 -0.00869175
 -0.0115592  -0.04696468  0.00076891 -0.00912998][ -2.00025522e-03  -2.73558651e-03   3.32141975e-03   5.42023151e-03
   9.17401148e-03   3.67231643e-03  -9.11275316e-05   2.88822878e-03
   7.33076927e-03   1.58345566e-02   1.34077165e-03  -1.31533043e-01
  -1.12911984e-02   1.37946361e-02   2.26002623e-02  -3.38622896e-02
   4.25337556e-02  -1.30300938e-02   1.83826384e-02  -1.85129198e-02
  -3.78603537e-03   8.59122015e-03   1.34499464e-02   2.02624146e-02
   1.57369410e-02   1.83855642e-02   2.46982290e-02   2.90049317e-03
   1.34213624e-03  -4.13800501e-03  -4.53588460e-03  -3.13341399e-02
   8.20772639e-03  -3.01769068e-03][ 0.01697186  0.01490413  0.02029421  0.02562837  0.02311569  0.02218728
  0.01547497  0.01869849  0.02056284  0.03205566  0.02344    -0.10051057
 -0.15025574 -0.09431837  0.05383122 -0.1726823   0.06160039 -0.0887149
  0.04120122 -0.00476424  0.0168428   0.03335906  0.01842407 -0.01584695
  0.03398536  0.01771234  0.03728135  0.01429019  0.01826497  0.01095183
  0.01222707 -0.00824793  0.02368798  0.00834766][ 0.02668311  0.0271277   0.03080782  0.03340053  0.03422891  0.0302913
  0.02162572  0.03138165  0.03107772  0.04048334  0.02853702 -0.13449967
 -0.10133951 -0.09189382  0.05017536 -0.11271619  0.07307531 -0.09323539
  0.05288081  0.01438088  0.04779994  0.04399858 -0.071711   -0.11630004
  0.07073933 -0.08521189 -0.04697149  0.0258762   0.02720926  0.02049078
  0.02637944  0.00967     0.03379122  0.02176708][ 0.03227825  0.03834598  0.03952058  0.03518748  0.03617284  0.03899954
  0.02934801  0.03556133  0.03671047 -0.00705197  0.03431637 -0.05080639
  0.00801391 -0.23071482 -0.15329589 -0.06361975  0.08533394  0.01472479
  0.05366146  0.01962938  0.05237606  0.02797533 -0.10399363 -0.09304187
  0.0750677  -0.10591346 -0.09686428  0.03252003  0.03502023  0.02953553
  0.03549347  0.01264125  0.04140792  0.02546022][ 0.05798692  0.07361103  0.06041515 -0.09965027  0.06988904  0.05261461
  0.05486764  0.06576446  0.05691742 -0.08050244  0.00277258 -0.08691589
 -0.0419451  -0.15741287 -0.07866569 -0.06636188  0.02448666 -0.1045966
 -0.06688527  0.04608466  0.07241603 -0.09395091 -0.096494   -0.08424228
  0.08724047 -0.08584447  0.02302606  0.05399578  0.06077667  0.05914042
  0.05976873  0.04645135  0.06365444  0.05158753][ 0.06608741  0.1478498  -0.19092714 -0.18093915  0.09602614 -0.00720674
  0.08749789  0.08000075  0.06982707 -0.0396758  -0.05516704 -0.02968682
 -0.01507352 -0.04168781 -0.09594662  0.01664661 -0.09833909  0.01498685
 -0.07860522  0.06178093  0.07387003 -0.07319556 -0.0965941  -0.08852734
  0.0898072  -0.07078781 -0.04959535  0.06011388  0.06270486  0.05995207
  0.05908638  0.04224421  0.06465204  0.05882098][ 0.07043579  0.16003376 -0.23831387 -0.17641945  0.09690093 -0.09646114
  0.10107016  0.08139517  0.07356778 -0.15313826 -0.16954119 -0.12077265
  0.00575053 -0.00586613 -0.00045477 -0.05940321 -0.01410738 -0.03269128
 -0.08152809  0.0675415   0.05393413 -0.04814652 -0.01050032  0.04397212
  0.07336872  0.04268035 -0.09971764  0.06337867  0.06952142  0.06709121
  0.06111461  0.04619979  0.06562388  0.06348141][ 0.07122415  0.15898796 -0.24466865 -0.09287255 -0.03016499 -0.09618583
  0.10560489  0.06874281  0.07321675 -0.12991847  0.03418835  0.01150472
 -0.0653554  -0.15563121 -0.10822929 -0.03846068 -0.08895694 -0.02849552
 -0.08905949  0.0453059   0.04014497 -0.10357909  0.05712121  0.05915196
  0.05443812  0.04542955  0.03854283  0.05855646  0.06546103  0.0652204
  0.05471048  0.03763802  0.06601911  0.06036845][ 0.08677899  0.1703278  -0.25084977  0.08306488 -0.16537969 -0.01261722
  0.07034269 -0.05932913  0.08804757 -0.0784163  -0.0600929  -0.10759133
 -0.0554597  -0.133198   -0.01133395 -0.02670198 -0.11624657 -0.11176025
 -0.1375041   0.04576827  0.03670554 -0.02367848  0.0687118   0.06054229
  0.05672259  0.04978054  0.06968963  0.06250179  0.07388964  0.0657361
  0.06039793  0.05880456  0.07114921  0.07119755][ 0.12074886  0.21168969 -0.19894145 -0.0555988  -0.12294705  0.0197087
 -0.15402592 -0.11558029  0.08741025  0.04492887 -0.1191026  -0.00191033
 -0.04184165  0.0076921  -0.03790584 -0.11211573 -0.03940048 -0.00258538
 -0.15360536 -0.11225075 -0.05819814  0.09297561  0.0947653  -0.00844514
  0.02502772  0.00592693  0.06751691  0.04551235  0.08945281  0.06951639
  0.07631572  0.0943185   0.08659248  0.09435573][ 0.1414846   0.22179492 -0.19429485 -0.07067087 -0.00669353  0.05984751
 -0.07909393 -0.12393653 -0.06640398 -0.09917463  0.03681156  0.06057605
  0.03271584 -0.09593209 -0.09681132  0.05202585  0.06018722  0.02060266
 -0.09572409 -0.15249303 -0.09338876  0.10697865  0.13145469 -0.06630885
 -0.03849294 -0.0424215  -0.03074295 -0.11619065  0.10248633  0.06796172
  0.11542389  0.13321273  0.09872435  0.02648594][ 0.12761007  0.14418973 -0.04914941  0.05113335 -0.11804443  0.14522192
 -0.15285665  0.09940508 -0.03826469 -0.08525102 -0.1128142   0.09341653
  0.04128905  0.12399242 -0.10919862  0.0684936  -0.10584829  0.01755715
  0.0056613  -0.15961277 -0.11653863  0.10355308  0.12560151 -0.07036622
 -0.01086438 -0.01489031 -0.02905703 -0.02737177 -0.07468037  0.03368482
  0.11150608  0.13200178 -0.08942803 -0.06008065][ 0.13750645  0.0413955   0.08676647 -0.11063957 -0.13658809  0.08727035
  0.04903026  0.12615635  0.07778995 -0.07144359 -0.05222242  0.11714248
 -0.02948658 -0.03635681 -0.0408672  -0.08880963  0.00449927 -0.0672417
  0.04128866 -0.14092865 -0.09545358  0.10690375  0.13191449 -0.07310847
 -0.03198044 -0.03025195  0.05369458  0.0892278  -0.09983487 -0.02065668
  0.01295475  0.13891325 -0.07881793 -0.09776619][ 0.12643228 -0.13536978  0.12491775 -0.07026858  0.06204991  0.08443714
  0.09837316  0.11279614 -0.12498086  0.07901271 -0.0546444   0.10236538
 -0.06959952  0.00892069 -0.10000177 -0.00206655 -0.11594913  0.06161387
 -0.13077041  0.03329942 -0.05907877  0.08710633  0.11214636 -0.01084073
 -0.04040283 -0.07369091 -0.03677879  0.02893809 -0.12751612 -0.09057059
 -0.11653532  0.09697046  0.10316228  0.0365231 ][ 0.1090381  -0.28181023  0.05113361  0.10232169 -0.01898013  0.09066003
  0.10209545  0.04538999  0.02640354 -0.08713985 -0.02809847  0.10376205
  0.00134459 -0.15182464 -0.00194194 -0.10834647 -0.01588691 -0.03825688
 -0.00720116  0.06704216  0.05053076 -0.09659217  0.07805461  0.067973
  0.06432074  0.0328101  -0.04942043  0.08067674 -0.11318802 -0.12350357
 -0.14148423  0.07128223  0.0464306   0.07240513][ 0.10804834 -0.21980432 -0.03731217  0.1233866  -0.20536542  0.11137448
  0.12764394 -0.07734445  0.0915659  -0.09198565  0.0510894   0.10030754
 -0.03871587 -0.16029006 -0.10579665  0.09082911 -0.08200028 -0.05235316
  0.01174668  0.07200044  0.0591311  -0.05075512  0.04265935  0.06876385
  0.06802732  0.05099488  0.06443936  0.09950036  0.06462094 -0.1552295
 -0.15625665  0.06749224 -0.11578277  0.07537024][ 0.09599161 -0.26462625  0.07345217  0.11074028 -0.009147    0.09921204
  0.10080749 -0.13417151  0.08267115 -0.1117114  -0.16580496  0.09067364
 -0.08888676 -0.00434391 -0.02920147  0.1135003  -0.1238876  -0.09337061
 -0.15831163  0.08569288  0.06588303  0.02901537 -0.10202921  0.07169355
  0.06976619  0.05843033  0.07106914  0.08293737  0.09307638 -0.16301952
  0.0257116   0.05274061 -0.09744663  0.07289334][ 0.09228279 -0.28967019  0.14352462 -0.02728646  0.0873607   0.08464497
  0.08503708 -0.1614858   0.07070384 -0.01422666 -0.08885002  0.08625786
 -0.05124618 -0.03455706 -0.09726507  0.11121071 -0.09207107 -0.03978015
 -0.14405186  0.07542985  0.06941475 -0.08747078 -0.07400179 -0.08677736
  0.08379325  0.0397412   0.01492908  0.06581016  0.07158825 -0.12094136
  0.05645499  0.04535841  0.06710916  0.05903017][ 0.09540774 -0.24511216  0.16176376 -0.12579485  0.095701    0.07058561
  0.08511182 -0.18106221 -0.02006405 -0.0830384   0.06130179  0.09060533
 -0.00974966 -0.18725204 -0.1108265   0.11418924 -0.00660125  0.02531622
 -0.03250767  0.06053897  0.06736765 -0.11387556 -0.01639208 -0.09945226
  0.09159899 -0.08031153 -0.06678742  0.06438849  0.06854753  0.00170957
  0.05845528  0.04378256  0.06874593  0.05371015][ 0.0835771  -0.10879122  0.1355798  -0.17557592  0.09817114  0.0175785
  0.08395004 -0.17109551 -0.09483693  0.01008356  0.08811827  0.08375101
 -0.08949671 -0.14702051  0.04582479  0.09764786 -0.14097238 -0.07821888
 -0.05567405  0.05558701  0.06898564  0.05119837 -0.09444918 -0.10044983
  0.08953602 -0.09419967 -0.01512947  0.05773021  0.06008123  0.04659684
  0.05009284  0.03102146  0.06157495  0.04922363][ 0.03825816  0.00137422  0.05104482 -0.05156663  0.04504406  0.01930439
  0.03795987 -0.13306778  0.02434129  0.05056087  0.04678444  0.05010413
 -0.13759377 -0.05213843  0.0574675   0.06249559  0.02445626 -0.05205057
 -0.12574021  0.02660649  0.04803427  0.04371576 -0.06972275 -0.12787638
  0.07145059 -0.10247656 -0.03496998  0.03445499  0.03467561  0.02633683
  0.03050782  0.00138314  0.03595631  0.02488565][ 0.01331941  0.00539755  0.01860594  0.01373158  0.01917451  0.00816948
  0.01392658 -0.05238496  0.01502665  0.03555397  0.01786978  0.02313064
  0.01026276 -0.13907756  0.03449933  0.03923767  0.04691778 -0.03499488
 -0.00952935 -0.00399616  0.01446152  0.02040252  0.02888868 -0.02214942
  0.042967   -0.09472739 -0.11221902  0.01694045  0.0123137   0.00838627
  0.00995414 -0.02421811  0.01841426  0.0057447 ][-0.00091073 -0.00451777  0.00330045  0.005116    0.00811722  0.00379981
 -0.00134701 -0.01554241  0.00556208  0.02204096  0.00035721  0.00390884
  0.00240099  0.0014746   0.0221873   0.02133809  0.03534908 -0.09174285
  0.01236044 -0.01597798 -0.00258747  0.00660009  0.01439048  0.0244141
  0.0240477   0.00872718 -0.04779303  0.0036694   0.00146432 -0.00280012
 -0.00658594 -0.03935116  0.00491872 -0.00638858][-0.00748821 -0.00515424 -0.00244378  0.00377093  0.00346413  0.00124131
  0.00026605 -0.00973879  0.00550203  0.01731791 -0.00372521  0.00035113
 -0.00076757  0.01453152  0.02082834  0.01759797  0.03584594 -0.10281128
  0.01044278 -0.02206179 -0.00917801  0.00652433  0.01153197  0.02733723
  0.01569832  0.01667553  0.0235384  -0.000746   -0.00184932 -0.00627496
 -0.01020201 -0.03983262  0.000281   -0.01047302][-0.00955831 -0.00309748 -0.00079698  0.00447126  0.01067771  0.00543604
 -0.01166658 -0.02887877 -0.01176139  0.01647995 -0.00617111 -0.0022354
 -0.00374553  0.00394797  0.01220116  0.02463008  0.03426618  0.00729088
  0.01107061 -0.02709736 -0.01180028 -0.00167245  0.00924224  0.02830197
  0.01911202  0.01606872  0.00949338 -0.0052224  -0.00933227 -0.01031767
 -0.01544993 -0.0492424   0.00419092 -0.00883479][-0.00950656 -0.00489702 -0.00090549 -0.00892124 -0.01603007 -0.00886884
  0.02816     0.03886052  0.0200626   0.00990069 -0.01878576 -0.01336659
 -0.00908919 -0.00962143 -0.00701762  0.00131781  0.04589082  0.0623888
  0.01339304 -0.01905599 -0.00867042 -0.00521458 -0.00437484 -0.00460634
  0.00348653  0.03283275  0.0452728  -0.0063114  -0.00051267 -0.00867938
 -0.02009094 -0.05750001 -0.01827167 -0.0412683 ][-0.00727299 -0.00925309 -0.00739863  0.00535906  0.01137381 -0.00445951
 -0.02330793 -0.05349393 -0.01940196  0.02337121  0.00595954 -0.00388364
  0.00115577  0.01253509  0.01590584  0.01529118  0.03436149  0.01674111
  0.02207806 -0.02433684 -0.01152153  0.00151912  0.0098222   0.02815957
  0.01215637  0.01521704  0.00242525  0.00527988 -0.00215933 -0.00809605
 -0.0114077  -0.04486843  0.00180848 -0.00965852][-0.01655949 -0.0066849   0.00065499 -0.00057232 -0.00109474 -0.00515783
 -0.00263096  0.0038145   0.00529382  0.00873153 -0.00725271 -0.01702237
 -0.00768558  0.00387608  0.01187861  0.00979738  0.03130631  0.03270484
  0.00959779 -0.02302285 -0.00974112 -0.00330643  0.00660846  0.0173449
  0.00856173  0.01657464  0.02537041 -0.00614612 -0.00232016 -0.01197048
 -0.01182198 -0.04988245  0.00037771 -0.00962123][-0.00962859 -0.00720114 -0.00367942  0.0042546   0.00355664 -0.00038001
 -0.00432574 -0.00478041  0.00436788  0.00952637 -0.00300314 -0.056412
 -0.01416058  0.00815813  0.01236822  0.0093618   0.03809852  0.02620808
  0.01455767 -0.02497402 -0.007568    0.00286473  0.00804378  0.01409071
  0.01093174  0.01419841  0.02001257 -0.00046186 -0.0011824  -0.00915428
 -0.0091076  -0.0392589   0.00298324 -0.008305  ][ 0.01177415  0.01025551  0.01186484  0.02204892  0.01870836  0.01700208
  0.01142339  0.01364377  0.01834072  0.02050679  0.01873114 -0.12347281
 -0.14649996  0.00788212  0.03839696 -0.0259089   0.05653376 -0.0165877
  0.03710556 -0.00138642  0.0251569   0.02928853 -0.03981631 -0.09481571
  0.04253305 -0.05587767  0.04149973  0.01216311  0.01239446  0.00299065
  0.01018849 -0.01146539  0.01934403  0.00605386][ 0.03699066  0.02458095  0.03066022  0.04053249  0.03611917  0.03530782
  0.02467451  0.03350431  0.03352265 -0.05532282  0.03573374 -0.12156991
 -0.04980778 -0.19891563  0.0682281  -0.17127441  0.08206855 -0.07967748
  0.07073646  0.01705942  0.04843544  0.04804587 -0.10074369 -0.11280532
  0.06785863 -0.09515744  0.04134701  0.03128712  0.03632125  0.02362614
  0.03483674  0.01538976  0.04431753  0.02408991][ 0.0397458   0.01949139  0.03136085  0.03851665  0.03428134  0.03178012
  0.02367871  0.03443114  0.03283528 -0.08373496  0.03324927 -0.16950798
 -0.108359   -0.14386605  0.0515238  -0.12347066  0.07821268 -0.04616914
  0.05868279  0.01176231  0.03579215 -0.03556154 -0.04416438  0.01749948
  0.05501549  0.02253118 -0.09318498  0.0310481   0.03687083  0.0115898
  0.03457741  0.01676662  0.04042072  0.02635478][ 0.04680121  0.03218553  0.03973314  0.04421403  0.04356114  0.04716806
  0.03803221  0.04083475  0.04169344 -0.11739057 -0.02261659 -0.08051747
 -0.06374642 -0.04834442 -0.12663715 -0.06880335  0.0950897  -0.0513453
 -0.04166363  0.02664774  0.04100404 -0.13254704  0.03078576 -0.02471595
  0.06465754  0.02239888 -0.10425279  0.03843434  0.04723333 -0.00396195
  0.04255169  0.02098542  0.04798979  0.03454089][ 0.06687991  0.06238461  0.05897085 -0.03740746  0.05566467  0.06601184
  0.05702512  0.05253706  0.0576587  -0.11203631 -0.08279959 -0.00855484
 -0.10505833  0.01162745 -0.14129844 -0.05018525 -0.02716866 -0.03162431
 -0.07688002  0.0524239   0.0697997  -0.02929599 -0.07690586 -0.08604679
  0.08880774 -0.04267168 -0.08507434  0.05475315  0.06409498 -0.03914676
  0.0559714   0.03721223  0.0636333   0.056698  ][ 0.09679751  0.10333131  0.07469748 -0.18318047 -0.07539754  0.09158848
  0.08889923  0.06067518  0.07668639  0.02553471 -0.20833544 -0.11356738
 -0.06743114 -0.01664172 -0.04357398 -0.09123178 -0.11622835 -0.04134355
 -0.07876627  0.07492381  0.07001859  0.06350287 -0.07550061 -0.03384459
  0.08265003 -0.07669089  0.01974542  0.05799087  0.07556799 -0.09913103
  0.06187405  0.05350028  0.0748429   0.06803766][  9.75546787e-02   1.06176395e-01   6.77974005e-02  -1.75031880e-01
  -1.98622641e-01   5.54990990e-02   9.96812863e-02  -7.16311525e-02
   6.98388256e-02   3.83897694e-02   2.02135943e-02  -1.50365919e-01
   1.85642424e-04   5.87105221e-02  -5.43280331e-02  -9.29356773e-02
  -5.64916177e-02  -1.49729184e-02  -1.80266736e-01   5.39197486e-02
   4.45113956e-02  -9.04104571e-02   5.56888501e-02   7.66857509e-02
   5.66229250e-02  -9.90287337e-02   6.43921178e-02   5.28407223e-02
